   0.18838,  -0.54531,   0.81441,   0.47161,  -0.62275,   0.12079,   0.80760,  -0.13897,   0.47902,   0.54690
  -0.06771,   0.86778,  -0.93750,   0.42347,   0.36699,   0.30304,   0.54776,   0.87396,   0.93750,  -0.78562
  -0.75355,   0.31489,  -0.39573,   0.50788,   0.02622,  -0.48208,   0.93006,  -0.16988,   0.93750,   0.73550
  -0.93750,  -0.20903,  -0.35550,   0.14968,  -0.87994,  -0.49135,  -0.02532,  -0.32873,  -0.16438,  -0.93750
   0.83252,   0.82496,  -0.66533,  -0.82030,   0.93530,  -0.61029,   0.88111,   0.86954,   0.82212,  -0.55808
  -0.78233,  -0.16155,   0.50491,   0.15636,   0.88287,   0.93750,  -0.93750,  -0.80328,  -0.73625,   0.47677
   0.32135,  -0.13783,   0.24687,   0.77347,   0.55407,  -0.93749,   0.67385,   0.93750,   0.57518,  -0.68403
  -0.31669,  -0.13320,  -0.91160,  -0.93196,  -0.79692,  -0.44678,   0.87874,   0.93750,   0.01494,  -0.59630
  -0.93750,  -0.87398,   0.93750,  -0.93750,   0.93750,  -0.83326,  -0.63829,  -0.93750,  -0.93750,   0.65654
  -0.75743,  -0.38461,   0.12669,  -0.61939,   0.68004,   0.79322,  -0.00743,  -0.18322,   0.09910,  -0.10340
  -0.82559,   0.26099,   0.93750,   0.54647,  -0.56935,  -0.56239,   0.87199,  -0.45141,   0.54791,   0.29725
  -0.27090,   0.32620,  -0.89444,   0.33477,   0.93750,   0.44136,   0.48423,  -0.93750,  -0.29712,  -0.02494
  -0.12561,   0.34033,   0.21258,   0.13665,   0.70111,  -0.72041,  -0.06129,   0.64986,  -0.44741,  -0.13129
   0.93750,   0.93750,  -0.61777,   0.82787,   0.66061,  -0.03585,   0.17629,   0.27107,  -0.38563,  -0.35578
  -0.14355,   0.17779,  -0.04882,   0.84767,  -0.37392,  -0.66026,  -0.21603,  -0.31872,   0.35769,  -0.20189
   0.08573,   0.16774,  -0.70216,  -0.93750,   0.93750,   0.91901,   0.87098,   0.93750,  -0.93750,  -0.07428
  -0.68930,  -0.07213,  -0.81640,   0.80772,  -0.93750,   0.72622,   0.76627,  -0.82415,   0.50702,  -0.19621
   0.93750,   0.93750,  -0.31170,   0.52850,   0.10665,  -0.30091,   0.25927,   0.14042,   0.60704,  -0.79547
  -0.81746,   0.93750,   0.73575,  -0.42035,  -0.58238,   0.89990,  -0.60765,  -0.72440,  -0.90549,   0.93750
  -0.24564,   0.02943,  -0.46423,  -0.75758,   0.93750,  -0.65531,   0.27759,   0.93750,   0.00170,   0.64768
  -0.93719,   0.08361,   0.69321,   0.93428,   0.46209,   0.60129,   0.56404,   0.37393,  -0.92368,   0.43840
   0.87871,   0.09064,  -0.52947,   0.93750,  -0.67744,  -0.84088,   0.01519,   0.06737,  -0.30764,   0.65342
   0.61057,  -0.93750,   0.93750,  -0.63122,   0.93750,   0.89254,  -0.93750,  -0.81720,   0.93750,  -0.29068
  -0.31713,   0.08532,  -0.17237,  -0.60166,  -0.75146,   0.21992,   0.93750,   0.22767,  -0.32906,   0.41930
   0.06199,  -0.00612,  -0.10327,   0.21274,  -0.15431,   0.86780,   0.00145,  -0.29281,   0.02432,   0.26485
  -0.93750,   0.66156,   0.46078,   0.64835,   0.40716,  -0.18284,  -0.87975,  -0.66561,  -0.09454,  -0.24395
  -0.64849,  -0.12633,   0.20608,  -0.06355,   0.87421,  -0.88024,   0.32396,   0.39550,   0.05525,   0.45371
  -0.88687,   0.93750,  -0.57874,  -0.65314,   0.53206,   0.43050,  -0.17776,   0.56050,  -0.89702,  -0.93750
   0.03592,  -0.80909,  -0.51318,  -0.72661,  -0.87256,   0.93750,   0.64609,   0.93750,   0.00737,   0.62837
  -0.79058,   0.93750,  -0.03384,  -0.80894,  -0.65421,  -0.29453,   0.23230,  -0.72195,  -0.92371,   0.93750
   0.51779,   0.02682,   0.50294,  -0.48734,  -0.29252,  -0.37222,   0.23121,   0.87840,  -0.00710,   0.35996
   0.62481,   0.58434,   0.05492,   0.83609,  -0.09281,   0.13286,   0.93750,  -0.93750,   0.93750,   0.48729
   0.93750,  -0.85311,  -0.06599,  -0.37978,   0.93750,   0.73179,   0.86191,  -0.28854,  -0.26662,  -0.32296
   0.41494,   0.28741,  -0.49315,  -0.08115,   0.81759,   0.54521,  -0.57164,  -0.30502,  -0.68067,  -0.52913
   0.26077,  -0.06075,  -0.33582,  -0.16335,   0.93750,   0.09044,   0.93750,   0.80778,   0.88584,   0.17329
  -0.11978,   0.19967,   0.12998,  -0.25749,  -0.08888,   0.43605,   0.38356,  -0.15844,   0.08561,  -0.01296
   0.77261,   0.34501,   0.42916,  -0.53236,  -0.26528,   0.29483,   0.44470,   0.39735,  -0.80902,   0.15004
  -0.00578,   0.93750,  -0.81164,  -0.93750,  -0.93750,  -0.93750,   0.71123,   0.70024,   0.93750,   0.77814
  -0.33425,   0.52719,   0.87449,  -0.38237,  -0.42771,  -0.50692,  -0.66194,   0.79401,  -0.03198,  -0.14699
   0.93750,   0.33113,   0.87957,  -0.48325,   0.10456,  -0.75905,  -0.00288,  -0.17087,   0.86556,  -0.25744
   0.87255,  -0.46164,  -0.74993,  -0.25571,   0.06431,  -0.35649,   0.48452,   0.62760,   0.74264,  -0.20037
  -0.11467,  -0.03167,   0.61756,  -0.58962,   0.62462,  -0.45402,   0.17001,  -0.69810,   0.10212,   0.87607
  -0.30435,  -0.67102,  -0.77806,  -0.88428,   0.93750,   0.56712,  -0.09493,  -0.48799,  -0.16124,  -0.38764
   0.87652,   0.82951,   0.67799,   0.34140,   0.93750,  -0.87018,   0.87674,   0.93750,   0.33262,   0.93750
  -0.22023,   0.39185,  -0.28756,  -0.54826,  -0.05552,   0.93750,  -0.25984,  -0.49008,   0.12539,  -0.02800
  -0.15211,   0.09600,   0.77736,  -0.07634,   0.59831,   0.23406,  -0.67483,  -0.15992,  -0.08346,  -0.24408
   0.53909,   0.88588,  -0.75022,  -0.71626,   0.87766,   0.87289,   0.23826,  -0.76226,   0.10975,   0.86657
  -0.48979,  -0.31465,   0.40277,  -0.93750,  -0.28188,  -0.77058,   0.93750,   0.75058,  -0.72043,   0.03801
   0.00413,   0.09024,  -0.70081,   0.72579,   0.68922,  -0.88967,   0.16627,   0.63610,   0.34090,   0.11048
  -0.05610,   0.93750,   0.20752,  -0.48602,   0.26712,   0.08135,  -0.87161,   0.00315,  -0.87029,  -0.93750
  -0.80449,  -0.62863,  -0.03137,  -0.50742,   0.60732,  -0.67850,   0.69023,  -0.55841,   0.11840,   0.46497
   0.44835,   0.57414,   0.35875,   0.85641,  -0.55342,  -0.92911,   0.13464,   0.93750,  -0.49749,   0.63952
   0.44254,   0.23018,  -0.40231,  -0.56694,  -0.32480,   0.37250,   0.52317,  -0.62993,   0.06507,   0.74226
  -0.63664,  -0.13062,  -0.75177,   0.93750,   0.61454,  -0.88468,  -0.71957,   0.12410,  -0.06513,  -0.38291
  -0.92335,   0.53864,  -0.69272,  -0.75864,   0.31872,   0.35178,  -0.31076,   0.11196,  -0.46409,  -0.36315
  -0.23512,   0.93750,  -0.00579,  -0.75109,   0.86655,   0.93750,  -0.87352,   0.93750,   0.08373,  -0.08589
  -0.84140,  -0.44018,   0.90732,  -0.08253,  -0.60308,  -0.33553,   0.81729,   0.33925,   0.93668,  -0.86882
  -0.35408,  -0.77617,  -0.45551,  -0.41418,   0.16848,  -0.74086,   0.87691,  -0.75313,   0.93750,  -0.45929
  -0.93750,  -0.05943,   0.09494,  -0.63534,  -0.93750,  -0.37717,  -0.87714,  -0.93750,   0.33034,  -0.93750
  -0.00476,   0.05814,  -0.03723,   0.93750,  -0.25580,  -0.93750,   0.02701,   0.10977,   0.04331,  -0.00971
   0.88058,   0.78808,   0.77279,   0.92710,   0.51137,  -0.32938,   0.49916,   0.23178,  -0.91359,  -0.52935
  -0.02076,   0.15221,  -0.32128,   0.32688,   0.86914,  -0.20706,  -0.09396,  -0.45002,   0.04644,   0.04071
  -0.58463,  -0.15512,   0.55845,  -0.67616,   0.61140,   0.25331,   0.66022,   0.81323,  -0.84511,  -0.39518
   0.82019,  -0.02308,   0.85662,  -0.72556,   0.87170,   0.26290,   0.47490,  -0.74685,  -0.13136,  -0.75034
  -0.87458,  -0.04726,   0.93750,  -0.93750,  -0.87218,  -0.80722,  -0.21210,   0.93750,  -0.17963,  -0.02780
  -0.42741,  -0.73645,  -0.79423,  -0.80899,  -0.16375,   0.93750,  -0.57721,   0.73724,   0.93750,   0.15682
  -0.82937,  -0.93750,  -0.79436,  -0.41502,   0.37259,  -0.24140,  -0.11837,  -0.49318,  -0.23989,   0.93750
   0.21778,  -0.07003,   0.36712,  -0.80775,   0.27097,   0.93750,  -0.52004,  -0.71748,  -0.20788,   0.05228
   0.08703,   0.00210,  -0.45047,  -0.74472,   0.76190,  -0.23440,  -0.35941,   0.92459,  -0.03610,   0.19318
  -0.93750,  -0.12000,   0.93750,   0.26753,   0.56510,  -0.93750,  -0.67725,  -0.93750,  -0.68863,   0.17436
   0.33389,  -0.75092,   0.64003,   0.05291,   0.55843,   0.19804,   0.93750,  -0.87949,  -0.19334,  -0.31160
  -0.18102,   0.74219,   0.93750,  -0.54733,  -0.47387,   0.33502,  -0.24543,   0.14418,  -0.13668,  -0.71464
   0.20158,   0.02733,  -0.36287,   0.93750,  -0.23661,   0.01841,   0.77142,  -0.68705,  -0.17474,   0.25382
  -0.93750,  -0.67814,  -0.93750,   0.93750,  -0.93750,   0.56229,  -0.82616,   0.73919,   0.48516,  -0.93750
  -0.84251,   0.83406,   0.24013,   0.25388,  -0.23371,   0.00530,   0.41767,  -0.75637,  -0.05619,   0.19824
  -0.52365,   0.75701,   0.93750,  -0.83855,  -0.60638,  -0.62735,  -0.38428,  -0.00341,  -0.33573,   0.86642
  -0.93750,   0.93750,  -0.65436,  -0.87786,  -0.87297,  -0.86557,   0.62605,   0.59882,   0.31745,   0.08164
  -0.70252,   0.86389,   0.72378,  -0.87688,   0.87568,   0.87020,  -0.18193,   0.72882,   0.14929,  -0.50932
  -0.15038,   0.22564,   0.27684,   0.92027,  -0.28612,  -0.11117,   0.09713,  -0.25819,   0.12307,   0.11792
   0.83806,  -0.68752,  -0.87150,  -0.81468,  -0.88896,   0.93750,  -0.57543,   0.39425,   0.75179,   0.93750
  -0.88393,   0.42794,   0.55925,   0.86538,  -0.32713,  -0.42205,   0.10728,   0.33529,  -0.17791,   0.28528
   0.93750,  -0.93750,  -0.07478,  -0.87807,  -0.75174,  -0.93750,   0.93750,  -0.86970,  -0.75088,  -0.87726
   0.36923,   0.60524,  -0.63738,   0.00341,   0.93750,  -0.72736,  -0.69631,  -0.80572,   0.92730,  -0.81568
   0.21691,  -0.93750,   0.59510,  -0.87499,   0.87792,  -0.42956,   0.36086,  -0.60164,   0.93750,   0.25578
   0.17579,   0.69190,  -0.56126,  -0.45020,   0.57001,  -0.48559,   0.93750,  -0.80573,   0.13734,  -0.80777
  -0.59478,  -0.06590,   0.44811,  -0.18175,   0.93750,  -0.31473,  -0.17845,  -0.22052,   0.09807,   0.73163
   0.33146,   0.25879,  -0.63988,  -0.04503,   0.30287,   0.78198,   0.69022,   0.24481,  -0.31138,  -0.05015
  -0.84970,   0.89884,  -0.02392,  -0.87619,   0.93750,  -0.32516,  -0.00983,  -0.80025,   0.12632,  -0.03292
   0.42876,   0.45824,  -0.87586,   0.93750,  -0.39291,  -0.87969,  -0.88852,   0.93750,   0.80582,  -0.93750
  -0.11363,   0.47490,   0.48896,   0.71715,   0.80105,  -0.31099,   0.23102,  -0.45762,  -0.52168,  -0.22059
  -0.75279,   0.93750,   0.93750,  -0.93750,   0.70395,  -0.93750,  -0.16297,   0.93750,  -0.43845,  -0.77382
   0.72645,   0.05576,   0.31020,   0.64492,  -0.69562,  -0.30870,   0.89899,   0.81413,   0.93750,  -0.05149
   0.03423,   0.65602,   0.00939,  -0.93750,  -0.58407,   0.07809,  -0.69139,   0.93750,   0.31092,  -0.17628
  -0.09514,  -0.82211,   0.06562,  -0.88803,   0.57430,  -0.49343,  -0.06132,  -0.12185,   0.53447,   0.60816
  -0.55420,   0.02356,   0.27309,   0.33915,   0.93750,  -0.45813,  -0.21379,  -0.20449,   0.17658,   0.45038
   0.74793,   0.45699,  -0.27941,  -0.13337,   0.67017,  -0.18794,  -0.17463,  -0.62351,  -0.73012,  -0.37570
   0.13087,   0.04512,   0.93750,  -0.55706,  -0.13549,  -0.18960,  -0.90435,  -0.25529,   0.52700,  -0.15309
   0.13625,  -0.03763,   0.30167,  -0.59682,  -0.52631,   0.47182,   0.33763,  -0.47178,   0.13671,   0.23559
  -0.32145,   0.76288,   0.71089,  -0.37542,   0.60146,   0.03618,  -0.12257,  -0.38378,   0.38719,  -0.60588
  -0.82961,  -0.66961,   0.35752,   0.93065,  -0.77388,   0.87489,   0.01688,  -0.31000,  -0.44953,   0.35482
  -0.27590,  -0.01957,   0.18092,  -0.03878,   0.27891,  -0.92109,  -0.75055,  -0.02377,  -0.64229,  -0.66843
   0.50173,  -0.11664,  -0.00703,  -0.68088,  -0.30391,  -0.93750,   0.48020,   0.93750,  -0.00444,   0.37843
  -0.74728,  -0.86854,   0.79807,  -0.74029,  -0.72559,   0.86641,  -0.93080,  -0.32239,   0.08094,   0.82111
  -0.40814,   0.06854,   0.89610,  -0.29703,  -0.85647,   0.71227,  -0.18428,   0.03118,  -0.27168,   0.03994
   0.87363,   0.14317,  -0.20998,  -0.87345,   0.82798,  -0.38241,   0.19920,   0.01796,  -0.28953,   0.22546
   0.93750,   0.42058,  -0.12299,  -0.23676,   0.02935,  -0.16064,  -0.02235,  -0.47775,  -0.86468,   0.93750
  -0.05392,  -0.46066,   0.13991,   0.27524,   0.93750,  -0.93750,   0.43134,  -0.86579,  -0.75307,   0.37165
   0.05981,   0.03710,   0.59684,  -0.79919,  -0.55200,  -0.12829,  -0.16185,   0.79402,  -0.11692,  -0.16190
   0.93750,  -0.24027,   0.07129,  -0.46979,  -0.23490,   0.45124,   0.20355,  -0.06116,  -0.66300,  -0.86731
   0.93666,   0.21338,  -0.81138,   0.31027,   0.24713,  -0.10900,   0.45428,  -0.89769,   0.17382,  -0.67876
  -0.00014,  -0.41810,  -0.86971,  -0.64219,   0.54685,   0.10830,   0.93750,   0.81425,  -0.73010,   0.89242
   0.51388,  -0.93750,  -0.12129,   0.93750,  -0.46856,  -0.93750,   0.02937,   0.68440,   0.41846,  -0.25041
  -0.88095,   0.93750,  -0.93750,   0.47627,   0.93750,  -0.92597,   0.21662,   0.93750,   0.69573,  -0.41721
   0.76725,   0.31494,   0.13094,   0.87060,   0.28257,   0.87425,   0.88257,  -0.23758,   0.40213,  -0.17277
   0.93750,   0.10558,   0.31630,   0.60289,   0.29824,  -0.18238,  -0.55492,   0.46866,  -0.36982,  -0.09545
  -0.08492,   0.73381,  -0.52377,   0.92863,   0.33650,   0.22307,   0.80733,   0.03076,   0.67864,  -0.58989
   0.71898,   0.87883,   0.48243,   0.28647,   0.90763,  -0.27667,   0.25896,  -0.67747,  -0.05481,  -0.87841
   0.69263,  -0.67188,  -0.84664,  -0.11418,   0.08159,   0.76708,   0.87504,   0.30888,   0.29385,  -0.68583
   0.86912,  -0.63938,   0.45078,   0.70017,  -0.62662,  -0.34818,   0.46990,  -0.16946,  -0.14720,  -0.31947
   0.93750,  -0.18959,   0.53283,   0.42823,  -0.07770,  -0.81452,  -0.71015,   0.15110,  -0.89019,  -0.78805
  -0.11445,   0.93750,  -0.93750,   0.36847,   0.37542,  -0.93750,   0.56123,   0.93750,   0.47843,  -0.82292
  -0.12848,  -0.01184,   0.93750,  -0.08609,   0.30557,  -0.93223,  -0.38050,  -0.76573,  -0.14637,   0.84848
   0.78678,  -0.34711,   0.93750,   0.92510,   0.79025,   0.93750,   0.75860,   0.36799,   0.74055,   0.22917
  -0.51539,  -0.51641,   0.93750,   0.82908,  -0.53688,  -0.70101,  -0.39321,   0.01589,  -0.16177,  -0.55442
  -0.58879,  -0.63624,   0.93750,   0.09407,  -0.34553,   0.23261,   0.12586,   0.86669,  -0.25940,   0.50736
  -0.82368,  -0.67210,   0.28714,   0.28608,  -0.09132,  -0.61836,  -0.79696,  -0.24379,   0.93750,   0.01397
  -0.17657,   0.74029,   0.93083,  -0.48399,  -0.61437,   0.40047,  -0.52427,  -0.53750,   0.11157,  -0.57276
   0.92962,  -0.58477,   0.93750,  -0.87173,  -0.41944,  -0.69646,  -0.78119,  -0.24783,   0.93750,  -0.70524
  -0.43838,  -0.47691,  -0.16511,  -0.93121,  -0.85706,   0.93750,   0.93750,  -0.43008,  -0.01258,   0.87725
   0.93750,   0.49564,   0.05091,   0.93750,   0.93750,  -0.87044,   0.93750,  -0.93750,  -0.93750,   0.93750
   0.74572,  -0.60999,  -0.21020,   0.93750,   0.79944,  -0.30269,  -0.68726,  -0.46013,   0.37619,  -0.73560
   0.17309,  -0.14640,  -0.93108,  -0.54876,  -0.49915,   0.60104,   0.93750,   0.27773,   0.81091,   0.31786
   0.03461,  -0.24125,  -0.06387,  -0.50236,   0.07835,   0.80704,  -0.17110,  -0.39724,   0.02685,   0.19452
  -0.93750,  -0.86200,   0.03255,   0.49635,   0.26274,  -0.76661,  -0.40255,   0.08632,   0.93750,   0.22230
  -0.65574,   0.02413,  -0.10992,  -0.93750,   0.53358,  -0.52011,   0.41366,  -0.93750,  -0.44248,  -0.84740
   0.05195,  -0.20576,  -0.79470,   0.33600,   0.93750,  -0.87716,   0.93750,  -0.38520,   0.21147,  -0.01579
   0.93750,  -0.56673,   0.45370,  -0.32970,  -0.24284,  -0.29230,   0.80712,  -0.03484,  -0.35895,  -0.78034
  -0.64828,   0.93750,  -0.11282,   0.76346,  -0.01505,   0.12351,   0.31426,  -0.65066,   0.32534,  -0.87058
  -0.21296,   0.00425,  -0.80726,  -0.42786,   0.61668,   0.23516,   0.93750,   0.37303,   0.22188,   0.14441
  -0.40235,  -0.67950,   0.77280,  -0.86717,  -0.57530,  -0.86133,  -0.41301,   0.93750,   0.09249,   0.31001
   0.86888,  -0.47083,   0.44015,   0.87860,   0.32589,   0.31460,   0.82121,   0.93734,   0.93243,  -0.68126
   0.87377,   0.93750,  -0.28787,   0.71444,   0.54239,   0.45881,   0.04102,  -0.93750,  -0.88609,  -0.93750
  -0.05552,   0.03574,  -0.40386,   0.93750,  -0.60049,  -0.92761,  -0.17477,   0.16069,  -0.14382,   0.31094
   0.06025,  -0.01007,  -0.44262,  -0.05106,  -0.17213,  -0.26826,   0.53925,   0.35222,  -0.22992,   0.02392
   0.54222,  -0.88205,   0.49768,   0.81745,  -0.79893,  -0.33418,   0.68497,  -0.93750,   0.62757,   0.61196
  -0.16541,  -0.54901,   0.81182,  -0.75923,   0.93750,  -0.68212,   0.93750,   0.08459,  -0.19005,  -0.55066
   0.05482,  -0.05612,   0.74439,  -0.01602,   0.42369,  -0.93750,   0.10159,   0.61545,   0.01369,   0.17964
  -0.15981,  -0.32913,  -0.71183,  -0.86553,   0.93750,  -0.74217,  -0.39816,  -0.87400,   0.84604,   0.51318
   0.93750,   0.25895,  -0.16289,  -0.61782,   0.26243,   0.32029,   0.16742,  -0.23166,   0.67218,  -0.63688
   0.87314,  -0.77993,   0.47680,  -0.25674,  -0.38371,   0.47426,   0.73792,  -0.85740,   0.66217,   0.80677
   0.22549,   0.58846,  -0.10922,  -0.88111,  -0.51307,   0.56898,   0.15901,   0.93750,   0.87737,  -0.39753
  -0.24052,   0.30654,  -0.60449,   0.74962,  -0.07791,  -0.57041,   0.90736,   0.45804,   0.61654,  -0.38505
  -0.76723,  -0.20882,  -0.93750,  -0.34155,   0.17604,   0.64298,  -0.81659,   0.46314,   0.39964,   0.42014
  -0.86976,   0.93750,  -0.93750,   0.87507,   0.93750,   0.93750,  -0.70922,   0.28826,  -0.42015,   0.88182
   0.56060,  -0.28528,  -0.93750,   0.36310,   0.93750,  -0.86721,   0.93750,  -0.33731,   0.55077,  -0.80591
  -0.01607,   0.66627,   0.25826,   0.93656,   0.25098,   0.36085,   0.74769,  -0.43062,  -0.41234,   0.80784
   0.81086,   0.57155,  -0.40438,   0.80617,  -0.47282,  -0.81774,  -0.35355,  -0.62406,  -0.80355,   0.35944
   0.36802,   0.48102,  -0.28287,  -0.52326,  -0.61216,   0.69631,  -0.09197,   0.26699,   0.42454,   0.57008
   0.58607,   0.81711,   0.91626,  -0.42274,  -0.05617,   0.46919,  -0.93750,   0.19605,  -0.43119,  -0.23222
  -0.65486,   0.54500,   0.66588,  -0.43044,   0.93750,  -0.60190,   0.54600,   0.93750,  -0.28642,   0.75117
   0.64249,   0.40731,  -0.13601,  -0.77309,  -0.85235,  -0.24742,  -0.14473,   0.64582,   0.28764,   0.06756
   0.08650,  -0.89770,   0.41383,  -0.72883,   0.13990,  -0.93750,   0.87032,  -0.14795,  -0.81538,   0.02103
   0.57204,  -0.86979,   0.87918,  -0.33020,   0.93750,   0.71671,  -0.56903,  -0.27194,  -0.80384,  -0.69844
   0.41655,  -0.64725,  -0.43761,   0.04091,   0.39329,  -0.05012,   0.46477,  -0.21814,   0.72395,   0.81423
   0.93750,  -0.80570,  -0.82678,  -0.59135,  -0.31398,  -0.26080,   0.93607,  -0.02879,   0.37723,   0.93750
   0.93750,   0.81596,   0.65605,   0.56388,   0.39224,   0.88295,  -0.48383,   0.77929,  -0.86802,   0.09437
   0.63962,   0.42035,  -0.54778,  -0.76921,  -0.78883,   0.84016,   0.93750,  -0.43541,  -0.40598,   0.93750
   0.53008,   0.93180,  -0.41685,   0.49034,  -0.40615,  -0.76458,   0.36050,  -0.18388,  -0.43212,   0.37884
  -0.41501,  -0.28215,   0.61779,   0.87561,   0.77065,  -0.45652,   0.00369,  -0.17125,  -0.55564,  -0.03005
  -0.93750,   0.79307,   0.44414,  -0.71681,   0.15430,   0.50854,  -0.93555,   0.93750,   0.64354,  -0.93750
   0.29387,   0.07472,  -0.14878,   0.93750,   0.00060,  -0.22972,   0.04408,  -0.12319,  -0.44566,  -0.62518
   0.93750,  -0.39068,  -0.93004,  -0.66943,   0.20292,  -0.03694,  -0.38033,   0.83791,   0.93750,  -0.80401
  -0.87429,  -0.30959,   0.93415,   0.75551,   0.87580,   0.45985,   0.93750,   0.19177,  -0.81522,  -0.68454
   0.80941,  -0.28190,  -0.93750,   0.74689,  -0.86850,   0.84152,  -0.01375,   0.02800,  -0.58235,   0.62509
  -0.50527,   0.80541,   0.49423,  -0.76089,  -0.49292,   0.36979,  -0.51849,   0.57937,   0.93750,   0.12426
  -0.35740,   0.93750,   0.27737,  -0.19734,  -0.67994,   0.06834,  -0.81547,   0.48344,  -0.34599,  -0.88261
  -0.10666,  -0.26390,   0.28783,   0.59480,   0.44431,  -0.36529,   0.34307,   0.44878,  -0.37402,  -0.57897
  -0.74872,  -0.46449,  -0.18365,  -0.45539,  -0.59022,   0.56491,   0.10844,   0.34597,   0.93740,  -0.81631
  -0.48450,  -0.11690,  -0.18150,  -0.50148,  -0.93750,  -0.72687,  -0.53795,   0.93750,  -0.69226,   0.31661
   0.48684,   0.40141,   0.54101,  -0.19219,   0.86760,   0.11737,   0.03433,   0.00625,   0.19554,   0.22697
  -0.51910,  -0.12904,   0.15461,  -0.52352,  -0.35424,   0.62335,  -0.07004,  -0.19971,  -0.25137,   0.07475
   0.76072,  -0.87655,   0.80361,   0.78358,   0.73764,   0.75836,   0.62359,  -0.03617,  -0.64552,  -0.13767
  -0.73399,  -0.10722,  -0.24061,   0.82359,  -0.28649,  -0.50945,  -0.87049,   0.07086,   0.33015,  -0.50999
  -0.67112,  -0.93750,  -0.19219,  -0.93750,   0.93750,  -0.31762,   0.22035,   0.55723,   0.70660,   0.30203
   0.93502,  -0.62987,  -0.30434,  -0.50972,  -0.25236,   0.53743,  -0.75234,  -0.53108,  -0.10395,   0.93734
   0.64776,   0.05923,   0.93750,  -0.22914,  -0.20356,   0.14263,  -0.56445,  -0.86669,   0.93750,  -0.12151
  -0.04408,   0.13475,   0.40584,  -0.57710,  -0.69247,   0.93416,   0.20823,   0.20363,   0.52668,  -0.20690
  -0.93750,  -0.93750,  -0.22938,   0.57841,  -0.79524,  -0.36362,   0.74956,  -0.56925,   0.93750,   0.93750
   0.93750,   0.27123,   0.55895,  -0.62768,   0.29025,   0.10273,   0.21841,   0.58657,   0.93750,  -0.29593
  -0.83702,   0.60346,   0.93750,  -0.69021,   0.61243,  -0.87125,  -0.15891,  -0.33040,   0.09976,   0.25978
  -0.53583,  -0.25827,   0.16480,  -0.04837,  -0.39237,  -0.47543,  -0.75933,   0.58404,   0.93750,  -0.80405
  -0.09651,   0.15971,  -0.68692,   0.93750,  -0.93750,   0.89961,  -0.93750,   0.53227,  -0.14004,   0.00823
   0.36332,   0.02888,  -0.43868,  -0.71443,  -0.93750,   0.93750,  -0.93750,   0.41777,  -0.54433,   0.74353
   0.93750,   0.93750,   0.33164,   0.02168,   0.90973,  -0.78745,  -0.93750,  -0.67289,   0.18692,  -0.93750
  -0.05189,   0.36832,   0.70864,  -0.69651,  -0.80082,   0.35314,   0.88200,   0.19780,   0.07846,   0.33918
   0.11996,   0.25472,   0.77332,  -0.06189,   0.08260,  -0.47731,   0.29826,  -0.14356,  -0.09508,  -0.05901
   0.32579,   0.32796,   0.46839,   0.79125,  -0.04437,  -0.28530,   0.50370,   0.30636,   0.18698,  -0.06358
   0.48093,   0.19475,   0.77159,  -0.32191,   0.13757,  -0.78824,  -0.10382,   0.67883,   0.44111,   0.86500
  -0.75422,   0.93750,   0.04373,  -0.29581,   0.92659,   0.23016,  -0.07823,   0.00062,   0.24011,  -0.68592
   0.67257,  -0.86103,   0.81576,   0.52820,   0.84811,   0.37401,   0.72102,   0.10458,   0.75477,   0.35374
  -0.66076,  -0.57595,   0.05709,  -0.56295,  -0.86705,   0.28300,   0.90206,   0.29291,   0.36264,   0.93450
  -0.22879,  -0.09623,  -0.39323,  -0.56212,   0.57352,  -0.29095,   0.93289,  -0.04756,   0.66028,   0.93750
  -0.11935,   0.47124,  -0.57613,  -0.51990,   0.93750,  -0.52292,  -0.75135,  -0.74063,   0.82191,   0.13588
   0.02886,   0.93750,   0.38248,  -0.70028,   0.52043,   0.04234,  -0.57453,  -0.67812,  -0.75633,  -0.93452
  -0.93750,   0.47547,   0.93750,  -0.38181,   0.48806,  -0.46777,   0.04593,  -0.47339,   0.49110,  -0.23987
   0.93750,   0.57382,   0.93750,   0.56628,  -0.93750,  -0.11969,  -0.04161,   0.25062,  -0.82765,   0.04566
   0.03296,   0.93750,   0.44172,  -0.75662,   0.93750,  -0.80102,   0.28492,   0.87712,  -0.53573,  -0.82103
  -0.14295,  -0.86990,   0.69540,  -0.83263,  -0.81479,  -0.93750,  -0.75011,  -0.93750,   0.86788,  -0.75385
  -0.87495,  -0.93750,   0.58104,   0.31147,   0.93750,   0.50673,   0.53958,   0.29471,  -0.38076,   0.86663
  -0.93750,  -0.14719,  -0.69146,   0.77103,  -0.92243,   0.18062,   0.76147,   0.88343,   0.93750,   0.50751
  -0.80968,  -0.51417,  -0.72628,   0.69119,  -0.87176,   0.93750,   0.93750,   0.54026,  -0.80127,   0.87763
   0.74247,   0.86401,  -0.21259,  -0.92773,  -0.54207,   0.26319,  -0.63816,  -0.63582,  -0.25214,   0.20591
   0.93750,   0.78863,  -0.93750,  -0.93750,   0.41654,   0.13876,   0.93750,   0.93750,  -0.93750,   0.93750
  -0.05238,   0.45446,  -0.82863,   0.28091,  -0.42639,  -0.20574,  -0.31235,   0.93750,   0.05785,  -0.48933
   0.80367,  -0.93750,   0.93750,   0.74470,   0.27982,   0.58694,  -0.37938,   0.38430,   0.08255,   0.18451
  -0.33376,  -0.68199,   0.93750,   0.22896,   0.76619,  -0.87597,   0.43007,  -0.87888,  -0.87481,   0.93750
  -0.29202,  -0.85326,  -0.93750,  -0.87459,  -0.06591,  -0.03278,   0.37414,   0.53989,  -0.46820,  -0.04767
   0.50032,   0.84886,  -0.83207,  -0.00359,  -0.86779,   0.12137,   0.61142,  -0.20127,  -0.72066,  -0.92570
   0.64535,   0.86972,  -0.18838,  -0.87152,   0.31419,  -0.72700,   0.19465,  -0.25966,  -0.16333,   0.86651
   0.93597,  -0.58538,  -0.85303,   0.63272,   0.31150,   0.77266,  -0.63898,  -0.87343,   0.88707,  -0.91023
   0.93750,   0.93750,   0.41177,  -0.93750,  -0.36908,  -0.93750,  -0.58091,   0.69477,   0.93750,  -0.75767
   0.93750,  -0.08986,   0.22777,   0.93750,   0.93750,  -0.73618,   0.93750,   0.93750,   0.01186,   0.66941
  -0.59948,  -0.93750,   0.63553,  -0.93750,  -0.13817,   0.87385,  -0.83561,   0.93750,   0.05328,  -0.60891
  -0.54742,   0.64856,  -0.86488,  -0.73877,  -0.01309,   0.86854,   0.28141,  -0.40075,  -0.43389,   0.28422
  -0.47874,   0.34049,  -0.74651,  -0.07173,   0.63859,  -0.79480,  -0.27290,  -0.88072,  -0.44453,  -0.93750
   0.70390,   0.83511,   0.87189,  -0.57657,   0.93750,  -0.67060,   0.34220,   0.89637,  -0.05054,  -0.88030
   0.48537,  -0.88372,   0.38088,   0.93750,   0.35303,  -0.87495,   0.93750,  -0.69933,  -0.75280,   0.78227
   0.45597,   0.91011,   0.12377,  -0.16739,  -0.11111,   0.09960,   0.06498,   0.11122,   0.13990,  -0.57821
   0.58567,   0.05229,  -0.82480,   0.51904,  -0.14449,  -0.03419,   0.01540,  -0.19175,   0.52327,  -0.12041
   0.01680,   0.24808,  -0.34674,  -0.68677,  -0.23084,   0.87573,   0.24459,   0.81123,   0.26420,  -0.21459
  -0.30844,   0.06561,   0.78300,   0.93750,   0.54928,  -0.87717,   0.51178,  -0.93750,  -0.01798,   0.39692
  -0.49231,  -0.33348,  -0.61235,   0.87864,   0.81708,   0.18133,  -0.18559,  -0.41772,  -0.00432,  -0.06129
   0.51373,  -0.93750,  -0.57329,   0.86875,   0.51647,   0.13637,   0.13667,  -0.85679,  -0.02837,   0.93750
   0.85183,   0.70848,   0.54659,  -0.06723,  -0.18729,   0.44368,   0.93750,  -0.93750,   0.12177,  -0.60438
  -0.93750,  -0.15645,   0.56739,   0.93750,   0.93750,  -0.00479,   0.00793,   0.87374,  -0.78124,  -0.30124
   0.66309,   0.93750,   0.87371,   0.13489,   0.93750,   0.93750,   0.68968,  -0.87170,  -0.27623,  -0.93750
  -0.16258,   0.31156,   0.42472,   0.27378,   0.93750,  -0.74314,  -0.22817,  -0.36284,  -0.62822,  -0.15660
   0.93750,   0.45854,   0.76322,  -0.31311,   0.38524,   0.24740,   0.80121,  -0.41072,  -0.60718,  -0.81998
  -0.54538,  -0.44759,   0.48076,  -0.68398,  -0.43233,   0.37368,   0.03629,   0.71953,   0.13975,   0.90469
   0.93750,   0.14836,  -0.19576,  -0.93750,   0.29390,   0.88410,   0.93516,  -0.68789,   0.87215,   0.58979
  -0.59252,  -0.09147,  -0.48101,   0.93750,  -0.15986,  -0.60042,   0.18088,  -0.68101,  -0.56728,  -0.06579
   0.82261,  -0.60941,   0.24670,   0.10814,   0.41251,   0.11339,   0.09947,  -0.12530,   0.73844,  -0.15936
   0.26496,  -0.04243,  -0.42910,  -0.26293,   0.53188,   0.38175,   0.12213,  -0.29149,  -0.09334,   0.01339
  -0.16268,   0.01804,  -0.87049,   0.04424,   0.24102,  -0.79624,   0.23711,   0.93750,  -0.18063,   0.04079
  -0.22976,   0.19068,  -0.70163,  -0.86508,  -0.22927,   0.89368,  -0.68314,  -0.57089,   0.93750,   0.93750
   0.93750,  -0.87419,  -0.10335,   0.25046,   0.04383,   0.44381,   0.18887,  -0.04141,  -0.80843,  -0.21784
   0.17248,   0.09340,  -0.00091,  -0.17773,   0.93750,  -0.84114,  -0.56168,  -0.60517,  -0.01782,   0.06578
  -0.07034,   0.18074,   0.00174,  -0.55622,  -0.93750,   0.93750,  -0.38590,   0.48869,  -0.00629,   0.22603
   0.25166,   0.80158,  -0.74061,   0.93750,   0.27625,  -0.67655,  -0.07526,   0.85057,  -0.57181,  -0.93750
  -0.89930,   0.29130,  -0.78399,  -0.15623,   0.81914,   0.02483,   0.50721,  -0.32609,   0.79158,   0.14172
  -0.15002,  -0.50605,  -0.92634,  -0.93750,   0.93750,  -0.02842,  -0.77910,  -0.54309,   0.53263,  -0.16980
   0.41470,  -0.29759,   0.47271,   0.00898,   0.47475,  -0.15953,  -0.57389,  -0.17937,   0.83584,  -0.25859
   0.85923,  -0.81443,  -0.31024,  -0.51916,   0.28470,  -0.67170,   0.93750,  -0.93750,   0.93750,   0.93750
   0.93750,  -0.25607,  -0.79517,  -0.82417,   0.24092,   0.15748,   0.05058,  -0.78731,  -0.74007,  -0.50617
   0.33520,  -0.17157,  -0.51609,   0.93750,   0.92976,  -0.11156,  -0.21512,  -0.11376,   0.15373,  -0.30929
   0.02087,  -0.93750,  -0.50549,   0.48305,   0.84316,   0.81587,   0.87125,  -0.31603,  -0.93750,  -0.87872
  -0.06015,  -0.10137,  -0.45164,   0.64159,  -0.74369,  -0.20572,  -0.02518,   0.81420,  -0.75891,   0.22024
   0.93750,   0.53456,   0.93750,  -0.18015,  -0.79361,  -0.88785,  -0.46226,  -0.83252,  -0.55754,  -0.29320
   0.93750,  -0.88018,  -0.93750,   0.93750,   0.87898,   0.88522,  -0.47602,   0.88568,   0.67975,   0.68061
  -0.60329,   0.36619,  -0.34760,  -0.27135,  -0.67228,  -0.41728,  -0.18646,  -0.32642,  -0.47737,  -0.13085
   0.35356,   0.18567,   0.28420,   0.29268,   0.18735,  -0.74510,   0.11496,   0.87436,  -0.47593,  -0.20205
  -0.88637,   0.09639,  -0.87871,  -0.93750,   0.80290,   0.01409,   0.93750,   0.93750,  -0.83292,  -0.29949
   0.68847,  -0.81619,   0.87495,  -0.66097,  -0.81153,   0.93750,   0.00445,  -0.87862,  -0.59938,  -0.60663
   0.35434,  -0.30401,   0.43421,   0.54383,   0.88111,  -0.15855,   0.34366,   0.86895,   0.40617,  -0.09106
  -0.42147,  -0.15720,  -0.75145,  -0.41298,   0.22434,  -0.82221,   0.59917,   0.57013,  -0.01220,  -0.76001
  -0.56286,  -0.51290,  -0.87265,   0.56067,   0.79649,  -0.43273,  -0.63054,  -0.59527,  -0.40591,   0.93750
   0.21820,  -0.93750,   0.28584,  -0.27445,   0.93750,  -0.93750,   0.84779,   0.13468,   0.93750,  -0.01818
  -0.81584,  -0.88860,   0.75792,  -0.25430,  -0.00243,  -0.00954,  -0.80561,   0.65695,  -0.16452,   0.93750
   0.31306,   0.06667,  -0.43904,   0.92689,  -0.15389,   0.51886,  -0.79646,   0.86292,  -0.26259,   0.02282
   0.71389,  -0.22535,  -0.86473,   0.71715,  -0.87550,  -0.87638,   0.93750,  -0.93750,   0.68673,   0.93750
  -0.93750,  -0.85420,  -0.87461,   0.75154,   0.82098,   0.86879,   0.87031,   0.24663,   0.87428,  -0.88154
  -0.70035,  -0.54349,   0.93750,  -0.05198,  -0.47322,   0.56704,   0.85730,  -0.68566,   0.33867,   0.05857
  -0.61547,  -0.54846,   0.26772,  -0.90846,  -0.45473,  -0.22248,   0.09053,   0.86869,  -0.00561,  -0.58977
   0.26027,  -0.19989,   0.93750,   0.54721,  -0.93750,   0.79388,   0.13298,  -0.81298,   0.33081,   0.17400
   0.68999,   0.65556,  -0.73180,   0.60770,   0.00122,  -0.36768,   0.93750,   0.58159,   0.93750,   0.59808
  -0.57898,   0.88133,   0.63798,  -0.06557,  -0.79503,   0.63263,  -0.67301,   0.86762,  -0.67380,   0.61784
  -0.93750,   0.93750,  -0.87693,   0.93750,   0.22183,  -0.85622,  -0.93628,   0.93750,  -0.46608,  -0.93750
  -0.53414,  -0.79359,   0.34432,   0.34202,  -0.21451,  -0.13752,  -0.28904,   0.05778,  -0.16518,   0.93750
  -0.74088,   0.16738,  -0.57639,   0.66822,  -0.10801,   0.38479,  -0.26974,  -0.29919,   0.93750,   0.03726
  -0.53573,   0.58736,   0.68785,  -0.10731,   0.93750,  -0.60528,  -0.42760,  -0.12803,  -0.39860,  -0.33530
   0.56670,  -0.22498,  -0.61889,   0.46887,  -0.76753,   0.87064,   0.93750,   0.15006,  -0.68721,  -0.09812
  -0.93750,   0.93750,   0.22552,   0.93750,   0.91390,   0.93750,   0.93750,  -0.33786,   0.86710,   0.62985
   0.74893,  -0.46231,  -0.86172,  -0.93750,   0.45281,  -0.87008,   0.29450,  -0.23530,   0.74564,   0.93750
   0.87206,   0.10496,   0.73106,  -0.85061,   0.93750,  -0.30060,  -0.22804,  -0.79041,  -0.93750,  -0.93750
  -0.38461,  -0.38880,   0.55609,   0.34787,  -0.67321,   0.29368,   0.49552,  -0.31409,  -0.10322,   0.44624
  -0.71294,   0.05291,  -0.03567,   0.48653,   0.34478,  -0.07320,  -0.04932,   0.06121,   0.93750,   0.08195
  -0.26800,   0.11753,  -0.93750,  -0.84346,   0.57671,   0.93750,   0.69206,  -0.41309,  -0.93750,  -0.93750
  -0.00213,  -0.61130,   0.93750,  -0.41838,  -0.20785,   0.87644,  -0.79109,  -0.85894,   0.73178,  -0.27848
   0.03875,   0.93750,   0.87889,  -0.86288,  -0.36196,  -0.85358,  -0.12147,  -0.02519,   0.93589,  -0.41578
  -0.56270,   0.12773,  -0.81296,   0.42238,   0.63715,  -0.93750,   0.43526,  -0.93750,   0.77680,   0.60750
   0.93750,  -0.65367,   0.68849,   0.16741,  -0.06516,   0.00545,   0.22174,  -0.56635,  -0.85051,  -0.00890
  -0.71050,  -0.05060,   0.93750,  -0.74096,  -0.74274,   0.27304,  -0.47566,   0.64586,  -0.17761,   0.81141
  -0.13415,   0.25593,   0.86462,   0.83331,  -0.82785,   0.34369,   0.88167,  -0.93750,  -0.87232,  -0.80527
  -0.01885,   0.93750,   0.86119,   0.88041,   0.93750,  -0.81298,   0.88457,   0.93750,   0.86256,  -0.87734
  -0.33088,  -0.36702,   0.32944,   0.68145,   0.50489,  -0.25908,  -0.21477,   0.37838,  -0.04413,   0.30910
   0.08154,   0.06600,   0.79868,  -0.85213,  -0.02636,   0.93750,   0.23577,  -0.34485,  -0.00238,   0.36384
   0.44697,  -0.78190,   0.20690,  -0.80078,   0.93750,  -0.17558,   0.92800,   0.61924,   0.26249,  -0.50936
   0.51724,   0.58309,  -0.82024,  -0.49031,   0.81058,   0.28678,   0.87457,  -0.03964,   0.82740,  -0.69387
  -0.68716,   0.61775,   0.45562,  -0.83567,  -0.93750,   0.05528,   0.68501,  -0.22938,  -0.48010,   0.93589
   0.93750,   0.32795,   0.93750,  -0.88510,  -0.73632,   0.14975,   0.35694,  -0.80285,   0.75289,   0.71741
  -0.20905,  -0.19537,   0.93750,  -0.75953,   0.08063,   0.40811,   0.93750,  -0.81983,  -0.93750,   0.74701
  -0.36703,  -0.34506,   0.68551,  -0.86580,   0.12360,   0.93750,  -0.11352,  -0.16790,  -0.02896,  -0.02979
   0.87176,  -0.18754,   0.42813,  -0.25985,  -0.60800,  -0.37162,   0.86906,   0.68118,  -0.47720,  -0.81186
   0.39488,   0.46530,   0.87326,  -0.57691,  -0.61006,  -0.12043,  -0.38387,  -0.28238,   0.07871,  -0.22050
  -0.40771,  -0.19357,  -0.56493,  -0.79810,   0.93750,   0.87477,  -0.01814,  -0.62032,  -0.45497,   0.93750
  -0.79369,  -0.16690,  -0.85288,   0.93750,  -0.74240,   0.93750,  -0.86680,  -0.77715,  -0.23663,  -0.35424
  -0.74995,  -0.27693,   0.43827,  -0.42107,  -0.82810,   0.69522,  -0.60592,   0.69804,   0.79966,   0.87278
  -0.00143,  -0.38786,   0.36260,  -0.87775,   0.93750,  -0.87940,   0.93750,  -0.93750,   0.93750,   0.43016
  -0.64356,  -0.87254,  -0.32014,  -0.88227,  -0.80906,  -0.83270,  -0.87964,  -0.87469,   0.18580,  -0.81763
   0.24809,   0.47470,   0.14669,  -0.63556,  -0.93750,  -0.88718,  -0.86698,   0.87475,   0.79530,  -0.07577
  -0.55787,   0.38331,   0.86725,  -0.36086,  -0.83251,  -0.50270,   0.71486,   0.57014,  -0.41522,  -0.59095
   0.43824,  -0.67907,  -0.77854,   0.74040,  -0.37240,  -0.14822,   0.88112,  -0.56656,  -0.35438,   0.62877
  -0.30620,   0.28159,   0.92464,   0.85838,   0.03441,  -0.56423,   0.86338,   0.83172,   0.58375,  -0.79442
  -0.30939,   0.33656,   0.39099,   0.71885,   0.16015,   0.68937,   0.15469,  -0.93750,   0.42831,   0.71504
   0.93750,  -0.21555,   0.93750,  -0.88017,  -0.75439,   0.40615,   0.87597,   0.93750,   0.93750,   0.12831
  -0.04078,  -0.08522,  -0.50737,   0.39644,   0.93750,  -0.93750,  -0.50840,   0.66998,  -0.86603,  -0.17379
  -0.21925,  -0.90107,  -0.22591,  -0.00849,  -0.28316,   0.03794,   0.39197,   0.81151,   0.25952,   0.93750
  -0.09288,   0.93750,   0.12529,  -0.21963,   0.93750,   0.93750,  -0.88319,   0.87222,   0.59322,  -0.93750
  -0.22540,   0.21502,   0.32513,   0.11921,  -0.93292,  -0.35957,  -0.26250,   0.75741,   0.00793,   0.30341
  -0.88209,  -0.15273,   0.63378,  -0.16840,  -0.39473,   0.93750,  -0.73216,   0.11104,   0.27625,  -0.24989
  -0.19872,  -0.12811,   0.09577,   0.25720,  -0.62970,   0.80957,  -0.19374,   0.45130,   0.21041,  -0.29186
   0.76514,  -0.67326,   0.76433,   0.38551,  -0.72051,   0.26018,   0.60787,   0.22812,  -0.48079,  -0.53587
   0.40450,   0.39379,   0.93750,  -0.87527,   0.45593,   0.52014,  -0.78747,   0.38107,   0.15868,  -0.48202
  -0.22427,  -0.92306,  -0.93750,   0.31714,   0.15106,   0.16802,  -0.31940,  -0.76744,  -0.85960,   0.93750
  -0.73481,  -0.23560,  -0.38919,   0.93750,  -0.20820,  -0.79430,  -0.82092,  -0.88762,   0.28501,   0.27954
   0.60228,   0.43326,  -0.76018,   0.93750,  -0.26856,  -0.93511,   0.34720,   0.08309,  -0.13450,  -0.18860
  -0.27658,  -0.01886,  -0.31393,   0.87859,  -0.18782,   0.38987,  -0.70567,  -0.82440,   0.12732,   0.03463
   0.92592,   0.54832,  -0.54744,   0.13084,  -0.13138,  -0.32868,   0.16826,  -0.00909,  -0.44605,  -0.66498
  -0.93750,  -0.21979,   0.35931,  -0.81592,  -0.52742,  -0.87739,  -0.93750,  -0.93750,  -0.93750,  -0.22471
   0.82404,   0.27648,   0.80965,  -0.60712,   0.14617,  -0.07302,   0.13861,   0.06032,  -0.40892,  -0.50318
   0.76241,  -0.59658,  -0.21794,   0.93750,   0.36072,   0.04485,   0.29224,  -0.01191,   0.00987,  -0.71621
  -0.07802,   0.59032,   0.10696,   0.08544,  -0.36579,   0.39611,   0.26267,   0.05846,  -0.15348,   0.48438
  -0.86702,   0.93750,  -0.72870,  -0.26796,   0.93750,  -0.84041,   0.93750,   0.87238,  -0.87258,  -0.79983
  -0.59329,   0.40916,   0.79382,   0.67106,   0.13451,  -0.00679,   0.19194,   0.20766,  -0.36993,   0.50592
  -0.55592,   0.12410,   0.44546,   0.87413,  -0.81540,   0.87264,   0.93750,  -0.66106,  -0.93750,  -0.49030
  -0.72085,   0.48601,  -0.60160,   0.93470,   0.81961,  -0.19318,  -0.31930,  -0.00628,   0.16480,   0.93750
  -0.38733,   0.65651,  -0.27493,   0.35169,   0.55857,   0.46606,   0.39397,   0.07045,   0.29953,  -0.56793
   0.59964,   0.24422,   0.78249,  -0.46809,  -0.78716,  -0.67580,   0.70366,  -0.21610,  -0.65901,   0.01231
  -0.80760,  -0.57438,   0.52760,  -0.92121,   0.19681,  -0.82318,  -0.74909,   0.93750,  -0.68471,  -0.87287
   0.79644,  -0.65536,  -0.87774,   0.58557,  -0.93750,  -0.13632,  -0.71206,  -0.04867,   0.18464,   0.25731
   0.03347,  -0.66127,  -0.69076,  -0.09599,   0.69579,   0.93750,   0.05337,   0.12166,  -0.05441,  -0.10793
  -0.66524,  -0.24191,  -0.63251,   0.92793,  -0.93750,   0.93343,  -0.92333,   0.78639,  -0.14354,  -0.01206
   0.31965,  -0.19331,   0.92070,  -0.93750,   0.93330,   0.67007,  -0.93750,  -0.81969,  -0.13756,   0.21618
  -0.52614,  -0.81104,  -0.53400,  -0.08633,   0.20090,   0.93750,   0.93750,  -0.02235,   0.49808,  -0.81918
  -0.36088,  -0.31090,  -0.76473,   0.87131,   0.87234,  -0.81250,  -0.93750,  -0.87253,  -0.80026,   0.93750
   0.73942,  -0.34022,   0.93750,  -0.42386,  -0.93750,   0.93750,   0.37303,   0.49386,   0.92150,  -0.08686
   0.89779,   0.09123,   0.69363,   0.79578,   0.41705,  -0.62294,  -0.14349,   0.55736,  -0.46374,  -0.93750
  -0.88298,   0.87295,   0.63608,  -0.19581,   0.87582,   0.54892,  -0.09266,   0.02969,   0.23104,  -0.74341
  -0.23629,  -0.81027,   0.74362,  -0.40760,  -0.40323,   0.70577,  -0.59765,   0.62515,   0.61391,  -0.22774
  -0.28093,   0.10846,  -0.60605,   0.63838,  -0.54370,   0.93048,   0.10112,  -0.67593,  -0.20560,   0.68202
   0.12806,   0.22487,  -0.47235,   0.80801,  -0.06195,  -0.70205,  -0.50686,  -0.04971,  -0.46426,  -0.30392
  -0.45193,   0.93481,  -0.48834,   0.49290,  -0.39778,   0.81946,   0.32899,  -0.16669,   0.87972,  -0.73422
  -0.15989,   0.17547,  -0.66962,   0.93750,  -0.92914,  -0.92645,   0.43087,  -0.21984,  -0.43817,  -0.09258
  -0.61049,   0.49561,   0.87690,   0.33077,  -0.88134,   0.27203,  -0.29830,   0.81603,   0.56944,   0.29087
   0.08108,   0.33598,  -0.46426,  -0.33988,   0.68226,   0.50957,  -0.61544,   0.74138,  -0.26884,  -0.81474
   0.07581,   0.87437,  -0.27287,  -0.93750,  -0.66760,   0.82392,  -0.22030,  -0.26590,  -0.06566,   0.54726
  -0.57391,   0.93750,  -0.34059,   0.87306,  -0.82345,   0.82072,   0.41180,  -0.54918,   0.37044,  -0.93750
  -0.23373,  -0.58804,   0.25546,  -0.86915,   0.54183,   0.93750,  -0.14010,  -0.91887,  -0.42195,  -0.54625
   0.80778,   0.43441,  -0.51803,   0.45438,   0.80628,  -0.35390,   0.07282,   0.37124,  -0.80737,   0.93750
   0.26326,   0.23961,   0.45174,   0.86653,   0.86850,  -0.67917,  -0.85624,   0.74442,   0.59209,  -0.09713
   0.93750,  -0.36539,  -0.80710,   0.70239,   0.89760,   0.93750,  -0.93750,   0.93750,  -0.10606,  -0.80790
   0.34731,  -0.00431,  -0.26802,  -0.46629,  -0.07859,   0.93490,  -0.22667,  -0.65767,   0.39447,   0.58481
  -0.16550,  -0.57801,   0.17270,   0.74753,   0.52696,  -0.56256,   0.11593,   0.41138,  -0.27437,   0.03371
  -0.51094,   0.22346,   0.00989,   0.71037,  -0.02381,  -0.61550,   0.74411,  -0.16732,  -0.10613,  -0.05779
   0.93750,  -0.63745,   0.62542,   0.87369,  -0.20298,  -0.55687,  -0.15488,  -0.47823,   0.44363,   0.53489
  -0.93580,   0.86592,  -0.90174,   0.05709,  -0.19819,  -0.60810,  -0.69279,  -0.25848,   0.93750,   0.93676
   0.73781,   0.93750,   0.93750,   0.93750,  -0.93750,  -0.93750,  -0.59599,  -0.63531,   0.26732,   0.62635
   0.15160,   0.74215,  -0.93019,   0.81414,   0.93750,  -0.78721,  -0.87101,  -0.73543,  -0.72620,  -0.33666
   0.51327,   0.93750,  -0.48048,  -0.67737,   0.02496,   0.77649,  -0.03146,  -0.40434,   0.66950,  -0.70851
  -0.11166,   0.05821,   0.59849,  -0.88458,  -0.93750,   0.93750,  -0.72960,   0.81397,   0.20368,   0.39589
  -0.53174,   0.33798,  -0.21880,   0.15299,   0.06769,  -0.19237,   0.65716,   0.88263,   0.26617,  -0.26698
   0.93750,   0.80883,  -0.54015,  -0.80056,  -0.67441,  -0.54096,  -0.26600,   0.56119,  -0.93750,   0.85123
   0.61881,   0.13917,   0.83043,  -0.30978,   0.57108,  -0.06915,  -0.23593,   0.16930,  -0.60582,   0.00362
  -0.75706,  -0.93750,   0.87696,  -0.75856,   0.93750,  -0.48824,   0.50349,  -0.93750,   0.84478,  -0.27133
   0.23592,   0.87551,   0.69124,   0.36164,  -0.46675,   0.03849,   0.87412,   0.18943,   0.93750,  -0.85081
  -0.43213,  -0.67126,  -0.61407,   0.51794,   0.85497,   0.25554,  -0.07055,  -0.59161,   0.49125,  -0.37524
   0.33114,   0.93750,   0.03496,  -0.55735,   0.58730,  -0.10475,   0.27706,  -0.00963,  -0.93750,  -0.93238
  -0.18501,   0.04158,   0.80969,   0.93750,  -0.55147,  -0.15205,   0.35000,  -0.07892,  -0.22243,  -0.03590
  -0.44973,  -0.89814,   0.80381,  -0.45882,   0.38218,  -0.11212,   0.68068,   0.81553,  -0.92357,  -0.71066
  -0.79880,  -0.45879,  -0.15535,   0.20937,  -0.03013,  -0.50140,   0.87277,  -0.68474,   0.20622,   0.87680
   0.36684,  -0.27343,   0.60083,  -0.48070,  -0.54067,   0.36722,   0.57401,  -0.10173,  -0.26999,  -0.15410
  -0.40935,  -0.58639,  -0.88023,  -0.56734,  -0.86183,  -0.64911,   0.93750,  -0.12202,   0.00130,   0.46283
   0.93750,  -0.68136,  -0.61255,   0.31877,  -0.93750,  -0.18852,  -0.57323,  -0.79704,  -0.49203,   0.08249
   0.52259,   0.52016,   0.02047,  -0.06123,   0.67034,  -0.48267,   0.74179,   0.37472,  -0.42982,  -0.58450
  -0.65434,  -0.87386,   0.39399,  -0.33078,   0.01543,   0.93750,   0.87728,  -0.74767,  -0.85042,   0.90150
   0.93750,   0.93750,   0.93073,   0.88412,  -0.93750,  -0.75768,  -0.59780,  -0.51913,   0.87803,  -0.93750
  -0.14830,   0.00270,  -0.93750,   0.93750,   0.93750,  -0.43212,  -0.13954,  -0.05544,   0.67808,  -0.23581
   0.14434,   0.11921,  -0.39158,   0.59446,   0.74861,   0.20187,  -0.20185,   0.01299,   0.37535,   0.52282
  -0.18868,   0.20418,   0.19771,  -0.69014,  -0.05760,   0.61870,   0.73245,   0.15165,   0.65301,   0.13321
  -0.01439,  -0.59907,   0.19361,   0.93750,  -0.56734,  -0.92061,   0.07145,   0.05188,  -0.27138,  -0.61802
  -0.51343,  -0.71117,   0.69524,   0.25902,  -0.31343,  -0.42823,   0.17807,   0.93699,  -0.31277,   0.92811
  -0.18440,   0.06618,  -0.50494,   0.73082,   0.17043,  -0.93750,   0.71083,  -0.75442,  -0.88162,  -0.44991
   0.81521,   0.19687,   0.32534,   0.77270,   0.47258,  -0.01804,   0.05864,  -0.63768,  -0.53093,  -0.20621
   0.91680,  -0.59958,  -0.93750,  -0.86980,   0.22459,  -0.24877,  -0.68824,   0.37556,  -0.75366,  -0.81317
   0.03157,   0.54279,  -0.87474,  -0.67584,  -0.54753,   0.93750,   0.08799,   0.83377,  -0.20467,  -0.65290
   0.72206,   0.76062,   0.38782,   0.87931,  -0.08749,  -0.52072,   0.54701,  -0.28788,  -0.26695,   0.87783
  -0.93750,  -0.10389,   0.79444,   0.34004,  -0.11420,  -0.93750,   0.37852,  -0.93750,  -0.81364,   0.86573
   0.60058,  -0.30697,  -0.62923,  -0.11622,   0.24828,   0.79538,  -0.18412,  -0.14641,  -0.07549,  -0.35388
  -0.44970,   0.87250,  -0.65169,   0.93750,  -0.54675,   0.82548,  -0.29692,  -0.78430,   0.46421,   0.64324
  -0.93750,   0.81641,  -0.50455,   0.18215,   0.10572,  -0.92901,   0.58294,  -0.12309,  -0.31519,   0.87061
  -0.84506,   0.14396,   0.93750,   0.27880,  -0.91866,   0.01327,  -0.43510,   0.26000,   0.80251,  -0.61875
   0.93750,  -0.06746,  -0.86062,   0.93750,  -0.89899,  -0.47115,   0.67820,  -0.93725,  -0.06146,  -0.29708
   0.87620,   0.00192,   0.80571,  -0.34286,   0.00345,  -0.45816,  -0.35177,   0.75815,   0.87240,   0.44106
   0.42042,  -0.30306,  -0.31255,  -0.63139,   0.35793,  -0.69345,   0.19687,   0.93750,   0.53215,  -0.34260
   0.93750,   0.29285,  -0.25536,  -0.92625,  -0.45485,   0.04921,  -0.12302,  -0.28498,  -0.29216,  -0.83093
  -0.20172,   0.82745,  -0.47995,   0.47876,   0.00446,   0.68082,  -0.31100,   0.88412,   0.70474,  -0.08784
   0.93750,   0.04100,  -0.93750,   0.08197,   0.79228,  -0.39632,  -0.25342,   0.39691,  -0.93639,   0.47707
  -0.14302,   0.93750,   0.36864,  -0.30941,   0.12227,  -0.11486,  -0.15118,  -0.16465,   0.87988,  -0.91977
   0.39208,  -0.38401,  -0.45142,   0.93187,  -0.61900,   0.86096,   0.81189,  -0.51449,  -0.86904,  -0.88764
  -0.74417,  -0.81127,   0.87324,  -0.80408,   0.93750,   0.46421,   0.93750,  -0.93750,   0.93750,  -0.93750
  -0.73879,   0.87467,  -0.62650,  -0.66437,   0.29237,   0.12179,  -0.27562,   0.31782,  -0.37212,  -0.81110
   0.43132,   0.44600,  -0.27617,   0.70959,  -0.33352,  -0.08064,   0.02181,   0.31359,  -0.14492,  -0.72338
   0.87733,  -0.81572,  -0.62010,   0.31896,  -0.78642,  -0.67423,   0.87717,  -0.11836,  -0.36566,  -0.13515
   0.39483,   0.87236,  -0.76477,  -0.93750,  -0.33282,  -0.87368,   0.76510,  -0.12809,   0.63705,   0.28547
   0.17430,  -0.00677,  -0.17240,  -0.26284,   0.22031,  -0.01372,   0.92312,   0.49462,   0.32162,   0.64414
   0.49155,   0.26596,   0.54748,  -0.80905,   0.05048,   0.45108,   0.55732,  -0.24456,   0.11281,   0.21430
   0.93430,   0.19836,   0.82802,  -0.93750,   0.93750,  -0.93750,   0.88420,   0.93750,  -0.12031,  -0.30384
  -0.35876,  -0.16216,  -0.44565,  -0.03996,  -0.49088,   0.47789,   0.82058,  -0.66322,  -0.78420,   0.86991
   0.82110,   0.09911,   0.93750,  -0.83999,   0.33346,  -0.89745,  -0.39231,   0.59876,  -0.25469,   0.93076
   0.53967,   0.09366,   0.32866,  -0.05998,  -0.18629,  -0.46641,   0.84221,   0.68735,   0.16926,  -0.27099
   0.34658,  -0.17273,   0.61021,  -0.86689,   0.02737,   0.25981,   0.75956,  -0.12716,  -0.02917,   0.45926
  -0.62496,  -0.65381,  -0.49234,  -0.87900,   0.23692,  -0.85136,  -0.50812,  -0.88355,  -0.17150,  -0.75413
  -0.16629,  -0.01868,  -0.81093,  -0.17689,   0.37363,  -0.60374,   0.93750,   0.29469,  -0.76557,  -0.44657
   0.93750,   0.93750,  -0.03552,  -0.33288,  -0.25785,   0.93750,   0.93750,   0.20171,   0.93750,   0.60447
   0.27149,  -0.66688,   0.04729,  -0.48648,   0.50235,  -0.12737,   0.40698,   0.03028,  -0.58192,   0.93750
  -0.61290,   0.58402,   0.07105,   0.69330,   0.68508,   0.27592,   0.51510,   0.41224,  -0.37285,  -0.86243
  -0.59105,  -0.28981,   0.91537,   0.86586,  -0.67193,  -0.60619,  -0.37974,  -0.74839,  -0.00101,   0.41709
  -0.66122,  -0.93600,  -0.15977,  -0.05419,  -0.93750,  -0.86704,   0.46561,   0.88348,   0.74857,   0.79045
  -0.70655,   0.74106,   0.28408,   0.35787,  -0.11795,  -0.40164,  -0.73319,   0.14929,   0.82995,   0.20272
  -0.56619,  -0.21284,  -0.31500,   0.93014,  -0.62518,  -0.85942,   0.93750,  -0.88601,   0.30348,   0.38162
   0.50831,   0.83183,  -0.55137,  -0.93750,   0.93750,   0.04493,  -0.52128,   0.07630,  -0.93750,   0.72724
  -0.13240,  -0.93750,  -0.88007,  -0.88045,  -0.87827,  -0.84024,   0.80726,   0.73972,  -0.74958,   0.57725
  -0.15359,   0.43546,  -0.42073,  -0.16242,   0.85918,  -0.00714,   0.20812,   0.06218,   0.87138,  -0.51610
  -0.09422,   0.30701,   0.86828,   0.28620,   0.93750,  -0.56110,  -0.09576,   0.52556,  -0.93750,   0.93750
   0.93750,  -0.24487,  -0.78124,  -0.21510,  -0.54127,  -0.93750,   0.93750,  -0.27988,  -0.45954,  -0.51872
   0.34274,  -0.72436,  -0.74276,   0.18693,   0.63927,   0.87491,  -0.18046,  -0.47076,   0.07586,   0.93750
   0.68452,  -0.31235,  -0.25832,  -0.74333,  -0.88104,   0.39639,   0.93750,  -0.60714,  -0.06988,   0.18561
  -0.51991,  -0.05435,  -0.67728,  -0.79587,   0.93535,   0.93592,  -0.54652,   0.93750,  -0.70386,  -0.41485
  -0.00664,  -0.59418,   0.82429,   0.13717,  -0.67559,   0.93750,  -0.19457,  -0.93750,   0.04301,  -0.67291
   0.14370,   0.89176,   0.54204,   0.81704,  -0.67441,  -0.50806,  -0.56687,   0.31616,  -0.71207,  -0.74512
  -0.69963,  -0.58397,   0.93750,  -0.34048,   0.93750,  -0.93750,  -0.49424,   0.93750,  -0.93750,   0.93750
  -0.57825,   0.87510,   0.44289,   0.08288,  -0.14208,   0.14858,   0.36411,   0.19429,   0.07484,  -0.93750
  -0.63798,   0.93750,  -0.88160,  -0.01185,  -0.13183,   0.09085,  -0.23665,  -0.26636,  -0.86614,  -0.58365
   0.90270,  -0.90148,   0.87195,   0.75083,  -0.66510,   0.93750,   0.80896,  -0.79261,   0.42472,  -0.42458
  -0.87227,  -0.91933,   0.93750,   0.78694,   0.36174,  -0.35455,   0.00207,   0.40364,   0.08910,  -0.12223
  -0.54565,  -0.04352,  -0.73441,   0.93750,   0.13840,  -0.70573,   0.15624,  -0.13386,   0.13917,   0.68735
  -0.43501,   0.22126,  -0.88061,   0.93750,  -0.09667,  -0.86203,   0.73408,  -0.20246,  -0.36146,   0.52277
   0.05207,   0.80317,   0.78816,  -0.85191,   0.11301,   0.93750,  -0.12696,  -0.91280,  -0.29149,  -0.39413
  -0.29090,  -0.47237,   0.92761,  -0.29936,   0.44115,   0.61038,   0.60722,  -0.14436,   0.93750,  -0.86990
  -0.78014,   0.93018,  -0.86158,  -0.31954,  -0.26491,  -0.75638,  -0.29685,  -0.93152,  -0.75378,   0.93750
   0.93750,  -0.61258,  -0.60445,  -0.20748,  -0.29211,  -0.04659,   0.29059,  -0.45100,  -0.92300,   0.22618
  -0.17427,  -0.04889,  -0.14617,  -0.67336,   0.74478,   0.93750,   0.93750,   0.71219,  -0.14629,  -0.12910
   0.44619,   0.67052,  -0.17239,  -0.02429,  -0.89742,  -0.77118,  -0.69877,   0.93750,   0.56239,   0.36101
  -0.27151,  -0.20370,   0.93750,  -0.33188,  -0.78241,  -0.76641,   0.83661,  -0.27246,  -0.50494,  -0.34413
   0.42624,  -0.38259,   0.08476,   0.64588,   0.16493,  -0.53986,  -0.23231,  -0.25949,  -0.14435,   0.20610
   0.67772,  -0.17084,  -0.39943,  -0.30665,   0.93750,  -0.78763,   0.54479,  -0.53692,   0.30167,   0.37077
  -0.66718,   0.45301,   0.93347,  -0.70737,  -0.73168,  -0.93750,   0.86838,   0.05129,  -0.66829,  -0.72049
  -0.52757,   0.68258,  -0.38770,   0.79025,   0.81235,   0.87149,  -0.82238,   0.66908,  -0.55995,  -0.73445
   0.46514,  -0.68743,  -0.81054,  -0.01615,   0.09111,  -0.64948,   0.87679,  -0.81972,   0.82200,   0.57014
  -0.76905,   0.19702,  -0.45469,  -0.22541,   0.93684,   0.82056,   0.67658,  -0.10597,   0.93750,  -0.07595
  -0.93750,   0.43318,   0.76515,   0.46096,  -0.93750,  -0.18114,   0.83730,  -0.42116,  -0.50596,   0.93750
   0.55678,  -0.39716,   0.93750,  -0.87040,  -0.70443,   0.37088,   0.93717,   0.09826,   0.46559,   0.38205
   0.93750,  -0.69295,  -0.19359,   0.93750,   0.93750,  -0.68081,   0.93750,   0.93750,  -0.15770,   0.91120
  -0.19052,   0.92481,   0.75183,   0.14978,   0.28235,   0.15389,   0.07430,   0.21657,  -0.62620,  -0.54892
   0.09647,   0.31485,  -0.48527,  -0.62865,   0.37735,   0.93750,  -0.16084,   0.82299,  -0.40587,  -0.81047
   0.87332,   0.56066,  -0.88304,  -0.41370,  -0.61989,   0.25952,  -0.09317,   0.06711,  -0.79241,  -0.93750
  -0.48179,   0.43957,  -0.02512,  -0.54616,   0.48940,   0.87072,  -0.27306,  -0.62133,  -0.33205,   0.24404
   0.16238,  -0.34814,  -0.41110,   0.58051,  -0.23797,   0.68179,  -0.14019,   0.79862,  -0.16746,  -0.48268
  -0.20744,  -0.11640,   0.75398,  -0.79643,  -0.86194,   0.93750,  -0.81232,   0.88123,   0.50823,   0.92601
   0.11406,   0.12949,  -0.10127,  -0.67445,   0.01504,  -0.46639,  -0.18529,   0.93565,  -0.23072,  -0.16334
  -0.93750,   0.19652,   0.32958,   0.71263,  -0.46166,   0.01175,  -0.82906,  -0.02589,   0.93750,  -0.04323
   0.12675,   0.24313,   0.02440,  -0.57203,   0.09956,   0.60294,   0.34121,  -0.64140,  -0.13308,   0.31862
   0.87902,   0.71220,   0.65317,  -0.88254,  -0.93750,   0.83926,  -0.58497,  -0.00207,  -0.93750,  -0.87358
  -0.40759,  -0.46352,  -0.20039,   0.64275,   0.14314,  -0.23235,  -0.72381,  -0.50174,  -0.19467,  -0.49481
  -0.17422,   0.93750,  -0.51461,   0.15489,  -0.92925,  -0.76482,  -0.87930,  -0.56383,  -0.76279,  -0.88338
  -0.36082,  -0.04067,  -0.46065,  -0.32499,   0.55410,   0.85336,  -0.00941,   0.58178,   0.28373,   0.30250
   0.01542,   0.42520,  -0.09277,   0.74117,   0.36336,  -0.45740,  -0.33421,  -0.37591,   0.32356,   0.41758
  -0.33679,   0.37289,   0.46909,  -0.31805,   0.73109,  -0.16048,  -0.40462,  -0.45716,  -0.16640,  -0.49249
   0.10946,  -0.80969,  -0.64068,  -0.45170,  -0.88177,  -0.93750,   0.39676,  -0.80962,   0.15099,   0.31145
  -0.38218,  -0.14768,   0.55037,  -0.25458,  -0.30022,   0.70150,  -0.10793,  -0.28786,  -0.12930,   0.28121
   0.49449,  -0.03975,  -0.92126,  -0.51220,  -0.75135,  -0.67633,  -0.86949,  -0.30531,   0.93750,  -0.16896
   0.56421,   0.08104,  -0.93750,   0.68517,  -0.93750,  -0.93750,   0.93750,   0.87834,   0.14984,   0.08867
  -0.45133,   0.81501,   0.01028,  -0.93750,   0.79661,  -0.43658,   0.68669,  -0.34543,  -0.80967,  -0.87250
  -0.51840,  -0.04005,   0.86680,  -0.49594,   0.68579,   0.67631,   0.10380,   0.29054,  -0.38194,  -0.49493
   0.88384,  -0.43877,   0.38671,  -0.67787,  -0.87679,  -0.63250,  -0.27127,   0.80641,   0.62129,   0.17342
   0.52687,   0.47102,  -0.59828,  -0.91240,   0.84708,   0.93750,   0.34173,   0.60824,  -0.63337,   0.05040
   0.93750,  -0.18074,  -0.37970,  -0.93750,   0.13551,  -0.33052,  -0.07029,  -0.39666,   0.39124,  -0.91266
  -0.42140,   0.54241,   0.19439,  -0.88929,   0.93750,   0.77449,  -0.39072,  -0.13989,   0.15707,  -0.85473
  -0.93750,  -0.93750,   0.93750,  -0.48325,  -0.87205,   0.85309,  -0.61214,  -0.11858,  -0.93750,   0.16017
   0.92999,  -0.93750,   0.44118,  -0.68463,   0.82681,   0.01997,   0.57491,  -0.93750,  -0.83856,  -0.34155
   0.59088,   0.04208,  -0.68226,  -0.18547,  -0.19559,  -0.00359,   0.88395,  -0.26508,   0.24442,   0.14933
  -0.21525,   0.07387,  -0.29396,   0.73874,  -0.58548,  -0.44114,  -0.06041,  -0.24307,  -0.04336,   0.50431
  -0.50332,   0.63291,  -0.84739,  -0.86824,   0.62682,   0.93750,  -0.46244,   0.75016,   0.62151,  -0.72103
   0.09376,   0.68855,   0.54916,  -0.78557,   0.87933,   0.93750,  -0.07373,  -0.34167,  -0.75466,  -0.90823
  -0.93750,  -0.93750,   0.41131,   0.55003,  -0.62551,  -0.60756,  -0.51986,   0.93750,  -0.93750,  -0.80314
   0.21900,   0.19626,  -0.17655,  -0.45625,  -0.48168,   0.93061,  -0.52923,  -0.71925,  -0.14928,  -0.15691
  -0.58998,   0.68799,  -0.04395,   0.41366,   0.37291,   0.88577,  -0.47082,  -0.62525,   0.93750,  -0.74437
   0.19977,   0.15906,  -0.85657,  -0.22180,   0.42632,   0.79189,   0.36419,  -0.32998,  -0.33744,   0.13502
   0.93750,   0.73504,  -0.69281,  -0.71709,  -0.69129,  -0.72424,  -0.40629,  -0.79157,   0.93750,   0.81731
   0.93750,  -0.22239,  -0.69476,   0.29297,   0.87220,  -0.81191,   0.93750,  -0.52215,  -0.92041,  -0.68648
   0.93750,   0.80467,  -0.02818,   0.93750,   0.59502,  -0.70578,   0.54391,   0.93750,  -0.71387,  -0.87503
   0.61413,   0.12030,   0.73570,  -0.19261,  -0.57983,  -0.34948,   0.55842,   0.14856,   0.36294,  -0.01696
   0.89316,   0.32733,  -0.04769,  -0.22666,   0.54956,  -0.63395,   0.93750,  -0.54947,  -0.68430,  -0.60293
  -0.93142,   0.65847,  -0.04485,   0.79133,   0.48890,   0.28924,   0.31410,  -0.65202,  -0.80808,   0.87390
  -0.81971,  -0.78681,   0.93750,  -0.81483,  -0.16447,   0.93750,  -0.78342,   0.81020,  -0.59401,   0.13878
   0.93750,  -0.59433,   0.03094,   0.54787,  -0.62245,  -0.58223,   0.88220,  -0.70197,  -0.76225,   0.93750
  -0.79758,   0.87947,   0.56199,  -0.53398,  -0.58736,  -0.24388,  -0.19815,  -0.28100,   0.86285,   0.03935
   0.69463,   0.67044,   0.07695,  -0.11673,   0.19795,   0.21678,   0.43840,  -0.29789,   0.38778,  -0.86347
   0.44239,  -0.25383,  -0.54860,  -0.56457,   0.19678,   0.85174,  -0.15835,  -0.17235,  -0.25220,  -0.67185
  -0.14833,  -0.33433,   0.47222,   0.75602,  -0.11206,  -0.47045,  -0.30822,  -0.49472,  -0.42567,  -0.23300
  -0.93750,  -0.81035,   0.93750,  -0.92681,  -0.59985,  -0.07025,   0.88102,   0.74986,   0.84027,  -0.42964
   0.63718,  -0.47108,  -0.71766,  -0.09657,  -0.93750,   0.55161,   0.36825,   0.75257,  -0.63112,  -0.27674
   0.03532,   0.21998,  -0.83344,  -0.92272,  -0.91084,   0.93750,  -0.13186,  -0.40552,  -0.41813,   0.55660
  -0.50619,  -0.10467,   0.34128,   0.39989,   0.76499,  -0.26661,  -0.09631,   0.54062,   0.93750,  -0.63829
  -0.75686,  -0.78185,   0.93750,  -0.87527,  -0.82274,  -0.30021,  -0.79412,   0.23690,  -0.14661,  -0.92610
   0.14790,  -0.11147,  -0.74040,   0.91699,  -0.52123,  -0.88018,   0.93750,   0.93750,  -0.46733,  -0.10124
   0.54145,   0.03172,  -0.10811,  -0.23611,   0.79686,   0.19914,  -0.69751,   0.77942,   0.46523,  -0.40071
   0.68572,  -0.07041,   0.75732,   0.93750,  -0.93750,  -0.26279,   0.93750,   0.93750,  -0.93584,  -0.49345
   0.42551,   0.25874,  -0.07437,   0.35230,   0.19180,   0.69873,   0.87154,  -0.62368,  -0.68507,  -0.93750
  -0.18427,  -0.20157,  -0.46123,   0.21120,   0.91929,  -0.03144,   0.85583,  -0.43619,   0.53530,   0.02470
  -0.83094,  -0.64280,  -0.43898,   0.52779,  -0.77349,  -0.18077,  -0.49577,   0.60125,   0.80948,   0.80124
  -0.50611,   0.74024,  -0.76734,   0.93750,  -0.93750,  -0.75101,  -0.72990,  -0.93750,   0.67021,   0.87124
   0.93750,   0.93750,   0.02921,   0.29700,   0.09335,   0.16718,  -0.43630,  -0.53582,  -0.44252,   0.93750
  -0.74603,   0.17808,  -0.40725,   0.01153,   0.93268,  -0.37825,   0.93750,  -0.41997,   0.25928,  -0.14545
  -0.29230,  -0.11921,  -0.83197,   0.93291,  -0.92959,   0.80408,   0.93750,  -0.88289,  -0.05209,   0.04722
   0.04243,  -0.67488,  -0.10731,  -0.18887,   0.59592,   0.86639,   0.00315,  -0.31147,   0.10751,  -0.30308
   0.16258,  -0.62654,   0.69406,  -0.93750,  -0.09306,  -0.86362,  -0.86786,   0.18945,  -0.06962,   0.55542
   0.21628,   0.25572,   0.70006,   0.93750,   0.07767,  -0.84644,  -0.80161,   0.85213,   0.27902,  -0.11009
  -0.49736,   0.14183,   0.79669,  -0.93750,   0.75631,  -0.68887,  -0.93750,   0.73589,  -0.81438,   0.63776
  -0.26103,  -0.24153,   0.09530,  -0.73743,   0.64674,  -0.09842,   0.93750,   0.11796,  -0.48377,  -0.02446
  -0.28184,  -0.42311,  -0.40318,   0.91533,   0.10661,  -0.53087,  -0.07349,   0.65642,  -0.08437,  -0.24673
   0.19726,   0.03983,  -0.05105,  -0.74034,   0.65748,   0.78817,   0.35704,   0.81562,  -0.54865,  -0.32748
   0.45864,   0.72094,   0.60503,  -0.76331,   0.46544,  -0.58359,   0.52593,  -0.06959,   0.16270,  -0.32435
   0.88694,   0.88212,  -0.61442,   0.93750,  -0.61570,   0.88296,  -0.58684,   0.37988,  -0.83701,   0.93750
  -0.05186,   0.44469,   0.51524,   0.77888,   0.02698,  -0.18024,  -0.50609,   0.15234,   0.42170,   0.28105
  -0.75080,   0.78406,   0.93665,   0.80569,  -0.57684,   0.63341,   0.93750,  -0.87980,   0.91502,  -0.18580
  -0.57878,  -0.11662,   0.93750,   0.54291,   0.56728,  -0.50359,  -0.22239,   0.52154,   0.87189,  -0.70436
   0.18519,  -0.02686,   0.69184,   0.91856,  -0.35819,   0.09166,   0.07570,  -0.77030,  -0.03033,  -0.46194
  -0.34690,  -0.93750,  -0.93750,  -0.68997,   0.93750,   0.33321,   0.90992,   0.93750,  -0.08185,   0.93750
   0.13920,  -0.24941,   0.03044,   0.83219,   0.37068,  -0.92472,  -0.58788,   0.65162,   0.54223,  -0.54632
  -0.46971,  -0.93750,   0.93750,  -0.81376,   0.87078,   0.87412,  -0.32288,   0.93750,   0.62152,   0.14533
  -0.53851,   0.93750,  -0.81057,  -0.24284,   0.87174,   0.04431,   0.30120,   0.39293,  -0.49128,  -0.77908
   0.87731,   0.93750,  -0.20048,   0.93750,   0.47782,  -0.74315,   0.36693,   0.68709,  -0.76142,  -0.87351
   0.69803,   0.58413,  -0.26047,  -0.54498,  -0.37252,   0.93750,  -0.47366,   0.49475,   0.46915,  -0.50571
   0.06644,  -0.74220,   0.68790,   0.13625,   0.63458,  -0.92530,   0.61331,   0.76075,  -0.92753,  -0.61952
   0.43844,  -0.09037,   0.67124,  -0.63626,  -0.49394,   0.75951,   0.09403,  -0.29051,  -0.17898,  -0.07538
   0.16588,   0.93750,  -0.86653,   0.28237,   0.40361,   0.08196,  -0.34336,   0.53837,  -0.28471,  -0.87205
  -0.70095,   0.85893,   0.34453,   0.70886,  -0.93750,   0.38023,   0.60377,  -0.82194,  -0.12822,  -0.93750
   0.88996,  -0.62928,  -0.39308,  -0.10753,   0.58515,   0.35661,   0.02096,  -0.64916,  -0.70340,  -0.35995
   0.34248,  -0.93750,   0.11109,   0.01133,  -0.73444,  -0.93750,  -0.69633,  -0.54677,  -0.87020,  -0.61836
  -0.48809,   0.24390,  -0.67061,  -0.23846,   0.86685,  -0.34953,   0.42360,   0.37846,  -0.02274,  -0.07554
   0.70476,   0.32416,  -0.44432,   0.59871,   0.86607,  -0.02268,  -0.20438,   0.75504,   0.61466,   0.46011
  -0.08946,   0.93750,   0.87715,   0.37284,  -0.06750,   0.37491,   0.68907,   0.41224,  -0.25159,  -0.93750
  -0.10192,   0.62677,  -0.56287,   0.50855,   0.51762,   0.93750,  -0.87316,  -0.93750,  -0.93750,   0.88286
   0.18676,  -0.31813,  -0.22937,  -0.38554,   0.68050,  -0.43369,  -0.43101,  -0.87250,   0.54296,  -0.87601
   0.68935,  -0.42755,   0.16350,  -0.68474,  -0.68774,   0.88320,  -0.56287,  -0.58264,   0.04031,  -0.86891
  -0.47409,   0.12668,  -0.65446,   0.63533,   0.63998,   0.87473,  -0.88061,   0.40896,   0.04921,  -0.72517
   0.61666,  -0.22418,   0.09888,  -0.86860,   0.23698,  -0.29649,   0.93750,  -0.93750,  -0.93750,  -0.93750
  -0.85098,   0.15756,  -0.43325,  -0.93750,  -0.42980,  -0.76399,   0.45945,   0.27775,   0.93750,  -0.44749
   0.82921,   0.86218,   0.93750,   0.93750,  -0.65498,  -0.65469,   0.38854,   0.83482,  -0.77798,  -0.07815
  -0.47245,  -0.00095,   0.59711,   0.41314,  -0.30843,   0.42505,  -0.24905,  -0.47400,  -0.01002,   0.48649
   0.24529,  -0.31759,  -0.65362,  -0.38451,   0.29938,   0.87359,  -0.08847,   0.12861,   0.32991,   0.19969
  -0.50736,   0.29945,  -0.53450,   0.93750,   0.34267,  -0.69685,  -0.37022,  -0.89153,   0.03143,   0.43123
  -0.06813,  -0.82159,   0.08273,   0.25004,  -0.72884,   0.75481,  -0.50079,   0.31044,   0.61715,  -0.38419
  -0.93750,   0.33502,   0.56840,   0.83125,   0.74189,   0.32074,   0.43517,   0.76582,  -0.56571,   0.65657
  -0.39508,  -0.10702,  -0.69144,   0.03642,   0.39317,  -0.68135,  -0.15022,   0.93750,   0.91414,  -0.37182
  -0.56614,   0.70542,  -0.75082,   0.20054,   0.54400,  -0.86147,   0.38022,   0.93750,  -0.19414,  -0.92556
   0.07768,  -0.01689,  -0.40596,  -0.68759,   0.93426,  -0.89860,  -0.52030,  -0.75457,  -0.12400,   0.01435
   0.15316,   0.06765,   0.92776,  -0.93750,  -0.93750,   0.93750,   0.47262,  -0.93750,   0.26854,  -0.02610
   0.43634,   0.06704,   0.93750,   0.51315,  -0.93750,   0.31792,   0.07878,   0.80861,   0.09223,   0.08832
  -0.76107,   0.87720,   0.55034,  -0.51400,   0.87460,   0.93750,  -0.93750,  -0.68271,  -0.72279,   0.62083
   0.61349,  -0.05367,   0.63270,  -0.14489,   0.79220,  -0.36312,  -0.15195,  -0.21540,   0.25213,   0.27522
  -0.81299,  -0.75185,   0.93750,  -0.04198,  -0.57855,   0.93527,  -0.74226,  -0.56074,  -0.58604,  -0.17787
  -0.17240,   0.24273,   0.40352,  -0.74122,  -0.25092,   0.93750,  -0.92661,  -0.19623,  -0.15893,   0.20107
   0.15926,   0.15125,  -0.60545,  -0.18045,  -0.22789,   0.93750,   0.08088,   0.12447,   0.10913,  -0.03560
  -0.93750,   0.86164,   0.93750,  -0.87047,  -0.88221,   0.90177,  -0.93750,  -0.93750,   0.93750,  -0.93750
  -0.52851,  -0.83598,  -0.93750,   0.81252,   0.93750,  -0.93750,  -0.82235,  -0.93750,   0.93750,   0.40004
   0.26545,   0.00414,   0.48970,  -0.43264,   0.41919,   0.93289,  -0.58604,  -0.51695,   0.22169,  -0.34391
  -0.46944,   0.67080,  -0.12731,  -0.22902,  -0.49983,  -0.21507,   0.40429,   0.68552,   0.07178,  -0.49199
  -0.75901,   0.75033,   0.09893,   0.56890,   0.54524,  -0.69386,  -0.93678,  -0.91504,   0.53074,  -0.61157
  -0.92766,   0.23418,   0.93750,  -0.74603,  -0.91085,  -0.26471,  -0.05619,   0.39255,   0.93292,   0.31764
   0.17115,  -0.64561,  -0.93750,   0.74637,   0.11287,   0.87539,  -0.59062,  -0.13889,  -0.66145,  -0.60599
   0.72733,   0.65414,  -0.93750,  -0.89002,  -0.79991,   0.39518,   0.73230,   0.86476,   0.41404,   0.93750
  -0.43129,   0.93750,   0.56355,  -0.29839,  -0.48757,  -0.67237,  -0.17931,   0.80396,  -0.03007,  -0.93750
   0.05569,  -0.64815,   0.80571,   0.91196,   0.09275,  -0.61787,   0.91033,  -0.70811,   0.86717,   0.60571
  -0.32596,  -0.93750,   0.60518,  -0.93750,  -0.34590,  -0.71610,   0.47582,   0.62917,   0.27293,   0.22296
  -0.46675,   0.69053,  -0.06980,  -0.16066,   0.32760,  -0.04597,  -0.62953,  -0.05720,   0.30360,  -0.63149
   0.80043,  -0.73551,  -0.70529,  -0.87443,  -0.93750,   0.46577,  -0.22254,  -0.75776,   0.73743,  -0.87000
   0.31894,  -0.12299,  -0.06015,   0.86034,  -0.36411,  -0.77202,  -0.01838,  -0.13848,   0.93750,   0.18603
   0.93750,  -0.64326,   0.93750,   0.80632,   0.93750,  -0.18948,  -0.62661,  -0.75825,  -0.93750,  -0.87887
   0.67220,  -0.11646,  -0.17888,  -0.41881,   0.51613,   0.87208,  -0.23479,   0.38238,   0.19202,  -0.15264
   0.78715,  -0.23412,  -0.18774,  -0.82389,  -0.91024,   0.93750,   0.30719,  -0.67539,   0.50369,   0.06903
   0.20708,  -0.04198,  -0.52818,   0.12160,  -0.26579,  -0.74066,  -0.79941,   0.31380,  -0.23450,   0.88041
   0.74414,  -0.29255,   0.93750,  -0.08225,  -0.22357,  -0.93750,  -0.35799,   0.76770,  -0.39299,   0.15107
  -0.15234,   0.46357,  -0.61608,  -0.66341,   0.07127,   0.76475,   0.74555,   0.27196,   0.51575,  -0.37994
   0.66033,   0.81164,  -0.49575,  -0.07894,   0.42648,   0.10367,   0.41937,   0.19719,  -0.17117,  -0.87415
   0.66174,  -0.64888,  -0.70995,   0.91988,  -0.74717,   0.50140,  -0.92027,  -0.76443,   0.86868,   0.30237
   0.93750,  -0.81153,   0.39127,   0.66404,   0.88766,  -0.93750,  -0.46793,  -0.16005,  -0.93750,   0.01065
  -0.75407,  -0.93750,   0.54465,   0.26641,   0.93750,  -0.93750,   0.93750,   0.47037,   0.69263,  -0.08256
  -0.83129,  -0.93750,   0.34114,   0.93750,   0.75613,   0.77742,  -0.57738,  -0.20127,   0.87304,  -0.69428
  -0.93750,  -0.79528,   0.75807,  -0.39297,   0.93750,   0.14390,   0.44533,  -0.93207,   0.08734,  -0.54940
   0.93750,  -0.80623,  -0.16806,  -0.86769,   0.93750,  -0.74194,   0.46720,   0.67517,  -0.15087,  -0.36661
   0.88026,   0.31710,   0.44047,   0.35718,   0.73370,  -0.61317,   0.45754,   0.93750,   0.53201,  -0.92709
   0.38930,  -0.80161,   0.92354,   0.85676,  -0.60218,  -0.87894,   0.64965,   0.93750,  -0.42003,  -0.51437
   0.58574,  -0.10644,   0.05399,  -0.81953,   0.57620,  -0.11384,   0.93750,   0.70035,  -0.48485,   0.03330
  -0.11266,   0.80753,   0.23539,   0.57181,  -0.55257,  -0.70700,   0.80058,   0.86466,   0.93750,  -0.21835
  -0.72536,   0.93750,  -0.93750,   0.90601,   0.39286,   0.93750,   0.34026,   0.93750,   0.40741,  -0.80295
   0.14710,   0.01377,  -0.28683,  -0.78614,   0.93750,   0.32608,   0.62875,   0.93750,   0.78157,  -0.43061
  -0.00158,   0.13478,  -0.05032,   0.70201,  -0.43505,   0.60026,   0.93375,   0.93750,  -0.41333,   0.63129
   0.78073,   0.06508,   0.39536,  -0.66924,   0.25720,  -0.30253,  -0.52974,   0.16911,  -0.93750,  -0.20898
  -0.28935,  -0.93518,  -0.24651,  -0.65777,  -0.21383,  -0.56864,   0.22117,  -0.60173,   0.65277,   0.93750
   0.12537,  -0.00460,   0.26805,  -0.02096,  -0.48585,  -0.00733,   0.40172,  -0.72976,   0.24325,   0.12739
  -0.00325,   0.31679,  -0.11686,   0.86682,   0.42007,  -0.04455,   0.21020,   0.48693,   0.05602,  -0.12723
   0.88012,  -0.67724,  -0.57181,   0.93750,  -0.02304,  -0.54512,   0.64318,  -0.12163,   0.08499,  -0.41674
   0.93750,   0.74377,   0.00669,  -0.86799,  -0.57687,   0.38071,   0.54720,   0.66366,  -0.26875,   0.81717
   0.62148,   0.13389,  -0.09087,   0.74951,   0.64174,   0.59546,  -0.93750,   0.93607,   0.51450,   0.93750
   0.93750,  -0.93750,  -0.50070,  -0.86634,   0.11291,  -0.85699,  -0.88045,  -0.70783,   0.61071,   0.74178
   0.25998,   0.12821,  -0.93374,   0.93750,  -0.93659,  -0.23022,  -0.61007,   0.87706,  -0.11358,  -0.31791
  -0.48407,  -0.50355,  -0.26062,  -0.37175,  -0.47680,   0.45950,   0.65696,   0.12138,  -0.52198,  -0.00625
   0.57326,  -0.49791,  -0.17147,  -0.63706,   0.87719,   0.91766,  -0.73207,   0.13568,  -0.35901,  -0.79387
   0.93750,  -0.42880,   0.29184,  -0.88004,   0.87205,   0.61146,   0.93750,   0.76316,  -0.49208,   0.93750
   0.82025,  -0.72431,  -0.72585,   0.56838,  -0.73735,   0.01363,   0.54977,  -0.57960,  -0.54392,   0.19053
   0.93750,  -0.05111,  -0.93750,   0.31761,   0.86925,  -0.56146,  -0.32777,  -0.29580,  -0.88976,  -0.30280
   0.88381,  -0.12280,  -0.58975,  -0.23612,   0.81936,  -0.13870,  -0.63847,   0.59873,   0.53801,  -0.24372
   0.93750,  -0.10878,  -0.88256,  -0.68668,   0.28702,  -0.31605,  -0.07156,   0.31272,  -0.92218,   0.44464
  -0.53667,  -0.31881,  -0.12515,   0.38811,  -0.21168,   0.58957,   0.79766,  -0.58090,   0.27815,   0.16993
   0.15947,   0.14961,   0.81522,  -0.39309,  -0.07381,  -0.39540,   0.87337,   0.66789,   0.20690,   0.14695
  -0.53851,  -0.25021,   0.80541,  -0.15391,  -0.08616,  -0.44891,   0.41570,   0.05790,   0.32834,   0.21416
   0.87909,  -0.34634,   0.89181,  -0.16189,   0.93750,   0.93750,  -0.57674,  -0.80726,   0.86711,  -0.62533
  -0.77131,  -0.43698,   0.86850,   0.56188,   0.00228,  -0.64969,   0.27085,   0.93289,   0.50844,  -0.62416
  -0.88768,   0.42883,   0.91695,   0.93750,   0.52643,  -0.92350,  -0.93750,  -0.60717,   0.30654,   0.12727
  -0.36758,  -0.28741,  -0.87471,  -0.21327,   0.93750,  -0.93750,   0.67474,  -0.87663,   0.63987,   0.12119
  -0.83603,  -0.39996,   0.83116,  -0.64170,   0.81297,   0.41402,  -0.83436,   0.00483,  -0.60312,  -0.86613
   0.90176,   0.10915,  -0.39431,  -0.62113,   0.61545,   0.49109,   0.06783,   0.31730,  -0.55777,  -0.27745
  -0.09825,  -0.49950,   0.87538,  -0.70383,   0.93750,   0.77882,   0.01504,  -0.00152,  -0.03919,   0.30573
  -0.05265,   0.25624,  -0.05252,  -0.75150,   0.58028,   0.93661,  -0.19661,  -0.22033,  -0.16671,   0.22135
  -0.38610,  -0.58000,   0.31684,   0.93482,  -0.65621,  -0.60275,  -0.59451,   0.61007,  -0.45497,  -0.52920
  -0.47422,   0.04663,   0.93750,   0.93750,   0.83541,   0.89280,  -0.88033,   0.38447,   0.07948,  -0.50542
  -0.09434,   0.58818,  -0.61979,  -0.76972,  -0.37560,   0.76352,  -0.93750,  -0.91812,   0.93750,   0.30538
   0.56565,  -0.87599,   0.64840,   0.24416,   0.39701,   0.67781,   0.67230,  -0.89468,   0.30939,  -0.61076
  -0.09433,   0.85412,  -0.11173,   0.93750,  -0.87962,   0.93691,  -0.87409,  -0.93750,   0.37566,   0.66051
   0.74414,   0.35220,   0.42425,  -0.87417,  -0.61062,   0.81794,   0.37844,  -0.41128,  -0.63344,   0.55544
   0.09859,   0.02976,   0.88252,  -0.50776,   0.02833,   0.03000,  -0.17014,  -0.04392,  -0.09066,  -0.18098
  -0.36381,  -0.69962,   0.74871,   0.14004,   0.49855,  -0.41373,  -0.55057,  -0.13623,   0.24146,   0.75716
   0.52392,   0.07601,   0.47296,   0.87279,   0.04346,  -0.58151,  -0.44368,  -0.49043,   0.38361,   0.09231
   0.31129,  -0.93750,   0.63776,  -0.56213,   0.93750,   0.03457,   0.19653,   0.80803,  -0.82346,   0.87264
   0.24110,   0.93057,   0.04756,  -0.93750,   0.93750,  -0.80872,  -0.43252,   0.50919,   0.61558,  -0.70232
  -0.50865,  -0.10623,  -0.70627,   0.63258,   0.93750,  -0.39883,   0.63545,  -0.82643,  -0.04768,   0.03265
   0.46094,   0.08911,   0.42329,   0.73388,   0.24500,  -0.28588,  -0.36865,  -0.33183,   0.67624,   0.31946
   0.42985,   0.04906,   0.26180,  -0.93750,   0.93750,   0.93750,   0.22630,  -0.75151,   0.14891,   0.27565
   0.88621,   0.93021,  -0.33439,  -0.10113,  -0.70798,  -0.60100,   0.31667,  -0.51570,   0.93750,   0.19980
  -0.74222,  -0.74041,   0.87787,  -0.56608,   0.93750,  -0.28994,  -0.28469,   0.93750,   0.81664,  -0.93750
   0.93750,  -0.35266,   0.20193,   0.67052,  -0.93750,   0.81068,   0.83358,   0.80665,  -0.93750,   0.81646
   0.30498,  -0.32525,  -0.78894,  -0.79550,  -0.20129,   0.93750,   0.25152,  -0.77300,  -0.41123,  -0.14157
   0.93750,  -0.26644,  -0.87842,   0.13219,   0.26515,   0.93750,  -0.93750,   0.37329,  -0.61585,  -0.93750
  -0.87024,   0.79036,   0.35351,  -0.29795,  -0.31048,   0.13627,   0.81016,  -0.64196,   0.93750,  -0.67072
   0.34074,  -0.49805,   0.87434,   0.93750,   0.87649,   0.38790,   0.88234,   0.10206,  -0.01753,  -0.54552
   0.24357,   0.25588,   0.05202,   0.93750,   0.24805,  -0.93750,  -0.68299,   0.45713,  -0.16548,   0.32499
  -0.56365,  -0.75462,  -0.24953,  -0.58105,  -0.92420,  -0.45675,   0.35917,   0.87683,  -0.34747,   0.46029
   0.17698,   0.19495,   0.26713,   0.00331,  -0.21625,   0.08277,  -0.26045,  -0.38935,  -0.01709,   0.11656
  -0.34100,  -0.11863,   0.56445,   0.39737,  -0.01417,  -0.45406,  -0.93750,  -0.93750,   0.32840,   0.08542
  -0.26719,  -0.25898,   0.44645,  -0.92392,  -0.74346,   0.64051,   0.93750,  -0.53896,  -0.29513,  -0.86923
   0.06449,  -0.53778,   0.87741,  -0.60962,  -0.34808,   0.93750,   0.39639,   0.87626,   0.36188,  -0.24972
  -0.53094,   0.55369,  -0.80648,   0.82503,  -0.59126,   0.57751,  -0.93750,  -0.11623,  -0.24345,  -0.93750
   0.21926,  -0.02726,  -0.08053,   0.15790,   0.27280,   0.88916,   0.17184,  -0.67548,  -0.42757,   0.29045
   0.93750,  -0.84970,  -0.93750,   0.70610,  -0.93750,  -0.66154,   0.77570,   0.91570,   0.27792,  -0.93750
  -0.49320,  -0.87455,  -0.35820,   0.93750,   0.40579,  -0.89178,   0.39987,   0.20062,   0.34099,   0.81080
   0.25957,  -0.87263,   0.62863,  -0.14731,  -0.93750,  -0.87777,  -0.58358,   0.29482,  -0.70980,  -0.93750
   0.00390,  -0.22135,   0.61552,  -0.53745,   0.16004,   0.80097,  -0.35920,   0.11398,  -0.01194,   0.56707
   0.71188,   0.82270,   0.80647,  -0.50257,   0.93750,   0.07861,   0.21773,  -0.76293,   0.00545,  -0.28250
  -0.93750,  -0.72142,  -0.54577,  -0.67210,  -0.74093,  -0.48719,   0.93750,  -0.18510,   0.01899,  -0.02948
   0.93750,  -0.50042,   0.27624,   0.21889,   0.93750,  -0.76600,  -0.93750,  -0.33866,   0.21058,   0.47061
   0.61920,  -0.25937,   0.09472,   0.20974,   0.06680,  -0.11711,   0.28754,   0.34771,  -0.70768,   0.73069
  -0.91062,   0.27289,   0.70934,   0.85468,   0.50456,   0.79998,   0.49605,   0.11181,  -0.56401,  -0.50893
   0.34853,  -0.16421,  -0.45294,  -0.60224,  -0.22587,   0.93596,  -0.29841,  -0.24215,  -0.18772,  -0.71523
   0.06269,  -0.13940,   0.67171,  -0.21416,  -0.35284,   0.10436,  -0.54784,   0.32088,   0.27675,  -0.01513
  -0.47576,  -0.75662,   0.53163,   0.55655,   0.01552,  -0.33794,   0.72402,  -0.34786,   0.40714,  -0.62243
   0.21814,   0.66414,   0.67475,  -0.15729,  -0.18403,   0.06209,  -0.30542,  -0.17355,   0.03106,  -0.50247
  -0.16405,  -0.28715,   0.81795,  -0.68225,   0.17040,  -0.29210,   0.71933,   0.22843,  -0.54853,  -0.64143
   0.25378,   0.18653,  -0.92589,   0.93750,   0.45393,  -0.68064,   0.86923,   0.82438,   0.93750,   0.80882
   0.87699,  -0.75931,   0.87113,   0.93750,  -0.80264,   0.23810,  -0.14458,  -0.61274,   0.60616,   0.87768
  -0.87861,  -0.63204,   0.09084,   0.87344,  -0.42091,  -0.93750,  -0.89747,   0.84687,   0.32114,  -0.35596
   0.10411,   0.83925,  -0.27709,   0.93750,  -0.31140,  -0.48644,   0.29421,   0.69733,  -0.93750,   0.12703
   0.64142,  -0.11216,  -0.51494,  -0.64030,   0.93750,  -0.93027,  -0.12931,  -0.65137,  -0.69175,   0.70858
   0.06209,  -0.59914,   0.07563,   0.35558,   0.42637,  -0.27644,  -0.03880,   0.43876,   0.07241,   0.41411
  -0.74986,  -0.93750,   0.65011,  -0.69121,   0.67851,   0.64443,   0.86504,   0.87501,   0.93750,   0.86545
   0.53782,  -0.56550,   0.33685,  -0.58133,  -0.81010,   0.88004,   0.61921,   0.20597,  -0.57501,   0.72980
  -0.47317,   0.64587,  -0.77439,   0.87133,   0.45549,  -0.58193,  -0.12438,   0.54334,  -0.33471,   0.93750
   0.41268,  -0.46433,  -0.21368,   0.86932,   0.10120,   0.05086,  -0.81212,  -0.22983,   0.93750,  -0.50282
  -0.38160,   0.12699,   0.87316,   0.34562,  -0.75682,  -0.25651,   0.23143,   0.52060,  -0.93750,   0.53500
  -0.93750,   0.21185,  -0.25948,  -0.46551,  -0.93750,   0.93750,  -0.28931,   0.30157,   0.51454,  -0.93750
   0.32628,   0.93750,   0.03747,  -0.93750,  -0.51910,  -0.55939,   0.27209,  -0.87608,   0.93750,   0.93750
  -0.43308,   0.93750,  -0.25099,   0.67418,  -0.04856,   0.76746,   0.03863,   0.50084,  -0.83701,  -0.72751
   0.44630,   0.80643,   0.51683,  -0.70012,   0.34637,   0.79357,   0.93383,  -0.81882,  -0.23929,  -0.81770
   0.10747,   0.51473,  -0.42514,  -0.55529,   0.26431,   0.50594,   0.08914,  -0.09459,  -0.03444,   0.17098
  -0.36332,   0.73585,   0.80161,  -0.64712,  -0.64227,   0.29313,  -0.50607,  -0.21642,   0.07636,  -0.02095
   0.33142,  -0.29490,   0.61330,  -0.14038,   0.14776,   0.76280,   0.03532,  -0.15882,   0.11145,  -0.37683
   0.63927,   0.32085,  -0.44430,   0.93750,   0.87743,  -0.88041,  -0.87700,  -0.50208,   0.93750,  -0.67500
  -0.27411,  -0.24378,  -0.34518,  -0.31964,   0.14693,   0.74996,  -0.57439,   0.69194,  -0.03682,   0.06776
  -0.61318,   0.76300,  -0.20500,   0.79403,  -0.59978,   0.40501,   0.93750,   0.64158,   0.46824,  -0.44883
   0.93750,   0.71403,  -0.32714,  -0.45162,  -0.62457,   0.25903,   0.93750,   0.93750,   0.93750,   0.05384
  -0.45788,  -0.32967,   0.80363,  -0.87066,   0.92756,   0.93455,  -0.42307,   0.63618,   0.48564,  -0.26089
   0.10033,   0.15512,   0.71868,  -0.45441,   0.87504,  -0.37863,  -0.43388,  -0.24952,   0.12602,   0.26148
   0.22776,  -0.93750,  -0.93750,   0.65735,  -0.80295,  -0.74055,   0.10246,   0.62723,  -0.09395,  -0.86541
   0.12539,   0.75219,   0.30732,   0.54675,   0.55824,  -0.68830,  -0.68439,  -0.32381,   0.68694,   0.08215
  -0.17694,  -0.28793,   0.60728,  -0.22073,  -0.02135,  -0.05860,   0.70320,   0.25368,   0.25857,  -0.43183
  -0.07276,  -0.17972,  -0.24858,   0.74629,   0.84188,   0.29901,  -0.30663,  -0.23819,  -0.29770,  -0.13889
  -0.03107,   0.80491,  -0.88209,  -0.93750,  -0.90528,  -0.68736,  -0.29282,  -0.08118,  -0.37799,   0.93750
   0.06609,  -0.02248,  -0.81659,  -0.92361,   0.93750,  -0.85494,   0.93750,  -0.24175,  -0.56280,  -0.04533
  -0.45105,   0.09185,  -0.38263,   0.86625,   0.20793,  -0.81709,  -0.08653,   0.08732,   0.07690,  -0.05985
   0.33042,   0.67339,   0.29534,   0.93750,  -0.32570,  -0.87526,  -0.78248,  -0.44066,  -0.18594,   0.15683
   0.22583,  -0.54137,  -0.36709,   0.86980,   0.81571,  -0.82605,   0.82248,   0.21918,   0.61657,  -0.70155
   0.93750,  -0.29838,   0.15701,  -0.30712,   0.44955,   0.76158,   0.12980,   0.38444,   0.04601,   0.04826
  -0.84945,   0.08699,  -0.85281,   0.89373,  -0.15068,  -0.93750,   0.93750,  -0.93750,  -0.83750,  -0.86764
  -0.62553,  -0.37336,  -0.69881,   0.65291,   0.80571,   0.60492,  -0.41070,   0.05663,  -0.24841,  -0.00260
  -0.74168,  -0.75942,  -0.79947,  -0.74034,   0.25089,   0.26168,  -0.34469,   0.00334,   0.40282,   0.81782
   0.74064,   0.57554,   0.48257,  -0.51976,  -0.71646,  -0.59546,   0.93750,   0.49192,   0.89254,   0.49513
  -0.74644,   0.85864,  -0.55677,   0.14585,  -0.79922,   0.86132,  -0.93750,  -0.59093,   0.84753,  -0.60077
  -0.84473,  -0.26839,  -0.84528,  -0.79262,   0.93750,  -0.32197,   0.26500,  -0.32665,  -0.63121,   0.54269
  -0.93750,  -0.73714,   0.00918,   0.10881,  -0.93182,   0.50131,  -0.41214,   0.80960,  -0.55589,  -0.54202
   0.72961,  -0.79657,  -0.61414,   0.61791,  -0.51281,   0.93750,  -0.93750,  -0.18851,  -0.93750,   0.15747
  -0.76494,   0.93031,   0.24325,  -0.56400,   0.31102,  -0.17890,   0.40453,  -0.80019,  -0.49230,   0.81504
   0.90109,  -0.13035,  -0.81781,   0.30424,  -0.87526,  -0.68786,   0.79204,  -0.73752,   0.93750,   0.03997
   0.13492,   0.35826,   0.58415,  -0.45146,  -0.81836,   0.93750,  -0.26024,  -0.81827,  -0.30782,   0.14835
  -0.56485,   0.45817,  -0.72316,   0.04509,  -0.74080,  -0.51232,   0.04086,   0.93748,  -0.40257,   0.76559
   0.12181,   0.22442,  -0.20952,  -0.65856,  -0.14868,   0.70651,  -0.39003,  -0.51250,   0.14462,   0.11420
   0.16944,  -0.80429,  -0.36888,  -0.20746,   0.93750,  -0.93750,  -0.73048,   0.88121,   0.87330,   0.93750
  -0.15617,   0.45780,  -0.32616,  -0.36520,   0.93657,   0.34225,  -0.03388,  -0.43688,   0.35976,  -0.43449
   0.54692,  -0.76132,   0.47025,  -0.43487,  -0.63199,   0.45205,   0.18158,   0.27231,  -0.63271,   0.44611
   0.19054,   0.02517,   0.37274,  -0.87204,  -0.24863,   0.87216,   0.20972,   0.24001,   0.08866,   0.40460
   0.93750,   0.84406,   0.93750,   0.93750,  -0.93750,   0.87300,   0.57638,  -0.64661,   0.32888,  -0.74724
  -0.80971,   0.93750,   0.83427,  -0.60939,  -0.60587,   0.72596,   0.66691,  -0.34643,  -0.32011,  -0.93750
  -0.93750,  -0.81518,   0.00994,  -0.37056,   0.46853,   0.93144,   0.49830,   0.30895,  -0.80786,  -0.27634
  -0.49725,  -0.18678,  -0.75309,  -0.91527,   0.93750,  -0.60153,  -0.85611,   0.93750,  -0.52400,   0.20359
   0.86469,  -0.11560,  -0.33554,   0.19390,   0.05685,   0.34394,  -0.41463,   0.36864,   0.04677,  -0.45367
  -0.13427,   0.82841,   0.08803,  -0.02821,  -0.12231,   0.08121,   0.11009,   0.29005,   0.06361,  -0.40030
  -0.19462,  -0.10444,   0.26247,  -0.83770,  -0.06302,   0.87620,   0.72415,  -0.14413,  -0.08324,   0.04182
  -0.23736,   0.67562,   0.47438,   0.15291,  -0.05669,   0.65840,   0.38046,  -0.42623,   0.08831,   0.16812
   0.63964,   0.66208,   0.93750,  -0.40650,  -0.64584,  -0.15301,   0.87135,  -0.80999,  -0.42134,  -0.69664
   0.58978,   0.90456,  -0.88614,  -0.87671,   0.10996,   0.88047,  -0.93750,   0.32789,   0.59649,  -0.87045
  -0.14776,  -0.67417,   0.88259,  -0.68021,   0.93750,  -0.68172,  -0.65320,   0.28996,  -0.33945,   0.82283
   0.08340,  -0.01206,  -0.09746,  -0.44088,  -0.07973,   0.62898,  -0.47088,  -0.01096,  -0.07736,   0.35825
   0.26327,   0.75225,   0.51077,  -0.34882,   0.86949,  -0.19454,  -0.58929,  -0.28016,  -0.75098,   0.21296
  -0.37359,  -0.93750,   0.75353,  -0.87362,  -0.79803,   0.36659,  -0.80114,  -0.62168,  -0.91506,   0.40274
   0.93750,  -0.93750,   0.01968,  -0.76724,  -0.88221,  -0.63048,  -0.14034,  -0.34779,  -0.93750,   0.61616
   0.74716,  -0.93750,   0.86845,   0.93750,   0.93750,  -0.93750,  -0.60443,   0.87446,   0.86423,   0.93750
  -0.47205,   0.52469,   0.88095,  -0.07125,   0.43421,   0.85824,  -0.74269,  -0.62351,   0.15782,  -0.55808
   0.57300,   0.48037,   0.32623,  -0.02895,   0.15597,   0.26559,   0.10171,   0.42451,  -0.81933,  -0.42617
   0.93750,   0.23751,  -0.29255,  -0.88363,  -0.65904,  -0.59300,   0.93750,  -0.31027,  -0.05521,   0.68532
   0.24969,  -0.50403,  -0.43855,  -0.79902,  -0.87967,   0.08354,  -0.59739,   0.93750,  -0.93750,  -0.76495
   0.93523,  -0.69032,   0.82752,   0.33901,   0.93750,   0.78061,  -0.87219,  -0.68463,   0.39930,   0.09842
   0.36597,  -0.03242,   0.87167,   0.93750,   0.82238,  -0.68318,   0.37297,  -0.00340,  -0.75519,  -0.35751
  -0.58524,   0.61642,   0.93180,  -0.41492,  -0.81153,   0.80563,   0.55945,   0.61579,  -0.17601,  -0.36053
  -0.35913,   0.93750,  -0.11985,  -0.21645,  -0.43269,   0.84939,   0.93750,   0.14950,   0.32077,   0.20095
   0.42719,   0.88179,  -0.38678,   0.61673,   0.87951,  -0.65631,  -0.86874,  -0.70908,   0.40597,   0.89129
   0.19371,  -0.07313,   0.66785,  -0.92052,  -0.12551,   0.75694,   0.12501,   0.33310,   0.22661,  -0.07035
   0.18820,   0.03569,  -0.30841,  -0.88865,   0.33872,   0.93750,  -0.64592,  -0.93750,   0.16546,   0.38701
   0.44093,   0.34469,   0.89058,  -0.28198,  -0.93750,   0.01793,   0.02822,  -0.26890,  -0.19411,  -0.87374
   0.62755,  -0.74524,   0.51188,   0.31202,   0.85948,  -0.75764,  -0.70488,  -0.63450,  -0.20763,   0.17428
  -0.93739,   0.26168,  -0.42140,  -0.44043,  -0.47110,  -0.65168,   0.93750,   0.01162,  -0.64821,   0.35663
   0.93750,  -0.07692,  -0.63439,  -0.93750,  -0.28344,  -0.93112,   0.01017,   0.93750,  -0.72968,   0.18075
   0.93750,   0.81716,   0.93750,  -0.93750,  -0.93750,   0.70672,   0.93750,  -0.07685,  -0.08305,   0.62048
  -0.44057,   0.86746,   0.19364,   0.86575,  -0.60483,  -0.35736,   0.65433,  -0.62580,  -0.49727,  -0.28417
   0.64924,  -0.32783,  -0.74264,  -0.77530,  -0.73786,   0.08544,   0.24482,   0.44303,   0.28597,   0.37446
  -0.00512,   0.10470,   0.29741,  -0.41989,  -0.61108,   0.85450,  -0.62193,   0.26201,   0.21032,   0.27817
   0.76526,  -0.72228,  -0.45792,   0.58852,   0.69095,  -0.70156,  -0.38721,   0.81365,   0.44758,   0.87705
   0.86347,  -0.60255,  -0.12749,  -0.34696,   0.20053,  -0.39373,   0.93750,   0.72310,   0.46083,  -0.31171
   0.32050,   0.93750,   0.12230,  -0.88129,   0.88197,  -0.18824,  -0.80323,   0.93750,   0.35959,   0.62396
   0.41050,   0.93750,  -0.26380,  -0.19805,  -0.53307,  -0.33022,   0.13531,  -0.64459,   0.12034,  -0.80438
  -0.11218,   0.09912,   0.10175,  -0.69733,   0.34492,   0.93750,  -0.49707,   0.19029,  -0.32666,  -0.02178
   0.93750,   0.27740,  -0.91668,  -0.67176,  -0.21580,  -0.10091,  -0.59725,  -0.81058,   0.93750,   0.93313
  -0.79295,  -0.61802,   0.14522,   0.05156,   0.86806,   0.92097,   0.68448,   0.87261,   0.34091,   0.70578
   0.70837,   0.25130,  -0.29313,  -0.50632,  -0.43402,  -0.28656,   0.09153,  -0.04451,   0.18080,  -0.34385
   0.43267,   0.73284,   0.59480,  -0.24864,   0.45058,   0.51340,   0.69068,  -0.82184,   0.88160,  -0.66657
   0.81229,   0.61448,   0.33874,  -0.64954,   0.01591,  -0.93750,  -0.43086,   0.06139,  -0.93750,  -0.49582
  -0.14459,  -0.08652,   0.04278,   0.87852,  -0.57512,  -0.72556,  -0.64678,  -0.88962,   0.14710,  -0.05291
  -0.22162,  -0.35995,   0.33314,  -0.56226,  -0.07457,   0.52071,   0.14166,   0.00927,  -0.10457,  -0.08790
  -0.93534,   0.86797,   0.51472,  -0.80231,  -0.17287,  -0.87114,   0.68175,  -0.87842,   0.28864,  -0.89319
   0.93750,   0.45195,  -0.63821,   0.45525,  -0.04306,  -0.91554,  -0.76118,   0.25724,   0.14110,   0.83522
   0.55854,   0.14026,  -0.63376,   0.76260,  -0.62700,  -0.76275,   0.18863,   0.68464,   0.03875,  -0.00314
   0.26376,  -0.00748,  -0.22647,   0.55821,  -0.73586,   0.49710,  -0.35354,  -0.30329,   0.08540,  -0.23491
   0.79986,  -0.68967,  -0.66989,  -0.29082,   0.06319,  -0.66614,   0.81078,  -0.93750,   0.69469,   0.33487
  -0.58914,  -0.22443,   0.09939,  -0.76843,   0.25035,   0.93750,   0.93750,   0.79718,  -0.89177,  -0.50057
   0.35447,  -0.06981,   0.46773,  -0.89048,   0.43826,   0.93750,  -0.01502,  -0.15703,   0.21680,  -0.08102
   0.28459,   0.67625,   0.00109,  -0.63175,   0.46578,   0.18272,  -0.00386,   0.68196,  -0.20166,  -0.76593
  -0.06390,  -0.06057,   0.05841,   0.87558,  -0.36750,  -0.17858,   0.31104,   0.10889,   0.04231,  -0.17130
   0.86418,  -0.62411,  -0.50011,  -0.00276,   0.70228,   0.05269,   0.21033,   0.04650,  -0.47696,  -0.36197
  -0.53735,   0.22769,   0.93750,  -0.62972,   0.58297,   0.87266,  -0.40137,  -0.05697,   0.34558,   0.23987
  -0.79447,  -0.65717,  -0.79368,  -0.45073,  -0.77331,   0.18947,   0.16914,   0.36082,   0.93750,   0.64848
  -0.00955,   0.22301,   0.02807,  -0.44740,  -0.10820,   0.73133,   0.50487,  -0.77824,   0.06159,   0.12696
  -0.30592,   0.93750,  -0.30344,  -0.68013,  -0.37350,   0.31330,   0.27418,   0.12103,  -0.56180,  -0.93750
  -0.87024,  -0.08283,  -0.57766,  -0.05098,   0.40077,  -0.32538,  -0.15900,  -0.29525,   0.93750,   0.69941
  -0.83747,  -0.79813,  -0.73678,  -0.61998,   0.40578,  -0.44936,   0.47643,  -0.22725,   0.93750,  -0.32270
  -0.80237,  -0.29169,  -0.68268,  -0.35405,   0.93750,  -0.47438,   0.73936,   0.54151,  -0.93750,   0.74278
  -0.12049,  -0.12381,  -0.43306,  -0.40994,   0.15634,   0.70641,  -0.02559,  -0.37295,   0.09245,  -0.30192
   0.30667,   0.10830,   0.46710,  -0.25155,   0.23310,   0.69858,   0.44276,  -0.47466,   0.10449,  -0.20884
  -0.28291,   0.07630,  -0.10681,  -0.49636,  -0.00683,   0.80187,   0.16282,   0.23450,   0.03910,  -0.00789
   0.72530,  -0.14521,   0.00916,   0.93750,   0.93750,  -0.81530,  -0.74746,   0.82528,  -0.93750,   0.08785
  -0.53882,   0.27659,   0.75663,  -0.13291,   0.86531,   0.36474,   0.22188,  -0.48484,  -0.54983,  -0.69242
   0.75867,   0.00065,  -0.42288,   0.87607,  -0.93750,   0.35863,  -0.51999,  -0.12900,   0.19067,   0.60906
  -0.16230,   0.38028,   0.25413,   0.61539,   0.17347,  -0.93750,  -0.93280,  -0.61449,  -0.46860,  -0.68743
   0.71058,   0.16266,   0.93750,  -0.93750,   0.93750,   0.43097,   0.93400,  -0.42436,   0.18037,  -0.01565
  -0.47466,   0.10457,   0.86806,  -0.26469,   0.87007,  -0.81779,  -0.87177,  -0.71649,   0.68423,   0.75610
   0.07784,   0.54927,   0.62635,  -0.54049,  -0.43779,   0.73794,   0.13937,  -0.11482,  -0.30202,  -0.46613
  -0.21564,  -0.49907,   0.82649,  -0.63541,   0.08034,  -0.52222,  -0.48781,   0.93750,  -0.93750,   0.63898
   0.85134,   0.02507,   0.63406,   0.53760,  -0.86943,  -0.68085,   0.58243,  -0.45535,   0.17673,   0.24454
  -0.36265,  -0.02897,  -0.81745,   0.93293,   0.67267,  -0.93284,   0.54752,  -0.67003,   0.21464,  -0.58253
   0.10693,   0.18877,  -0.22112,  -0.59685,  -0.37380,   0.75076,   0.56579,  -0.52069,   0.26465,  -0.00212
   0.34623,  -0.49540,   0.01955,  -0.80240,   0.93750,  -0.28051,   0.80794,  -0.75378,  -0.05703,  -0.71576
  -0.22177,   0.53567,   0.75291,   0.67309,  -0.58909,   0.79943,   0.66475,  -0.63858,   0.12764,   0.29251
  -0.15024,  -0.31980,  -0.28798,  -0.66975,  -0.81714,   0.87493,  -0.08310,   0.87407,  -0.22350,   0.14002
  -0.00349,   0.11730,   0.42598,  -0.55703,  -0.27598,   0.51402,   0.82584,   0.17956,   0.04464,   0.81576
  -0.15304,   0.39587,   0.81310,  -0.50045,   0.04359,   0.42358,  -0.21287,  -0.18582,  -0.18639,   0.85512
  -0.87688,  -0.86816,  -0.93750,   0.86205,   0.93750,  -0.10702,  -0.56031,  -0.93750,   0.29898,   0.91269
  -0.11798,  -0.02139,   0.02453,  -0.68597,  -0.36415,   0.81522,  -0.18420,  -0.23699,  -0.26747,  -0.16879
   0.82779,   0.70965,   0.93750,  -0.83350,   0.86082,   0.43409,   0.68619,  -0.08348,  -0.92696,  -0.93750
   0.93750,   0.50819,   0.67716,  -0.80818,   0.87798,   0.46716,   0.75540,   0.24954,   0.74088,   0.92897
  -0.73933,  -0.82345,   0.62020,  -0.10730,  -0.00490,   0.19426,   0.01436,   0.66869,   0.81218,  -0.27818
  -0.81643,  -0.46046,  -0.77140,   0.92368,   0.93750,  -0.42041,  -0.75891,   0.87326,   0.18196,  -0.25923
   0.48563,   0.93750,  -0.60501,   0.70266,   0.35977,  -0.41657,  -0.72647,  -0.18567,  -0.08828,  -0.93750
   0.23011,  -0.60209,   0.93750,   0.47179,  -0.73344,   0.34638,  -0.28631,  -0.75277,   0.38266,  -0.27378
  -0.63751,  -0.68692,  -0.48425,   0.13572,   0.93750,  -0.01841,  -0.22515,  -0.81834,   0.83653,  -0.20166
  -0.34470,   0.79991,  -0.63473,  -0.16142,   0.86622,  -0.87198,  -0.75329,  -0.74825,  -0.57563,   0.89010
  -0.88061,   0.69732,  -0.87412,   0.80626,   0.93172,   0.84661,  -0.93750,   0.23833,  -0.46023,  -0.86334
   0.15123,   0.93750,   0.11501,  -0.01364,   0.20313,  -0.62980,  -0.49991,  -0.65254,  -0.68038,  -0.92310
   0.74298,  -0.62355,   0.92340,   0.49468,  -0.83009,   0.15119,  -0.75152,   0.12189,  -0.88295,  -0.93750
  -0.93330,  -0.87780,  -0.51429,   0.34390,  -0.50435,  -0.46649,  -0.13803,   0.87846,   0.75691,  -0.32260
  -0.64821,   0.75399,   0.06210,  -0.69729,   0.14610,   0.56934,   0.86864,  -0.53609,   0.93750,  -0.91843
  -0.44400,  -0.23372,  -0.57917,   0.73901,  -0.61531,  -0.38301,  -0.45615,   0.43267,  -0.14707,  -0.48024
  -0.08855,  -0.04510,   0.55168,  -0.43174,  -0.56129,   0.36348,   0.63544,   0.16896,   0.25563,  -0.14512
  -0.79690,  -0.52031,   0.93750,  -0.86924,  -0.87364,   0.39517,  -0.51179,   0.93750,  -0.64587,   0.93750
  -0.55801,   0.36243,   0.81040,   0.34336,  -0.07771,   0.23235,   0.81158,   0.50548,  -0.44312,   0.75570
   0.93750,  -0.05707,   0.78887,  -0.92467,   0.79854,   0.93750,   0.00134,  -0.87493,   0.81123,   0.60566
   0.13857,   0.69589,   0.00022,   0.74769,  -0.24647,   0.14050,   0.69139,  -0.10529,   0.89813,  -0.54266
  -0.21189,   0.01977,  -0.75073,  -0.57235,  -0.93750,   0.08104,   0.75999,  -0.58601,  -0.11723,  -0.74523
  -0.15486,   0.40093,  -0.69380,   0.02667,   0.93750,  -0.89464,  -0.04037,  -0.72664,   0.48043,  -0.53838
  -0.34041,  -0.07217,  -0.69393,   0.93750,  -0.40051,  -0.80149,   0.70857,  -0.06933,  -0.15195,  -0.27484
  -0.81791,  -0.31804,   0.16214,  -0.79809,   0.81190,  -0.86914,   0.03448,  -0.87366,  -0.05820,   0.79610
   0.65573,  -0.37275,   0.13733,  -0.27750,  -0.34697,   0.21489,  -0.74632,   0.33579,  -0.19915,   0.56495
  -0.22384,   0.01693,   0.24922,   0.06398,   0.33229,   0.46541,  -0.26208,  -0.13269,   0.55211,   0.32149
   0.14697,  -0.19043,  -0.74392,  -0.47583,  -0.63754,  -0.30319,   0.93750,   0.46649,   0.40484,  -0.19472
  -0.82030,  -0.93750,   0.30693,   0.47535,  -0.86317,   0.79663,  -0.87433,  -0.81204,  -0.65815,   0.43205
   0.68466,  -0.41906,  -0.88089,  -0.53058,   0.57821,   0.25399,  -0.76011,   0.87843,   0.72727,   0.86326
  -0.62295,  -0.31153,  -0.54862,  -0.88775,  -0.78434,   0.93146,  -0.17831,   0.93419,  -0.02402,   0.81220
   0.32348,  -0.01390,   0.93458,   0.26494,  -0.16623,  -0.80482,   0.24065,   0.87827,   0.26086,   0.03554
   0.01639,  -0.03862,   0.56847,   0.70354,  -0.48027,  -0.44177,  -0.80399,   0.66420,  -0.17006,   0.93612
   0.48830,  -0.14798,   0.42405,  -0.06453,  -0.74461,   0.45092,   0.06785,   0.02026,   0.27080,   0.17960
   0.93750,  -0.25419,  -0.27226,   0.17825,  -0.50636,   0.22134,  -0.73924,   0.20097,  -0.16078,  -0.14303
   0.14531,   0.93750,  -0.57039,   0.44359,  -0.82357,   0.93750,   0.91089,  -0.65166,   0.31570,   0.78472
  -0.59090,   0.93750,  -0.26215,  -0.79943,  -0.20360,  -0.15750,   0.23919,  -0.71036,  -0.92514,   0.93750
  -0.19375,   0.21290,  -0.66748,   0.80288,   0.20826,  -0.23502,   0.87361,   0.92779,   0.46943,  -0.64948
  -0.75351,  -0.73534,  -0.26160,  -0.15015,  -0.90883,   0.93750,   0.93750,   0.93750,  -0.92949,  -0.93750
  -0.51984,  -0.05317,  -0.76834,   0.93750,  -0.14207,  -0.73855,  -0.87757,   0.17857,   0.74498,   0.00774
   0.36716,  -0.93100,   0.93750,  -0.33627,   0.81366,  -0.86490,   0.93750,  -0.88456,  -0.43011,   0.93750
   0.35603,   0.40888,  -0.82988,  -0.26515,   0.87742,   0.57047,  -0.36710,   0.62904,  -0.06386,   0.03687
   0.04608,  -0.69424,  -0.17316,   0.54611,   0.74625,  -0.01398,   0.66994,   0.06508,  -0.32639,   0.50451
   0.93750,   0.21877,  -0.79139,  -0.87277,   0.93750,  -0.93750,   0.93750,   0.18270,  -0.37066,  -0.93750
   0.93385,  -0.74256,  -0.07017,   0.36479,  -0.06182,   0.63239,  -0.04901,  -0.24989,  -0.21420,  -0.80770
  -0.51236,   0.36764,  -0.69248,  -0.92310,   0.43747,   0.61262,   0.93750,  -0.21696,  -0.28919,  -0.05502
   0.21284,  -0.75935,  -0.38152,  -0.66374,   0.01156,   0.49118,  -0.51768,  -0.76551,  -0.46668,   0.48232
  -0.43571,  -0.62306,  -0.03084,   0.32031,   0.52575,   0.74866,   0.02302,  -0.47284,  -0.38648,   0.93750
  -0.55766,  -0.39023,  -0.80959,  -0.53770,   0.87249,  -0.47454,   0.39848,   0.83055,   0.74318,   0.24160
   0.31881,  -0.87569,  -0.93750,   0.93750,   0.31197,   0.87366,  -0.93750,  -0.37655,  -0.62535,   0.55812
   0.56147,  -0.93750,   0.93584,  -0.93750,   0.04784,  -0.93750,   0.74958,   0.82829,   0.85802,  -0.93750
   0.12762,   0.15146,   0.92848,  -0.28595,   0.80982,  -0.45435,   0.23400,  -0.87759,   0.03827,  -0.08674
   0.36996,  -0.71643,  -0.58520,   0.73467,  -0.67842,   0.25273,  -0.16375,  -0.74542,  -0.09907,   0.80417
   0.66769,   0.39076,  -0.34752,  -0.10341,  -0.22850,  -0.31019,  -0.45883,   0.92691,   0.35517,  -0.22546
  -0.63371,  -0.11017,  -0.84469,  -0.84205,   0.62391,  -0.30459,   0.81811,   0.82317,   0.39573,   0.41964
   0.52983,  -0.08635,  -0.81066,   0.06053,  -0.56281,   0.93750,   0.93750,   0.02791,  -0.27530,   0.80438
  -0.04647,   0.12818,   0.75404,   0.93669,  -0.45990,  -0.93334,   0.92343,   0.48467,   0.25795,  -0.45519
  -0.81962,   0.58394,   0.67804,  -0.61685,  -0.92781,  -0.42906,  -0.28647,  -0.26818,   0.29444,  -0.43018
   0.35142,  -0.03883,  -0.06149,   0.29346,   0.31019,   0.48415,   0.46723,  -0.02072,   0.19142,   0.12919
  -0.74527,   0.43953,  -0.58311,   0.04676,   0.46860,   0.02922,  -0.00197,   0.58737,   0.93750,  -0.22411
   0.44937,  -0.61300,  -0.33544,  -0.85247,  -0.02103,   0.77442,   0.93750,  -0.31063,  -0.81272,  -0.75556
  -0.08991,   0.46956,   0.15852,   0.93750,  -0.55472,  -0.65280,  -0.81797,  -0.14138,  -0.79903,   0.81789
  -0.12535,   0.90936,  -0.93750,  -0.92539,   0.52872,   0.61190,   0.93750,  -0.93750,  -0.68698,   0.66659
   0.09140,  -0.80749,  -0.29510,  -0.33310,   0.93750,   0.93750,   0.08963,  -0.52621,   0.75671,   0.63078
  -0.74907,  -0.01366,   0.15360,  -0.47189,  -0.11692,   0.34539,  -0.55618,  -0.79204,   0.93750,  -0.87789
   0.11748,   0.93750,   0.40117,   0.67227,   0.25849,   0.42737,  -0.67501,  -0.86171,   0.17772,  -0.93740
   0.47048,  -0.82346,  -0.58963,  -0.86496,   0.72498,   0.86951,  -0.59152,   0.02096,  -0.33292,   0.93750
   0.84726,   0.64251,  -0.65443,   0.75420,  -0.63586,   0.33072,  -0.70660,   0.02613,  -0.02482,   0.06821
   0.93750,   0.22331,   0.93750,  -0.22069,   0.19814,  -0.44721,   0.47109,  -0.21669,  -0.78552,  -0.24068
   0.62641,  -0.71418,   0.76741,   0.02376,   0.23590,   0.15664,  -0.27500,   0.17511,   0.88815,  -0.69208
  -0.81225,   0.87571,   0.93750,   0.93750,   0.52384,   0.16568,  -0.76224,  -0.60169,   0.93750,  -0.30576
   0.27916,   0.19803,   0.93750,  -0.43880,   0.35822,  -0.23342,  -0.73776,   0.41133,  -0.13713,  -0.09227
  -0.49422,  -0.07431,   0.59620,  -0.50027,   0.93750,  -0.59888,  -0.38462,  -0.31723,  -0.31595,  -0.35356
  -0.84785,   0.88421,  -0.93750,   0.79846,   0.93750,  -0.93750,  -0.66856,   0.48179,  -0.91562,   0.93750
  -0.54705,  -0.14924,   0.93750,   0.87093,  -0.60536,  -0.01859,  -0.92448,  -0.10104,  -0.48408,  -0.01716
  -0.01036,  -0.14423,  -0.66240,  -0.74246,   0.09541,   0.82449,   0.35394,  -0.16147,   0.24636,   0.75698
  -0.81078,   0.48300,  -0.82058,  -0.04768,   0.93750,   0.77800,  -0.93750,  -0.93750,  -0.81901,   0.93750
   0.24924,  -0.41469,   0.93750,  -0.24572,  -0.26955,   0.23060,   0.87953,  -0.84677,  -0.81044,  -0.16218
   0.80672,  -0.81017,   0.77826,  -0.45643,   0.59604,   0.03327,  -0.08511,   0.57708,  -0.80668,   0.79389
  -0.91943,   0.52740,   0.93750,  -0.43019,   0.93750,  -0.50390,  -0.72656,  -0.04827,   0.28387,   0.27453
   0.48512,   0.38508,   0.26531,  -0.67985,   0.93750,  -0.81413,  -0.04196,  -0.55310,   0.48311,   0.00483
  -0.93750,  -0.69129,  -0.82832,  -0.75044,  -0.51585,   0.87990,   0.20863,   0.08539,   0.43457,   0.90798
  -0.74867,   0.18597,   0.00464,   0.45333,  -0.80813,   0.28508,   0.47843,   0.93750,  -0.42701,   0.08778
   0.74869,  -0.10150,  -0.93750,  -0.16710,  -0.93750,   0.75968,   0.36821,   0.81619,  -0.47069,   0.69431
  -0.88474,  -0.74139,   0.06984,   0.00338,   0.63504,  -0.88250,  -0.61739,   0.67326,   0.04962,   0.43134
  -0.73323,  -0.01364,   0.17496,  -0.87338,   0.41143,  -0.47327,  -0.37480,  -0.53153,   0.08932,   0.82732
  -0.26176,   0.26930,   0.74623,   0.89040,  -0.84101,   0.67553,  -0.78744,   0.33678,   0.10764,   0.22943
  -0.86286,   0.61213,   0.93139,  -0.93255,   0.93750,  -0.16297,  -0.85231,   0.07545,  -0.47171,  -0.14352
   0.37279,   0.46779,   0.89625,   0.93750,  -0.74356,  -0.37164,  -0.80762,   0.06287,  -0.19779,  -0.09213
  -0.29410,  -0.87036,  -0.17270,   0.13254,  -0.33250,   0.62806,  -0.93750,   0.85294,   0.63784,  -0.13031
   0.33158,  -0.42893,   0.14731,  -0.75508,   0.18701,   0.55163,   0.32191,  -0.05278,  -0.09283,   0.93750
  -0.74360,   0.34554,  -0.93750,  -0.74288,  -0.93750,   0.93750,   0.29825,  -0.02754,   0.87627,  -0.37538
   0.51236,  -0.46255,   0.92792,   0.37940,   0.93750,  -0.61921,  -0.86874,  -0.22213,   0.45584,   0.49571
   0.92276,   0.07790,   0.09448,   0.93709,   0.93750,  -0.90768,  -0.83511,   0.52539,   0.22620,   0.20359
   0.68489,   0.81188,   0.58709,  -0.05849,   0.25534,   0.20778,   0.41980,  -0.07194,  -0.44410,   0.39310
   0.93750,   0.86587,  -0.79690,   0.68449,  -0.93139,   0.81090,  -0.32202,  -0.67786,  -0.82073,   0.56474
