   0.08405,  -0.42371,   0.41191,   0.42054,   0.17111,   0.09638,   0.68238,  -0.48109,   0.14539,   0.36502
  -0.02013,   0.93750,  -0.93750,   0.42347,   0.30452,   0.29604,   0.48940,   0.93750,   0.87856,  -0.73343
   0.93750,   0.93750,  -0.08653,   0.36993,  -0.88633,  -0.30893,   0.93750,  -0.01423,   0.93750,   0.93750
  -0.93750,  -0.00682,  -0.35550,   0.32846,  -0.76958,  -0.18591,   0.11188,  -0.21731,  -0.30284,  -0.74686
   0.70973,   0.64562,  -0.67882,  -0.93750,   0.93530,  -0.81122,   0.89041,   0.93750,   0.87757,  -0.72917
  -0.84758,  -0.16155,   0.44806,   0.09217,   0.93750,   0.93750,  -0.93750,  -0.75575,  -0.73625,   0.47677
   0.19650,   0.48694,  -0.80252,   0.27460,   0.07948,  -0.76557,  -0.31892,   0.85753,   0.26470,  -0.93750
   0.01874,   0.17547,   0.08175,   0.43483,   0.06496,   0.63512,  -0.68780,   0.56880,   0.03515,   0.20744
  -0.93750,  -0.87398,   0.93750,  -0.93750,   0.93750,  -0.89173,  -0.63829,  -0.93750,  -0.93750,   0.65654
  -0.40329,   0.93750,  -0.78416,   0.55705,   0.93750,  -0.88772,  -0.27664,  -0.93750,  -0.93750,  -0.80322
  -0.64009,  -0.81350,   0.93750,   0.93750,  -0.62952,   0.93750,  -0.63496,  -0.45185,  -0.08397,  -0.48552
   0.53365,   0.67616,  -0.87496,   0.81815,   0.65300,  -0.11291,  -0.93750,  -0.23563,  -0.78230,   0.54778
  -0.43557,   0.57613,  -0.16450,   0.23069,   0.30610,  -0.35191,  -0.45381,   0.43275,  -0.74809,   0.38284
   0.81355,   0.87762,  -0.55504,  -0.39707,   0.68027,  -0.04304,  -0.70549,  -0.03986,   0.56023,  -0.43065
   0.93750,   0.93750,   0.93750,   0.13484,   0.93750,   0.39454,  -0.74876,  -0.90441,   0.93750,   0.93750
   0.08573,   0.16774,  -0.76463,  -0.93750,   0.93750,   0.91901,   0.93750,   0.93750,  -0.93750,  -0.07428
  -0.93750,  -0.19615,  -0.86763,   0.93750,  -0.87486,   0.87820,   0.69185,  -0.80693,   0.43548,  -0.30859
  -0.38974,   0.93750,  -0.54941,  -0.66094,  -0.93750,   0.35502,  -0.93750,  -0.79635,   0.23177,  -0.63057
   0.11071,   0.86580,   0.15353,   0.93750,  -0.12328,  -0.93750,  -0.69328,  -0.20211,  -0.25017,   0.86899
   0.51410,   0.48861,  -0.67305,   0.17418,   0.78631,   0.34545,  -0.44535,   0.48104,  -0.43273,   0.17651
  -0.43142,  -0.73024,   0.73030,  -0.06941,   0.67370,   0.15066,  -0.29488,  -0.45788,   0.64578,   0.87290
  -0.27606,  -0.80528,  -0.43354,   0.51724,  -0.93750,   0.12895,  -0.15264,  -0.93750,   0.16944,  -0.74067
   0.61057,  -0.88022,   0.93750,  -0.63122,   0.93750,   0.89254,  -0.93750,  -0.76650,   0.86761,  -0.29068
  -0.85016,   0.89472,  -0.69877,  -0.00828,   0.22529,   0.00414,   0.93750,   0.68096,   0.50109,  -0.37566
  -0.66655,   0.59684,   0.55165,  -0.33735,   0.80645,   0.58393,  -0.38997,  -0.56168,  -0.02943,  -0.79179
  -0.93750,   0.66156,   0.46078,   0.64835,   0.40716,  -0.18284,  -0.87975,  -0.66561,  -0.09454,  -0.24395
  -0.82586,  -0.78991,  -0.39867,  -0.67124,   0.75963,  -0.10862,  -0.11877,   0.93750,   0.18852,  -0.93750
  -0.19748,   0.65280,  -0.72414,   0.64197,  -0.21228,  -0.21084,   0.72097,  -0.34482,   0.73719,  -0.69833
  -0.88389,  -0.13524,  -0.93750,   0.19466,  -0.81446,  -0.13202,  -0.77226,   0.93750,   0.16097,   0.18102
  -0.55097,   0.90306,  -0.64732,  -0.42969,   0.69791,  -0.37553,  -0.38392,  -0.61251,   0.31032,   0.29160
   0.93750,  -0.81030,   0.93750,  -0.77095,  -0.93750,  -0.41705,  -0.93750,   0.59822,  -0.24863,  -0.49169
  -0.10186,   0.10947,  -0.15907,   0.50230,   0.01865,   0.04246,   0.67455,  -0.33323,   0.42702,   0.30936
   0.93750,  -0.82605,  -0.13933,  -0.37978,   0.93750,   0.79268,   0.93750,  -0.29027,  -0.20908,  -0.26535
   0.60084,   0.41748,  -0.70006,   0.17628,   0.93750,   0.60694,  -0.87614,  -0.60287,  -0.69303,  -0.86472
   0.13115,  -0.29260,  -0.01405,  -0.16335,   0.93750,   0.09044,   0.93750,   0.93750,   0.93750,  -0.06747
  -0.65036,   0.29535,  -0.93750,  -0.01618,   0.13949,   0.93750,   0.93750,  -0.93750,  -0.27503,   0.93750
  -0.13790,   0.92933,   0.48331,  -0.36487,  -0.19108,   0.01945,   0.09442,  -0.59534,  -0.81307,   0.39350
  -0.00578,   0.87086,  -0.81164,  -0.93750,  -0.93750,  -0.93750,   0.71123,   0.70024,   0.93750,   0.77814
   0.04280,   0.87418,   0.73239,  -0.08048,   0.22508,  -0.26151,  -0.74020,  -0.21314,  -0.66254,  -0.20138
   0.86392,   0.39826,   0.93750,  -0.47557,   0.15762,  -0.89652,  -0.04294,  -0.25113,   0.93750,  -0.31535
   0.93750,  -0.59406,  -0.93750,  -0.51226,   0.19478,  -0.43398,   0.41558,   0.70099,   0.93750,  -0.38866
   0.01431,   0.26402,   0.80713,  -0.69865,   0.93750,  -0.93750,  -0.09180,  -0.57982,  -0.28308,   0.53611
  -0.02740,  -0.29305,  -0.76282,   0.10343,   0.11382,  -0.26118,   0.71008,   0.11102,  -0.07838,   0.55645
   0.93750,   0.82951,   0.67799,   0.27623,   0.93750,  -0.93750,   0.93750,   0.93750,   0.33262,   0.93750
  -0.24748,   0.00482,  -0.82555,  -0.71916,   0.60013,   0.93750,  -0.86546,   0.85936,   0.69278,  -0.28219
  -0.64773,   0.26444,   0.67522,  -0.42735,   0.81738,  -0.00041,   0.03659,  -0.40649,   0.00358,   0.69194
   0.35054,   0.93255,  -0.92077,  -0.50966,   0.93750,   0.93750,  -0.02117,  -0.49186,  -0.07591,   0.74461
  -0.72656,  -0.61592,   0.42669,   0.20985,   0.72686,   0.17203,   0.68461,  -0.54259,  -0.01015,  -0.51421
   0.27583,   0.73440,  -0.64617,  -0.88732,   0.93750,  -0.52145,   0.75079,   0.88089,  -0.89711,   0.03375
   0.00327,   0.93750,   0.20752,  -0.36568,   0.26712,   0.01595,  -0.74107,   0.06415,  -0.87029,  -0.80799
  -0.93750,  -0.87253,  -0.16763,  -0.26703,   0.61241,  -0.54838,   0.44358,  -0.56260,   0.30921,   0.53114
   0.17056,   0.63473,  -0.93750,  -0.34445,  -0.33375,  -0.42690,  -0.34125,   0.76384,   0.17693,   0.93750
   0.69641,   0.93750,  -0.74344,   0.19737,  -0.74865,   0.77480,   0.63524,   0.18750,  -0.02067,   0.93750
  -0.62195,   0.93750,  -0.93750,   0.52012,  -0.05597,  -0.50795,   0.00041,  -0.87345,  -0.04647,  -0.61350
  -0.68138,   0.45903,  -0.74838,  -0.68232,   0.06688,   0.36094,  -0.06663,   0.25202,  -0.22953,  -0.41695
  -0.29566,   0.93750,  -0.00579,  -0.69467,   0.86655,   0.93750,  -0.87352,   0.93750,   0.15479,  -0.01237
  -0.77564,   0.87566,   0.00079,  -0.49709,  -0.13639,   0.74081,   0.44984,  -0.87388,   0.66862,  -0.16050
  -0.44035,  -0.88109,  -0.92093,  -0.67085,   0.16848,  -0.93750,   0.93750,  -0.93750,   0.93750,  -0.87766
  -0.93750,  -0.05943,   0.09494,  -0.63534,  -0.93750,  -0.43527,  -0.93750,  -0.93750,   0.33034,  -0.93750
  -0.57508,  -0.92242,  -0.93750,  -0.73574,  -0.73260,   0.93750,  -0.63318,  -0.87439,  -0.93750,  -0.09625
  -0.93750,   0.93750,   0.93750,   0.81080,   0.60670,   0.93750,   0.93750,   0.93750,  -0.93750,   0.17577
  -0.81343,   0.16862,  -0.93750,   0.93750,   0.93750,  -0.93750,   0.93750,  -0.55119,   0.26138,  -0.35224
  -0.52523,  -0.01798,  -0.06629,  -0.86751,   0.82613,  -0.39443,   0.66972,   0.61441,  -0.55759,  -0.70928
   0.80683,  -0.62341,   0.66735,  -0.76252,   0.84842,  -0.18944,   0.35620,  -0.82142,   0.25080,  -0.85510
  -0.86478,  -0.09695,   0.93750,  -0.68946,  -0.93750,  -0.87165,  -0.34479,   0.93750,  -0.24152,  -0.02780
  -0.54684,  -0.67356,  -0.93750,  -0.82008,  -0.16375,   0.93750,  -0.46201,   0.73724,   0.93750,   0.15682
  -0.39736,  -0.04026,   0.38984,  -0.13725,   0.19618,  -0.65667,  -0.45521,   0.61526,   0.52773,  -0.08957
   0.83336,   0.32354,   0.93750,  -0.93750,  -0.20368,   0.73729,   0.54756,  -0.86441,   0.72143,   0.27132
  -0.17426,   0.93750,  -0.75403,  -0.41827,   0.26981,  -0.76235,   0.02056,   0.88717,  -0.93750,   0.27548
  -0.93750,  -0.12000,   0.93750,   0.26753,   0.56510,  -0.93750,  -0.67725,  -0.93750,  -0.68863,   0.17436
   0.13560,  -0.29997,   0.40210,  -0.09223,   0.56311,  -0.06899,   0.46854,  -0.33019,   0.27939,   0.13040
   0.93750,   0.65782,   0.92940,  -0.87846,   0.38892,  -0.07910,  -0.87794,  -0.25931,  -0.52886,   0.07309
   0.22626,  -0.93750,  -0.56307,  -0.43716,  -0.93750,  -0.83542,   0.33777,  -0.41369,  -0.73322,   0.93750
  -0.93750,  -0.86478,  -0.82095,   0.93750,  -0.79662,   0.62783,  -0.93750,   0.80698,   0.55334,  -0.93750
  -0.74690,   0.89378,   0.12968,   0.25366,  -0.28092,  -0.01212,   0.28673,  -0.68304,  -0.23257,   0.26387
  -0.35704,   0.93750,   0.03110,  -0.93750,  -0.93750,  -0.64672,   0.27606,   0.78869,   0.10893,  -0.81360
  -0.87860,   0.93750,  -0.65436,  -0.86530,  -0.93750,  -0.93750,   0.68940,   0.54195,   0.31745,   0.08164
  -0.83620,   0.93750,   0.72378,  -0.93750,   0.93750,   0.93750,  -0.24350,   0.93086,   0.08749,  -0.56668
  -0.27298,   0.28645,   0.62787,   0.81205,   0.60865,   0.13625,   0.53260,  -0.05473,  -0.40680,   0.51915
  -0.07470,   0.26664,  -0.36723,  -0.40456,  -0.10688,   0.93750,  -0.76178,  -0.19880,   0.51739,   0.73928
   0.01157,  -0.11427,  -0.65861,   0.01753,  -0.40415,  -0.14435,   0.47625,  -0.37383,   0.26492,   0.44592
   0.93750,  -0.69509,  -0.07478,  -0.80984,  -0.93750,  -0.93750,   0.93750,  -0.93750,  -0.75088,  -0.93750
   0.41552,   0.74443,  -0.75683,   0.13291,   0.93750,  -0.66225,  -0.80965,  -0.93750,   0.93081,  -0.87790
   0.14920,  -0.93750,   0.59654,  -0.93750,   0.87792,  -0.41878,   0.30230,  -0.93750,   0.93750,   0.14731
   0.11061,   0.80703,  -0.93750,  -0.30053,   0.57001,  -0.93750,   0.93750,  -0.93750,   0.13734,  -0.63803
   0.53615,  -0.93750,  -0.93750,   0.93750,   0.93750,   0.93750,  -0.75441,   0.89154,  -0.93750,  -0.93750
   0.40571,   0.74093,  -0.33036,  -0.60564,   0.10004,  -0.87727,   0.49002,  -0.24065,  -0.62286,  -0.30030
  -0.84970,   0.89884,   0.04340,  -0.93750,   0.93750,  -0.33553,  -0.00983,  -0.93750,   0.12632,  -0.03292
   0.42054,   0.65794,  -0.93750,   0.93750,  -0.33543,  -0.93750,  -0.93750,   0.93750,   0.93750,  -0.93750
   0.93750,  -0.09484,  -0.93750,   0.66367,  -0.53599,  -0.87014,   0.42964,  -0.93750,   0.20293,  -0.93750
  -0.93750,   0.93750,   0.93750,  -0.93750,   0.70395,  -0.93750,  -0.28794,   0.93750,  -0.50725,  -0.83636
   0.93750,   0.29996,   0.51344,   0.65656,  -0.93750,  -0.87771,   0.93750,   0.68387,   0.93750,  -0.00544
  -0.26841,   0.93750,  -0.62915,  -0.65860,  -0.87745,  -0.29556,  -0.81663,   0.72776,  -0.75352,  -0.11681
   0.14590,  -0.93750,  -0.14527,  -0.82492,   0.77218,  -0.88087,  -0.26726,  -0.81052,   0.71319,   0.81106
  -0.56137,   0.32469,  -0.23149,   0.47420,   0.93750,  -0.49138,  -0.08353,  -0.09041,   0.34221,   0.61860
   0.93750,   0.51724,  -0.38930,  -0.07085,   0.87464,  -0.10794,   0.01352,  -0.92616,  -0.87364,  -0.18976
  -0.93750,   0.27359,   0.93750,   0.29249,  -0.93750,   0.79572,  -0.47331,  -0.92157,  -0.93750,   0.30777
  -0.61353,  -0.62849,   0.22745,   0.71720,   0.67996,   0.05638,  -0.09166,  -0.38165,   0.44056,   0.53894
  -0.54189,   0.93750,   0.92228,  -0.87310,   0.57097,  -0.06035,  -0.82317,  -0.87042,  -0.03476,  -0.79653
  -0.87650,   0.33130,  -0.74992,   0.93750,  -0.87957,   0.93750,  -0.03630,  -0.67200,   0.87446,  -0.01997
  -0.64959,   0.16821,   0.25594,   0.03091,   0.45956,  -0.93750,  -0.87178,  -0.02377,  -0.75865,  -0.68044
  -0.93750,  -0.57765,   0.93750,   0.93750,  -0.82577,   0.66704,  -0.87049,   0.93750,  -0.09769,  -0.67413
  -0.74728,  -0.93750,   0.92330,  -0.93750,  -0.72559,   0.93750,  -0.93750,  -0.37705,   0.20420,   0.93750
  -0.61241,   0.76833,   0.75720,  -0.93750,  -0.93750,  -0.02688,   0.00486,  -0.05439,  -0.93750,  -0.57465
   0.87809,   0.25040,  -0.68358,  -0.56702,   0.93750,  -0.62695,   0.34271,  -0.54974,  -0.86418,   0.88109
   0.41271,   0.47945,  -0.93750,  -0.63164,   0.22339,   0.06383,   0.93750,  -0.53489,  -0.88563,   0.58413
   0.01158,  -0.33684,   0.12840,   0.33796,   0.93750,  -0.87312,   0.56378,  -0.93750,  -0.93750,   0.37165
   0.49288,   0.00242,   0.70452,  -0.86230,  -0.22440,  -0.05635,  -0.63184,   0.81385,  -0.00939,   0.40039
   0.93750,  -0.93750,   0.69751,  -0.47030,   0.87688,   0.13633,  -0.20452,   0.22057,  -0.93750,   0.21851
   0.92966,   0.08829,  -0.37368,   0.93750,   0.93750,   0.06248,  -0.81327,  -0.30480,   0.93750,  -0.87498
  -0.06136,  -0.16111,  -0.68888,  -0.81181,   0.73739,   0.04435,   0.93750,   0.87866,  -0.73010,   0.75502
   0.88412,  -0.93750,  -0.02936,  -0.45692,  -0.93750,  -0.93750,  -0.67555,  -0.73085,  -0.29856,   0.93750
  -0.80886,   0.93750,  -0.93750,   0.47627,   0.93750,  -0.93750,   0.34011,   0.93750,   0.68663,  -0.61503
   0.93750,  -0.08720,   0.38078,   0.81213,   0.04211,  -0.56296,   0.93750,  -0.70271,   0.41496,  -0.14421
   0.61152,   0.37140,   0.29715,  -0.36856,  -0.16815,  -0.75159,  -0.09703,  -0.42459,   0.68494,   0.81671
  -0.41209,   0.54522,  -0.59352,   0.86501,   0.58751,   0.50967,   0.46757,  -0.15729,   0.40833,  -0.65715
   0.85095,   0.67852,   0.33464,   0.58340,   0.93507,  -0.60857,  -0.13732,  -0.92572,  -0.31547,  -0.43435
   0.80501,  -0.44625,  -0.85669,   0.13693,   0.03909,   0.93427,   0.81039,   0.34356,   0.82133,  -0.43320
   0.87103,  -0.93750,   0.50998,   0.77504,  -0.93750,   0.06575,   0.87412,  -0.93750,  -0.48205,   0.31863
   0.93750,  -0.12339,   0.46825,   0.49551,  -0.01125,  -0.93750,  -0.83708,   0.15110,  -0.93750,  -0.91110
   0.01481,   0.80239,  -0.35516,   0.55927,   0.37542,  -0.66658,   0.61776,   0.93750,   0.34185,  -0.69670
  -0.47320,  -0.03489,   0.93750,  -0.32622,   0.39435,  -0.87575,  -0.64869,  -0.82149,  -0.71808,   0.93750
   0.93750,   0.93750,  -0.93750,  -0.87876,   0.22966,  -0.93750,   0.93750,   0.87275,   0.93750,   0.93750
  -0.93750,  -0.32286,   0.26447,  -0.93750,  -0.93750,  -0.90261,  -0.93750,   0.00635,  -0.75496,   0.93750
  -0.93750,  -0.87697,   0.93750,   0.03295,  -0.14853,   0.16165,   0.19249,   0.86963,  -0.93750,   0.93750
  -0.81047,  -0.80000,  -0.75545,   0.93750,   0.03212,  -0.31140,   0.93750,   0.10959,   0.88171,  -0.38948
   0.04602,   0.79022,   0.55858,   0.46881,  -0.10611,   0.00027,   0.27314,  -0.42812,  -0.30351,  -0.74010
   0.93750,  -0.26648,   0.38456,   0.15255,   0.37445,  -0.40793,  -0.18361,   0.19478,   0.66654,  -0.25212
   0.75951,  -0.76300,  -0.42439,  -0.35037,   0.33835,   0.87123,   0.43582,   0.14765,   0.26987,  -0.69252
   0.93750,   0.49564,  -0.02044,   0.87429,   0.93750,  -0.93750,   0.93750,  -0.93750,  -0.93750,   0.93750
   0.93750,  -0.75304,  -0.13441,   0.93750,   0.91410,  -0.18569,  -0.55389,  -0.55427,   0.42918,  -0.60480
   0.22049,  -0.02951,  -0.93750,  -0.93750,  -0.50453,   0.53065,   0.93750,   0.42112,   0.81428,   0.57019
  -0.37942,   0.09038,   0.81767,  -0.54123,  -0.93750,   0.90186,  -0.86600,  -0.93750,   0.61143,  -0.55049
   0.41774,   0.13631,  -0.51593,  -0.52852,   0.84429,  -0.64727,  -0.53458,   0.16655,   0.69222,   0.03120
  -0.52220,  -0.04438,   0.08263,  -0.49737,   0.59824,  -0.52011,   0.46997,  -0.52316,  -0.38103,  -0.79538
   0.70265,   0.72139,  -0.90936,  -0.73689,   0.85830,  -0.47095,   0.86815,   0.93750,   0.52551,  -0.56408
   0.15894,   0.00793,  -0.43677,   0.58697,  -0.93750,   0.22130,  -0.66167,  -0.13418,  -0.12357,  -0.93750
  -0.06813,   0.70224,  -0.81110,   0.91431,  -0.57440,   0.62056,  -0.88190,  -0.10725,   0.31909,  -0.87376
  -0.42332,   0.55227,  -0.88698,  -0.04799,  -0.78599,  -0.88291,   0.84855,  -0.63296,   0.93750,  -0.87846
  -0.04908,  -0.50723,  -0.67068,   0.93750,  -0.12555,  -0.48571,   0.04927,   0.93750,  -0.05228,  -0.56216
   0.08080,   0.01600,   0.76317,   0.93750,   0.61899,   0.91874,  -0.93750,   0.93750,   0.93750,   0.07825
   0.87475,   0.87720,  -0.53278,   0.78403,   0.35625,   0.38288,  -0.03550,  -0.93750,  -0.75359,  -0.93750
   0.66423,  -0.68278,  -0.14314,   0.43160,   0.00737,   0.70954,   0.07512,  -0.44882,  -0.43815,   0.20953
  -0.41952,   0.76365,  -0.28739,  -0.39050,  -0.46130,  -0.19944,   0.27409,  -0.57548,  -0.80806,   0.89605
   0.76728,  -0.37560,   0.74266,   0.86747,  -0.42177,  -0.74315,   0.32497,  -0.66409,   0.38988,   0.24063
   0.54688,   0.61545,   0.93750,  -0.35689,   0.93750,   0.26269,   0.00412,  -0.85413,  -0.82466,   0.36918
  -0.58616,   0.15093,   0.93750,  -0.00637,   0.93750,  -0.74905,  -0.37793,   0.77622,   0.15028,   0.93750
  -0.09453,  -0.32913,  -0.64218,  -0.81669,   0.93750,  -0.87856,  -0.46080,  -0.87675,   0.91124,   0.57453
   0.67736,  -0.41792,  -0.52632,   0.93750,  -0.93750,  -0.05299,   0.93750,  -0.33989,  -0.93750,  -0.93750
   0.86456,  -0.93750,   0.54520,  -0.93750,  -0.77059,   0.60190,   0.80668,  -0.93750,   0.31787,   0.93750
  -0.58628,  -0.40142,  -0.87610,   0.11256,  -0.66120,  -0.14636,   0.63310,   0.93750,  -0.89550,  -0.88018
  -0.26097,   0.80981,  -0.64889,   0.43217,   0.23636,  -0.40015,   0.86941,   0.62519,   0.55992,  -0.34135
  -0.82930,  -0.13530,  -0.93750,  -0.17100,   0.11060,   0.64298,  -0.81044,   0.39549,   0.40250,   0.36679
  -0.93750,   0.93750,  -0.93750,   0.93750,   0.93750,   0.93750,  -0.70922,   0.16614,  -0.26356,   0.93750
   0.43700,  -0.42154,  -0.93750,   0.36310,   0.93750,  -0.93750,   0.93750,  -0.28182,   0.55077,  -0.74533
  -0.09043,   0.69053,   0.41544,   0.93750,   0.25841,   0.59521,   0.75534,  -0.86706,  -0.48321,   0.93750
  -0.54906,   0.00180,   0.32421,   0.01944,   0.50206,   0.44192,  -0.67250,  -0.01293,   0.53056,  -0.03798
   0.45179,   0.54260,   0.18257,  -0.82314,  -0.69681,   0.82116,  -0.47516,   0.13316,   0.35897,   0.28671
   0.82194,   0.40390,   0.67266,  -0.47729,   0.30466,   0.38719,  -0.32949,  -0.39890,  -0.72480,  -0.26577
   0.35254,   0.84986,  -0.24345,  -0.82411,   0.44799,  -0.88546,  -0.78893,   0.50557,   0.87966,   0.02027
   0.03623,   0.73242,  -0.79546,  -0.03758,  -0.28127,  -0.33506,  -0.72376,   0.04876,   0.23719,   0.49857
   0.06731,  -0.71564,   0.41383,  -0.61827,   0.13990,  -0.74709,   0.80461,  -0.01648,  -0.81538,   0.12991
   0.51757,  -0.93750,   0.93750,  -0.39486,   0.93750,   0.64599,  -0.58260,  -0.27194,  -0.86227,  -0.82461
   0.56749,  -0.29111,  -0.78020,   0.32989,   0.56402,   0.26442,   0.55485,  -0.32082,   0.88122,   0.86610
  -0.18966,  -0.05524,  -0.82601,   0.87056,  -0.49593,  -0.48518,   0.51636,   0.46943,   0.49238,   0.11096
   0.93750,   0.93750,   0.58366,   0.62806,   0.26334,   0.93750,  -0.82216,   0.91073,  -0.93750,  -0.03439
   0.45494,   0.43146,  -0.76983,  -0.68660,  -0.70024,   0.51042,   0.76458,  -0.30972,  -0.14811,   0.74529
   0.47931,   0.93750,  -0.53562,  -0.21776,  -0.49952,  -0.75822,   0.55177,  -0.21574,  -0.60540,   0.06878
  -0.58036,  -0.32097,   0.93750,   0.93750,   0.67961,  -0.93750,  -0.48092,  -0.22884,  -0.92447,  -0.22377
  -0.93750,   0.79307,   0.44414,  -0.71681,   0.15430,   0.39539,  -0.93555,   0.93750,   0.64354,  -0.93750
   0.93750,  -0.31537,  -0.89736,  -0.35744,   0.93750,  -0.93750,  -0.27403,  -0.87336,  -0.70357,  -0.67431
   0.61954,   0.12108,  -0.30831,   0.56297,  -0.34805,  -0.45501,  -0.24522,   0.33491,   0.37975,  -0.01990
  -0.50866,  -0.50967,   0.20713,   0.49846,  -0.13520,   0.83105,  -0.76762,   0.40302,   0.40250,  -0.26822
   0.69453,  -0.28190,  -0.93750,   0.74689,  -0.75622,   0.84152,   0.04607,  -0.02851,  -0.64842,   0.68525
  -0.93750,   0.00031,  -0.56064,   0.93750,  -0.93750,  -0.85441,   0.93750,   0.24004,   0.93750,   0.46666
   0.24230,   0.93750,   0.25307,   0.34777,  -0.87500,  -0.88972,   0.46115,   0.12832,   0.42990,  -0.81569
  -0.43427,  -0.34641,  -0.27664,   0.21668,   0.08524,  -0.93750,   0.92325,   0.26988,   0.93750,   0.80606
  -0.66510,   0.14149,   0.71068,   0.03305,   0.93750,  -0.77000,  -0.04183,   0.70132,   0.88341,   0.09210
   0.45910,   0.70311,  -0.30413,   0.10095,  -0.11924,   0.36073,  -0.24463,   0.58236,   0.40259,  -0.55345
  -0.87779,   0.24697,   0.20424,  -0.81677,   0.93750,  -0.09758,  -0.93750,   0.83024,  -0.47815,   0.73694
  -0.62796,  -0.27390,   0.81541,  -0.05049,  -0.59954,   0.48289,   0.16236,   0.33476,  -0.43147,  -0.17645
   0.93750,  -0.87967,   0.93750,   0.93750,   0.87301,   0.77417,   0.62359,  -0.87225,  -0.93750,  -0.26276
   0.02490,  -0.87642,  -0.93750,   0.72216,  -0.62276,  -0.37946,   0.15016,  -0.52907,  -0.90764,  -0.57493
  -0.74379,  -0.93750,   0.00801,  -0.93750,   0.93750,  -0.38001,   0.22035,   0.60886,   0.70660,   0.30203
   0.18637,   0.20313,  -0.37559,  -0.28947,   0.39890,   0.80739,   0.53530,  -0.26821,   0.74225,   0.38037
  -0.75095,  -0.33433,   0.59474,   0.93750,  -0.93750,  -0.82526,   0.15636,   0.93750,   0.30671,   0.93750
  -0.65479,  -0.24799,  -0.35644,  -0.63546,  -0.71530,   0.93750,  -0.76356,  -0.32288,   0.72978,  -0.88836
  -0.93750,  -0.93750,  -0.22938,   0.57841,  -0.79524,  -0.42442,   0.74956,  -0.63751,   0.93750,   0.93750
   0.82067,   0.93750,   0.92454,   0.14277,  -0.37488,   0.19484,   0.79268,   0.31559,   0.93750,  -0.17634
  -0.39533,  -0.93750,   0.47252,  -0.39340,  -0.93750,   0.42523,  -0.02573,   0.14064,  -0.20703,  -0.93750
  -0.79172,  -0.52107,  -0.93750,  -0.27802,   0.51302,  -0.87246,   0.10033,   0.63906,   0.93750,   0.64624
  -0.50770,   0.59794,   0.04161,   0.93750,  -0.50682,  -0.02600,  -0.26937,   0.21635,  -0.44389,   0.56457
   0.30377,   0.03392,  -0.50831,  -0.62568,  -0.88465,   0.93750,  -0.55505,   0.28808,  -0.55068,   0.93750
   0.93750,   0.93750,   0.40268,   0.08572,   0.90973,  -0.78775,  -0.93750,  -0.73606,   0.18692,  -0.93750
  -0.87619,   0.67308,  -0.35389,  -0.81508,  -0.59817,   0.93750,   0.81621,  -0.04138,  -0.03486,   0.04577
   0.93750,   0.93750,   0.53078,   0.93750,  -0.45078,  -0.87029,  -0.10216,  -0.17913,  -0.27298,  -0.87711
  -0.60555,  -0.93750,   0.93750,   0.93750,   0.81024,  -0.33139,  -0.42493,  -0.69025,  -0.87269,  -0.68368
   0.47489,   0.39507,   0.16706,  -0.81366,  -0.75623,  -0.03598,  -0.87276,   0.40348,   0.44148,   0.88250
  -0.75967,   0.18890,  -0.43166,   0.08838,   0.87096,  -0.25249,   0.37591,  -0.02667,  -0.13368,  -0.81570
   0.05754,  -0.27328,   0.33245,   0.63069,   0.73640,   0.24264,   0.13165,   0.45019,   0.44727,  -0.07106
  -0.29094,  -0.13964,  -0.17754,  -0.02440,  -0.17772,   0.58453,   0.43691,   0.54828,   0.21781,   0.19451
   0.19221,  -0.78753,   0.28587,  -0.30785,  -0.04699,  -0.74446,   0.75342,  -0.10503,   0.86647,  -0.25207
   0.09330,  -0.24376,  -0.06752,  -0.60967,   0.88207,   0.74871,  -0.80411,  -0.32607,  -0.28608,  -0.16875
  -0.54794,   0.62266,  -0.02362,   0.62217,   0.30424,   0.28538,  -0.62438,  -0.68608,   0.04090,  -0.56028
  -0.88511,   0.79957,   0.93750,  -0.40719,   0.43682,  -0.79875,   0.37663,  -0.60811,  -0.04725,  -0.80060
   0.37276,   0.54418,   0.66540,   0.16332,   0.01751,  -0.34755,   0.73908,  -0.49536,  -0.13225,   0.15025
   0.05417,   0.93750,   0.56417,  -0.87592,   0.93750,  -0.87660,   0.33875,   0.93750,  -0.66198,  -0.81692
  -0.19721,  -0.93006,   0.75307,  -0.83263,  -0.87159,  -0.93750,  -0.75011,  -0.93750,   0.93750,  -0.75385
  -0.65063,  -0.43239,   0.33090,   0.27990,   0.39046,   0.80589,   0.34087,   0.12042,  -0.64167,   0.92199
  -0.68258,  -0.09894,  -0.28110,   0.91040,  -0.30030,  -0.42426,   0.69707,   0.67006,   0.92714,   0.20303
  -0.86909,  -0.70587,  -0.85769,   0.61275,  -0.93750,   0.63019,   0.93750,   0.59020,  -0.66328,   0.81830
   0.59773,   0.70065,  -0.22645,  -0.64993,  -0.20721,  -0.08598,  -0.34639,  -0.51234,  -0.53113,   0.61013
   0.81778,   0.80596,  -0.72972,  -0.92233,   0.36105,  -0.23344,   0.93750,   0.80695,  -0.50775,   0.71317
   0.27711,  -0.09370,   0.76771,   0.88131,  -0.55775,  -0.87836,  -0.67325,   0.53998,  -0.58155,   0.93158
   0.93750,  -0.87658,   0.93750,   0.93750,   0.16534,   0.46759,  -0.63397,   0.32292,   0.07641,   0.19538
  -0.51082,  -0.80491,   0.93750,   0.19390,   0.81513,  -0.93750,   0.11595,  -0.92963,  -0.93750,   0.83183
  -0.53640,  -0.93750,  -0.93750,  -0.90237,   0.06114,  -0.14464,   0.42885,   0.46930,  -0.60201,  -0.10841
   0.29459,   0.91241,  -0.81709,   0.23892,  -0.91431,   0.29332,   0.66932,  -0.14568,  -0.37885,  -0.74616
   0.22848,   0.79162,  -0.45639,  -0.76250,   0.26012,  -0.67115,   0.04758,  -0.21256,   0.23319,   0.29587
   0.43556,  -0.93750,   0.07968,   0.11387,  -0.43215,   0.93750,  -0.80803,  -0.73246,   0.87529,   0.74854
   0.93750,   0.68123,   0.53284,  -0.87166,  -0.17583,  -0.93750,  -0.59420,   0.56830,   0.82549,  -0.76602
   0.93750,  -0.14746,   0.06089,   0.93750,   0.93750,  -0.93750,   0.93750,   0.93750,   0.18689,   0.73380
  -0.86081,  -0.93750,   0.51565,  -0.93750,  -0.13817,   0.93750,  -0.83561,   0.88142,  -0.07081,  -0.93750
  -0.81239,   0.70794,  -0.93750,  -0.68225,   0.15480,   0.81105,   0.59002,   0.03061,  -0.91531,   0.65521
  -0.34740,   0.40262,  -0.93750,   0.22411,   0.75629,  -0.67179,  -0.15586,  -0.93750,  -0.51340,  -0.68373
   0.93750,  -0.14711,   0.63467,  -0.58443,   0.60786,   0.03514,   0.68610,   0.70737,  -0.69113,  -0.34203
   0.48537,  -0.93750,   0.51277,   0.93750,   0.41195,  -0.93750,   0.93750,  -0.93750,  -0.93750,   0.83603
  -0.74149,   0.93750,  -0.43826,  -0.48855,  -0.37233,   0.76961,   0.14902,   0.84156,  -0.14461,  -0.83253
   0.17659,  -0.37049,  -0.34328,  -0.67560,  -0.65549,  -0.87576,   0.46652,  -0.15836,  -0.24851,   0.50335
  -0.75981,   0.42467,   0.27460,  -0.52730,  -0.64397,   0.77260,   0.93750,  -0.61814,  -0.21675,   0.16519
   0.50625,  -0.44517,  -0.38632,   0.04919,  -0.86844,   0.93750,  -0.63942,   0.87473,  -0.09242,  -0.36646
  -0.41817,  -0.45827,  -0.93750,   0.93750,   0.86893,   0.11452,  -0.17807,  -0.53351,  -0.11577,  -0.18559
  -0.25738,  -0.12722,   0.03001,   0.93750,  -0.57514,   0.69606,   0.93750,  -0.91651,  -0.93750,   0.93750
   0.90677,   0.70848,   0.54659,  -0.08149,  -0.24661,   0.45160,   0.93750,  -0.75005,   0.05992,  -0.66893
  -0.93750,  -0.22095,   0.56739,   0.93750,   0.93750,  -0.00479,  -0.16351,   0.93750,  -0.78124,  -0.30585
   0.66309,   0.87640,   0.93750,   0.13489,   0.93750,   0.93750,   0.68968,  -0.87170,  -0.21342,  -0.93750
   0.15613,   0.62384,  -0.84122,  -0.69818,   0.93750,   0.41044,  -0.82440,   0.65955,  -0.93750,  -0.89156
   0.30348,   0.03517,   0.74298,  -0.60927,   0.69468,   0.25018,  -0.35262,   0.73171,  -0.15766,  -0.26731
  -0.42955,  -0.47873,   0.29937,  -0.36884,  -0.00635,   0.48816,  -0.73530,  -0.03244,  -0.48535,   0.78751
   0.93750,   0.08197,  -0.19576,  -0.93750,   0.35223,   0.93750,   0.93516,  -0.55633,   0.93750,   0.58979
  -0.68367,  -0.54313,  -0.40935,   0.66078,  -0.32008,   0.17806,   0.93750,  -0.34135,  -0.28306,  -0.76844
   0.66343,   0.64751,  -0.38239,  -0.23169,  -0.07134,   0.61760,   0.32318,  -0.04578,  -0.70230,   0.17486
  -0.25745,  -0.37674,   0.51061,  -0.52440,  -0.33285,   0.14332,  -0.23279,  -0.14383,   0.23986,   0.43431
   0.67922,   0.76479,  -0.45103,  -0.65220,   0.25944,  -0.23119,   0.41145,  -0.08478,   0.43562,  -0.60282
  -0.35050,   0.12413,  -0.76407,  -0.93750,  -0.22927,   0.89368,  -0.42212,  -0.63274,   0.86267,   0.93750
   0.81534,  -0.62500,   0.07922,   0.93750,   0.93750,  -0.87574,  -0.76201,   0.78656,  -0.44096,  -0.69596
   0.93750,  -0.06385,  -0.11642,  -0.43649,   0.89869,  -0.07272,   0.11811,  -0.93750,   0.20433,   0.07879
   0.78807,  -0.71869,  -0.29138,   0.93750,  -0.93750,  -0.30545,   0.93750,  -0.81419,   0.59245,  -0.76192
   0.24917,   0.73944,  -0.93750,   0.93750,   0.21639,  -0.90799,  -0.02008,   0.79149,  -0.62504,  -0.93750
   0.46497,   0.86903,  -0.80852,   0.34527,   0.93750,  -0.21814,   0.42509,  -0.12308,   0.65330,  -0.87881
   0.81540,   0.07620,  -0.05921,  -0.57523,   0.92690,  -0.93750,  -0.93750,   0.28925,  -0.50757,   0.85948
   0.56586,  -0.93750,   0.86808,  -0.48228,   0.26147,   0.78561,  -0.47223,  -0.86932,  -0.87051,   0.61482
   0.85923,  -0.91717,  -0.50452,  -0.32345,   0.20954,  -0.80029,   0.74961,  -0.93750,   0.93750,   0.93750
   0.64751,   0.21280,   0.01413,   0.01336,   0.93750,  -0.56875,   0.15606,  -0.26588,  -0.86278,   0.39307
   0.44357,  -0.45329,  -0.67679,   0.93750,   0.93750,  -0.11755,  -0.51692,   0.10305,  -0.02845,  -0.68432
   0.02087,  -0.93750,  -0.82818,   0.34924,   0.90832,   0.93750,   0.93750,  -0.62011,  -0.79380,  -0.87155
  -0.21728,  -0.05015,  -0.69047,   0.76249,  -0.80692,   0.00978,  -0.23123,   0.76544,  -0.75191,   0.32587
   0.72826,   0.13455,   0.69795,   0.68519,   0.54630,  -0.88760,  -0.74561,  -0.12781,  -0.72856,   0.39555
   0.93750,  -0.93750,  -0.93750,   0.93750,   0.93750,   0.93750,  -0.48510,   0.93750,   0.67975,   0.68061
  -0.72535,   0.49994,  -0.46696,  -0.10768,  -0.58799,  -0.47637,  -0.28382,  -0.38299,  -0.37015,  -0.07600
   0.46159,   0.42522,   0.67575,  -0.21378,  -0.81764,  -0.87987,  -0.87823,   0.87138,  -0.17294,   0.19258
  -0.93750,   0.29903,  -0.93750,  -0.87600,   0.93750,   0.07087,   0.93750,   0.93750,  -0.79450,  -0.40463
   0.68847,  -0.87670,   0.93750,  -0.72455,  -0.86644,   0.93750,   0.25343,  -0.93750,  -0.60688,  -0.66187
   0.35434,  -0.34799,   0.26822,   0.73287,   0.93750,  -0.21184,   0.34366,   0.93750,   0.40617,  -0.27385
  -0.53885,  -0.21081,  -0.93750,  -0.01194,   0.08339,  -0.76990,   0.60856,   0.56964,   0.17084,  -0.87759
  -0.93750,  -0.93750,  -0.93750,   0.62505,   0.93750,  -0.93750,  -0.93750,  -0.93750,  -0.55785,   0.93750
   0.21820,  -0.93750,   0.28584,  -0.27445,   0.93750,  -0.93750,   0.84779,   0.13468,   0.93750,  -0.01818
  -0.81990,  -0.35228,   0.17227,  -0.39890,   0.13293,  -0.49716,  -0.88347,   0.93096,  -0.72151,   0.87355
   0.10167,   0.38332,   0.23386,   0.27446,  -0.47209,  -0.43588,  -0.27267,  -0.12487,  -0.78000,  -0.37076
   0.71389,  -0.28743,  -0.93750,   0.59653,  -0.93750,  -0.86821,   0.93750,  -0.93750,   0.75370,   0.93750
  -0.93750,  -0.85420,  -0.93750,   0.93750,   0.93750,   0.93750,   0.93750,   0.24663,   0.93750,  -0.93750
  -0.88388,  -0.01950,   0.93750,   0.93750,  -0.38204,   0.93750,  -0.93750,   0.93750,  -0.93750,  -0.05181
   0.10306,  -0.81233,   0.42267,  -0.06891,   0.82531,   0.50492,   0.52453,   0.93750,  -0.66374,  -0.35602
   0.31128,  -0.14020,   0.93750,   0.24514,  -0.75667,   0.72807,   0.12789,  -0.93750,   0.15967,   0.24528
   0.81774,   0.72058,  -0.36912,   0.35224,   0.04005,  -0.21746,   0.93750,   0.44557,   0.93720,   0.38804
  -0.93750,   0.93750,   0.71279,  -0.93750,  -0.93750,   0.75815,  -0.93750,   0.93750,  -0.73915,   0.73054
  -0.86780,   0.87987,  -0.81788,   0.93750,   0.22183,  -0.53745,  -0.92545,   0.66258,  -0.59869,  -0.87838
  -0.64684,  -0.68038,  -0.91045,   0.70116,  -0.03707,  -0.87107,   0.17805,  -0.57390,  -0.13768,   0.93750
  -0.58967,   0.53031,  -0.93750,  -0.05319,  -0.93091,  -0.00284,  -0.12558,   0.39766,   0.59905,   0.93750
   0.49444,  -0.46110,   0.21466,   0.79979,   0.83330,  -0.51001,  -0.37446,  -0.02286,   0.27956,   0.34835
   0.69493,  -0.09905,  -0.93750,   0.72313,  -0.81975,   0.93750,   0.88441,  -0.12658,  -0.57117,  -0.05397
  -0.93750,   0.93750,   0.22552,   0.93750,   0.88254,   0.93750,   0.93750,  -0.28678,   0.86710,   0.62985
   0.61237,  -0.46231,  -0.86172,  -0.93750,   0.45281,  -0.93750,   0.29258,  -0.23530,   0.74564,   0.93750
   0.93750,  -0.00871,   0.82104,  -0.53085,   0.93750,  -0.64022,  -0.19895,  -0.45538,  -0.80369,  -0.93750
  -0.93750,  -0.28599,   0.37681,   0.18317,  -0.75062,  -0.93750,   0.62959,  -0.04070,  -0.51891,   0.84191
  -0.93750,  -0.93750,  -0.93750,  -0.87816,  -0.14782,   0.18068,   0.66932,   0.08357,   0.32658,  -0.93750
  -0.26800,   0.35643,  -0.93750,  -0.84346,   0.45273,   0.93750,   0.69206,  -0.47398,  -0.93750,  -0.93750
   0.28751,  -0.56848,   0.81872,  -0.80233,  -0.40602,   0.87467,  -0.40518,  -0.43144,   0.69440,  -0.57269
   0.26547,   0.87091,   0.93750,  -0.93750,  -0.17210,  -0.93750,   0.21079,   0.15663,   0.93750,  -0.47539
  -0.68368,   0.12465,  -0.86974,   0.47875,   0.58329,  -0.92748,   0.49518,  -0.93750,   0.70498,   0.73099
   0.93750,  -0.42680,   0.81908,   0.12210,  -0.06098,  -0.07658,   0.28206,  -0.38661,  -0.44518,  -0.05741
  -0.20856,   0.54118,   0.38823,  -0.74529,   0.44793,  -0.55658,   0.93750,  -0.62432,  -0.61690,  -0.28004
   0.18350,   0.51714,   0.86963,   0.63069,  -0.69090,   0.45244,   0.81884,  -0.81168,  -0.70440,  -0.80431
  -0.01783,   0.93750,   0.93750,   0.93750,   0.93750,  -0.93750,   0.88457,   0.93750,   0.86256,  -0.93750
  -0.73005,  -0.50362,  -0.70820,   0.85625,   0.87829,   0.93750,   0.04719,  -0.39195,  -0.64068,   0.20914
  -0.10856,   0.93750,   0.53398,  -0.93750,   0.25256,  -0.90075,  -0.16829,   0.93750,  -0.91322,   0.93750
   0.40827,  -0.48768,   0.37012,  -0.87192,   0.75383,  -0.09256,   0.55468,   0.42006,   0.68002,  -0.45902
   0.66978,   0.87632,  -0.75783,   0.16100,   0.87883,   0.26854,   0.93750,   0.08920,   0.74745,  -0.62963
  -0.88004,   0.76030,   0.47076,  -0.83302,  -0.93750,   0.11843,   0.76926,  -0.29026,  -0.67251,   0.63437
   0.32252,   0.89718,   0.47157,  -0.30588,  -0.44507,   0.57836,  -0.46722,  -0.41740,   0.29596,   0.60476
  -0.08167,  -0.00267,   0.93750,  -0.93750,   0.14503,   0.40811,   0.93750,  -0.93750,  -0.93750,   0.87425
  -0.93750,  -0.57314,   0.03382,  -0.63087,  -0.93750,   0.55646,  -0.11871,   0.80179,  -0.82009,  -0.10082
   0.93750,  -0.06725,   0.49990,  -0.59599,  -0.93750,  -0.72603,   0.93750,   0.61467,  -0.54784,  -0.62259
  -0.93750,   0.45946,   0.93750,  -0.64265,  -0.65375,  -0.50823,  -0.79128,  -0.93750,  -0.11069,  -0.93750
  -0.27140,  -0.19560,  -0.93750,  -0.93750,   0.93750,   0.93750,  -0.01693,  -0.61525,  -0.69195,   0.93750
   0.48094,  -0.87393,   0.64240,   0.75060,  -0.02885,   0.80994,   0.49828,  -0.67854,  -0.77255,   0.64741
  -0.93750,  -0.59026,   0.88944,  -0.82066,  -0.93750,   0.93750,  -0.93750,   0.88062,   0.68763,   0.81154
   0.07112,  -0.26858,   0.36260,  -0.87775,   0.93750,  -0.93750,   0.93750,  -0.93750,   0.87920,   0.43016
  -0.64356,  -0.93750,  -0.38656,  -0.87405,  -0.93750,  -0.93750,  -0.93750,  -0.93750,   0.12297,  -0.93750
   0.06873,   0.56300,   0.03483,  -0.50841,  -0.81202,  -0.74499,  -0.49502,   0.93750,   0.83703,   0.06436
  -0.87911,   0.52215,   0.93750,  -0.93750,  -0.77441,  -0.42157,   0.58755,   0.93750,  -0.63901,  -0.79300
   0.93750,  -0.86793,  -0.90616,   0.73825,  -0.61233,   0.05651,   0.93750,  -0.57492,  -0.87689,   0.75763
  -0.41953,   0.28159,   0.93750,   0.93750,   0.04359,  -0.49121,   0.86670,   0.83172,   0.65052,  -0.79442
  -0.62087,  -0.78432,  -0.67744,   0.68691,   0.17965,   0.44250,   0.12941,  -0.86973,   0.45229,  -0.44282
   0.93750,  -0.26930,   0.82541,  -0.93750,  -0.88472,   0.40115,   0.93750,   0.93750,   0.93750,   0.06426
  -0.93750,   0.18375,  -0.93750,  -0.45195,   0.93750,  -0.88310,  -0.33942,  -0.78789,  -0.93750,   0.93750
  -0.63090,   0.81083,  -0.59047,   0.88301,   0.74249,   0.47747,  -0.19949,  -0.29077,  -0.82805,   0.31108
  -0.25595,   0.28280,  -0.03952,  -0.82983,   0.76979,   0.43114,  -0.58496,   0.86996,   0.46295,   0.00518
  -0.33784,   0.15163,   0.32215,   0.02205,  -0.87887,  -0.53128,  -0.26171,   0.74142,  -0.32042,   0.18332
  -0.89879,   0.07074,   0.16524,  -0.07163,   0.13949,   0.93017,  -0.80442,  -0.29537,   0.26438,  -0.47933
  -0.50076,  -0.32928,  -0.51925,  -0.24343,  -0.24213,   0.49590,   0.60178,   0.26296,  -0.66475,  -0.86354
   0.69019,  -0.33174,   0.62755,   0.18925,  -0.84931,   0.44850,   0.70373,  -0.00687,  -0.93750,  -0.91280
  -0.76918,   0.79650,   0.93750,   0.73791,   0.93750,  -0.93750,  -0.87464,   0.70771,   0.75845,   0.00719
  -0.93750,  -0.24231,  -0.33410,   0.84297,   0.93750,   0.93750,  -0.92640,   0.37977,   0.93750,   0.76131
  -0.40018,   0.75505,  -0.93750,   0.45876,   0.85333,  -0.61799,  -0.93750,  -0.93750,  -0.20766,   0.26760
   0.75631,  -0.01245,  -0.01178,  -0.15106,   0.80499,  -0.40027,   0.12461,  -0.18330,  -0.01232,  -0.15822
  -0.30195,  -0.93750,   0.93750,   0.16424,   0.93750,   0.81289,   0.93750,   0.53893,  -0.93750,   0.60354
   0.50622,   0.93750,  -0.80659,  -0.05281,  -0.75862,  -0.93750,  -0.93750,  -0.93750,  -0.72825,  -0.56931
  -0.93750,  -0.28741,   0.35931,  -0.81592,  -0.59398,  -0.93750,  -0.93750,  -0.93750,  -0.93750,  -0.22471
   0.93750,  -0.55495,   0.80715,  -0.64503,   0.19487,   0.11213,  -0.47325,  -0.66507,  -0.29943,  -0.27526
   0.88917,  -0.81932,  -0.01756,   0.87232,   0.48790,  -0.19998,   0.29307,  -0.03413,  -0.03999,  -0.61954
  -0.92330,   0.76355,   0.53406,   0.55684,   0.27759,  -0.05192,  -0.69690,   0.79713,   0.93750,   0.07525
  -0.60235,   0.81319,  -0.79977,  -0.41214,   0.87787,  -0.64025,   0.93750,   0.75780,  -0.55589,  -0.36435
  -0.50710,   0.29704,   0.23809,   0.54671,   0.54316,   0.44121,  -0.77400,  -0.76676,  -0.64386,   0.60211
  -0.35031,   0.04883,   0.36668,   0.93750,  -0.75229,   0.93750,   0.93750,  -0.65423,  -0.67634,  -0.67311
  -0.31284,   0.28629,  -0.88025,   0.80911,   0.87146,   0.37224,   0.03809,   0.07107,   0.21672,   0.93750
  -0.53497,   0.62595,  -0.87183,   0.43602,   0.74218,   0.78986,   0.24264,   0.07450,   0.39448,  -0.67638
   0.93750,  -0.51355,  -0.11621,  -0.41210,  -0.47928,  -0.06525,   0.29620,   0.11417,  -0.88250,   0.93750
  -0.93750,  -0.57438,   0.41962,  -0.92121,   0.25741,  -0.93750,  -0.80297,   0.93750,  -0.80215,  -0.93750
   0.93750,  -0.65536,  -0.87558,   0.65109,  -0.93750,  -0.13632,  -0.71206,  -0.05483,   0.37965,   0.26281
   0.33775,   0.93750,  -0.93750,  -0.90368,   0.68272,  -0.76313,  -0.25487,   0.68651,  -0.09886,  -0.36342
  -0.66068,  -0.38680,   0.12974,   0.24751,  -0.57961,   0.77652,   0.52715,  -0.07945,  -0.82403,  -0.02480
  -0.33513,  -0.58600,   0.47440,  -0.73180,   0.93750,  -0.51168,  -0.79888,  -0.20414,   0.45432,   0.93750
  -0.60430,  -0.93750,  -0.52258,  -0.09463,   0.20090,   0.93750,   0.93750,   0.10602,   0.57500,  -0.93750
  -0.48315,  -0.25625,  -0.93750,   0.93750,   0.93750,  -0.88002,  -0.93750,  -0.93750,  -0.93750,   0.93750
   0.68377,  -0.27560,   0.86719,  -0.48228,  -0.93750,   0.87411,   0.37303,   0.43271,   0.93750,  -0.07944
  -0.74789,  -0.59693,   0.46551,  -0.00823,  -0.93750,  -0.68842,   0.55232,   0.93750,   0.93750,   0.81523
  -0.93593,   0.87580,   0.64235,  -0.01369,   0.93750,   0.66949,  -0.21465,   0.02969,   0.16262,  -0.80622
  -0.02844,  -0.44621,   0.67770,  -0.47963,  -0.15723,   0.93750,  -0.79780,   0.12554,   0.27015,  -0.72542
  -0.93750,   0.18787,  -0.50061,   0.74903,  -0.93750,  -0.23195,  -0.51797,   0.10354,  -0.53672,   0.81900
   0.26285,  -0.87670,  -0.21644,   0.40734,   0.03219,  -0.60368,  -0.67303,   0.93750,  -0.66291,   0.09994
  -0.32635,   0.86639,  -0.93750,   0.91870,  -0.72260,   0.93750,   0.12313,  -0.06801,   0.93750,  -0.93750
   0.93750,  -0.33607,   0.70018,   0.59099,  -0.26161,  -0.60291,   0.52390,   0.32397,  -0.51073,  -0.31964
  -0.65789,   0.42873,   0.86989,   0.26784,  -0.93750,   0.27203,  -0.28068,   0.76265,   0.56944,   0.40186
   0.07161,   0.24342,  -0.70478,  -0.21229,   0.50206,   0.63497,  -0.77958,   0.74496,  -0.30038,  -0.87223
   0.32610,   0.93750,  -0.93750,  -0.93750,  -0.48189,   0.93750,  -0.65582,  -0.86681,  -0.20577,   0.93750
  -0.57391,   0.93750,  -0.39742,   0.93750,  -0.81180,   0.82003,   0.41180,  -0.48712,   0.37044,  -0.93750
   0.42006,  -0.29519,  -0.19060,  -0.83092,   0.67684,   0.14230,  -0.47392,  -0.02157,  -0.39866,   0.93750
   0.93750,   0.49652,  -0.78851,   0.63441,   0.93750,  -0.41888,  -0.22134,   0.38258,  -0.88234,   0.93750
  -0.43359,  -0.10447,  -0.48213,  -0.17734,   0.87637,   0.32928,   0.84135,  -0.42062,  -0.49033,   0.14860
   0.93750,  -0.36898,  -0.93049,   0.64862,   0.83636,   0.87555,  -0.87308,   0.80750,  -0.10606,  -0.80791
  -0.13696,   0.68240,   0.04654,   0.26964,  -0.20614,   0.73475,  -0.60575,   0.23246,  -0.26406,   0.34678
   0.32632,  -0.61901,  -0.02346,   0.93750,   0.61827,  -0.37138,  -0.77132,  -0.15002,  -0.03495,   0.04176
  -0.28284,  -0.60320,  -0.86627,   0.93750,  -0.87459,   0.03198,   0.93750,  -0.02911,  -0.42341,  -0.86720
   0.84234,  -0.93750,   0.82625,   0.93750,   0.00376,  -0.50974,  -0.41691,  -0.67561,   0.62775,   0.28351
   0.44181,   0.75294,   0.46384,  -0.53106,  -0.81700,  -0.88098,   0.93750,  -0.93750,   0.62258,   0.08284
   0.52803,   0.93750,   0.93750,   0.93750,  -0.81194,  -0.80621,  -0.47185,  -0.75900,   0.13682,   0.69789
   0.70326,   0.19735,   0.93750,  -0.92222,   0.74723,  -0.93750,  -0.93750,  -0.93750,  -0.62803,   0.69474
  -0.93750,   0.40669,  -0.93750,  -0.72198,   0.93750,  -0.60239,   0.93750,   0.20145,  -0.83538,  -0.63249
   0.38730,   0.12346,  -0.93750,   0.19235,   0.26551,  -0.88412,   0.54089,   0.34610,   0.54438,  -0.51389
  -0.93750,   0.44700,  -0.73313,   0.88235,   0.19686,  -0.55089,   0.87753,   0.93750,   0.09089,  -0.93750
   0.60846,   0.69012,  -0.01474,  -0.28215,  -0.19234,  -0.21836,   0.03386,   0.32536,  -0.86396,   0.44603
   0.62512,   0.20219,   0.86568,  -0.47151,   0.76156,  -0.00881,  -0.86742,  -0.48355,  -0.80599,  -0.13533
  -0.92862,  -0.93750,   0.93750,  -0.55827,   0.93750,  -0.30503,   0.42609,  -0.81129,   0.91065,  -0.28593
  -0.26261,   0.01356,  -0.69383,  -0.77119,  -0.60060,  -0.04243,   0.48451,   0.41172,   0.04950,   0.37127
  -0.29417,  -0.50835,  -0.60476,   0.51228,   0.69485,   0.62670,   0.01570,  -0.27267,   0.92481,  -0.64758
   0.10166,   0.88126,  -0.80605,   0.61661,  -0.24836,   0.76657,   0.55078,   0.02892,  -0.78100,  -0.10001
   0.54739,  -0.25737,   0.93750,   0.10753,  -0.68662,   0.40082,   0.93750,   0.07546,  -0.69938,   0.30064
  -0.62335,  -0.78067,   0.82920,  -0.13273,   0.51317,   0.14555,   0.87830,   0.82026,  -0.92079,  -0.39497
  -0.42544,   0.06181,  -0.26496,   0.12046,  -0.34662,  -0.73525,   0.51661,  -0.64264,  -0.03940,   0.88202
   0.68212,   0.22058,   0.33018,  -0.27162,   0.18698,  -0.05012,   0.93326,  -0.58056,   0.22075,   0.15347
   0.86785,   0.09642,   0.93750,   0.69162,   0.93750,  -0.42643,   0.62462,  -0.82451,  -0.93750,  -0.51784
   0.76205,  -0.25121,  -0.81424,   0.39308,  -0.92754,  -0.01435,  -0.86626,  -0.66268,  -0.52926,   0.07721
   0.93750,   0.47832,  -0.54505,  -0.28205,   0.50806,  -0.64027,   0.86773,   0.23005,  -0.42748,  -0.65295
  -0.71450,  -0.93750,   0.43627,  -0.33745,   0.08155,   0.93750,   0.93750,  -0.93750,  -0.85042,   0.90150
   0.93750,   0.93750,   0.93750,   0.93750,  -0.93750,  -0.93750,  -0.65142,  -0.44836,   0.93750,  -0.93750
   0.93750,   0.84095,  -0.79816,  -0.53930,   0.51577,   0.33751,   0.26841,  -0.65395,   0.09924,  -0.41562
  -0.26984,   0.89132,  -0.40691,   0.36841,   0.93750,  -0.25483,   0.36346,  -0.93750,  -0.13826,   0.93750
  -0.20164,   0.50969,  -0.16509,  -0.42043,  -0.65795,   0.93750,   0.26324,   0.62115,   0.93750,   0.93750
  -0.70880,   0.19249,   0.30971,   0.49619,  -0.93750,   0.73798,  -0.57456,  -0.93750,   0.66130,  -0.86970
  -0.43844,  -0.05564,   0.15553,   0.04040,   0.16957,  -0.30238,  -0.74445,   0.67339,  -0.55920,   0.61577
  -0.23981,   0.20628,  -0.82624,   0.53130,   0.07298,  -0.52156,   0.50506,  -0.43608,  -0.93483,  -0.37651
   0.93750,   0.19352,   0.05241,   0.69739,   0.48038,   0.04450,  -0.07296,  -0.87277,  -0.85589,   0.42259
   0.78981,  -0.46351,  -0.93750,  -0.81644,   0.18061,  -0.26519,  -0.67585,   0.37556,  -0.93750,  -0.81283
  -0.40667,  -0.66310,   0.31362,   0.03884,  -0.62232,  -0.53329,  -0.57409,   0.48319,  -0.80211,   0.48524
   0.54603,   0.62937,   0.38894,   0.93750,  -0.52573,  -0.49193,   0.55135,  -0.40913,  -0.31677,   0.93750
  -0.93750,  -0.04055,   0.93750,   0.42603,  -0.18079,  -0.93750,   0.30988,  -0.93750,  -0.93750,   0.81790
  -0.93750,  -0.93750,  -0.35812,  -0.93750,  -0.64139,   0.57723,  -0.15348,  -0.93750,   0.67917,  -0.93750
  -0.65150,   0.93750,  -0.93750,   0.93750,  -0.54362,   0.63889,  -0.29860,  -0.93750,   0.41942,   0.70456
  -0.87388,   0.93750,  -0.65794,   0.31164,   0.11113,  -0.87524,   0.52788,  -0.12309,  -0.31519,   0.93750
  -0.93750,   0.14661,   0.93750,   0.40191,  -0.93750,  -0.41020,  -0.93750,   0.15211,   0.93750,  -0.93750
   0.93750,  -0.48230,   0.41662,  -0.74464,  -0.75249,  -0.93750,  -0.93750,   0.62391,   0.82112,   0.26525
   0.75084,   0.15309,   0.70520,  -0.04835,  -0.04818,  -0.19923,  -0.40078,   0.70108,  -0.17860,  -0.06347
   0.15106,  -0.92527,  -0.55239,  -0.25115,  -0.93750,  -0.25966,   0.51235,   0.93750,  -0.01812,  -0.93750
   0.07884,  -0.54590,  -0.58315,   0.58181,  -0.93750,  -0.06825,   0.87255,   0.74434,  -0.19640,   0.93750
  -0.11728,   0.93750,  -0.62414,   0.58618,  -0.34740,   0.60073,  -0.60379,   0.93750,   0.87997,  -0.14105
   0.59755,   0.21529,   0.08448,  -0.48502,   0.92357,   0.38186,   0.09784,  -0.39619,  -0.93750,   0.54075
  -0.18414,   0.80342,   0.07205,  -0.81256,  -0.83009,  -0.13349,  -0.74544,   0.08899,  -0.55470,   0.14267
  -0.49713,  -0.65513,  -0.87385,   0.68857,  -0.77162,   0.20718,   0.93750,   0.20208,  -0.18467,   0.93750
  -0.74417,  -0.93750,   0.93750,  -0.87448,   0.93750,   0.46421,   0.93750,  -0.93750,   0.93750,  -0.93750
  -0.79497,   0.75374,  -0.93750,  -0.84281,   0.14990,   0.17460,  -0.53029,   0.38479,  -0.62287,  -0.93750
   0.75791,  -0.38146,  -0.73412,   0.93750,   0.18155,  -0.93750,  -0.28555,  -0.23851,  -0.93750,   0.86439
   0.93750,  -0.66722,  -0.79391,   0.62882,  -0.89875,  -0.87751,   0.88458,  -0.37382,  -0.42331,  -0.14340
   0.39483,   0.78756,  -0.80979,  -0.79820,  -0.21279,  -0.88098,   0.57055,  -0.08808,   0.63705,   0.54081
  -0.24184,   0.19085,  -0.69208,  -0.70944,   0.12503,  -0.57676,   0.63594,   0.71397,   0.40395,   0.74257
   0.54965,  -0.00083,  -0.73695,   0.53501,   0.57291,  -0.93750,  -0.19186,  -0.93750,   0.56419,  -0.66070
   0.87500,  -0.41888,  -0.54588,  -0.85004,  -0.14077,  -0.61880,   0.43765,  -0.35423,   0.41745,  -0.48957
  -0.64186,  -0.11783,  -0.81650,  -0.29396,  -0.92035,   0.86395,   0.86645,  -0.93473,  -0.90296,   0.87776
   0.93750,   0.04158,   0.93750,  -0.83999,   0.26970,  -0.89745,  -0.39231,   0.59876,  -0.38015,   0.93076
  -0.26379,  -0.57182,   0.93750,   0.29888,   0.93750,  -0.60943,   0.93750,   0.38550,  -0.12065,   0.93750
  -0.76862,  -0.14285,   0.65869,  -0.93750,  -0.09112,  -0.93750,   0.30760,  -0.63721,  -0.87806,   0.77997
  -0.44550,  -0.47393,  -0.61330,  -0.74895,   0.43304,  -0.72717,  -0.21235,  -0.86557,  -0.10445,  -0.74952
   0.82548,   0.93750,  -0.71812,   0.93750,  -0.69439,   0.20292,   0.57423,   0.35106,  -0.23953,  -0.45026
   0.93750,   0.93750,  -0.03552,  -0.32712,  -0.25785,   0.93750,   0.93750,   0.20171,   0.93750,   0.60447
  -0.18349,  -0.26946,   0.21309,   0.74282,  -0.05324,   0.28526,  -0.39023,  -0.88586,   0.31613,   0.69278
  -0.92316,   0.86905,  -0.92126,   0.88625,   0.64559,  -0.13517,   0.29598,   0.44006,  -0.13769,   0.15275
  -0.33894,  -0.20093,   0.78296,   0.87092,  -0.93750,  -0.67257,  -0.31305,  -0.86139,   0.06608,   0.28771
  -0.93750,  -0.86582,  -0.36199,   0.18771,  -0.70468,  -0.72986,   0.59128,   0.93750,   0.30153,   0.46930
  -0.93750,   0.93750,   0.28408,   0.42262,   0.00973,  -0.40164,  -0.81730,   0.21121,   0.77850,   0.11086
   0.49957,  -0.44656,   0.69436,   0.49997,  -0.45351,   0.65670,   0.80607,  -0.55394,  -0.05545,   0.17727
   0.50831,   0.83183,  -0.62805,  -0.93750,   0.93750,  -0.00022,  -0.52128,   0.13853,  -0.93750,   0.72724
  -0.20007,  -0.87435,  -0.93750,  -0.93750,  -0.93750,  -0.77160,   0.93750,   0.79904,  -0.89029,   0.57725
  -0.10189,   0.50781,  -0.54620,  -0.19082,   0.92006,   0.03249,   0.19506,  -0.20001,   0.87447,  -0.55852
  -0.21781,   0.30701,   0.93750,   0.35476,   0.81764,  -0.62870,  -0.09576,   0.34766,  -0.93750,   0.93750
   0.87349,  -0.24842,  -0.93750,  -0.28849,  -0.72471,  -0.93750,   0.81106,  -0.34842,  -0.45954,  -0.51948
   0.40870,  -0.84980,  -0.73775,   0.24821,   0.44515,   0.93750,  -0.18046,  -0.59370,  -0.10730,   0.93750
  -0.57650,   0.21567,  -0.49678,  -0.24132,  -0.45230,   0.71943,   0.93750,  -0.93750,  -0.93750,  -0.61193
   0.32513,   0.15936,  -0.82007,   0.73879,   0.19931,  -0.33891,  -0.18286,   0.91264,  -0.19062,   0.26609
   0.08473,  -0.79679,   0.93750,   0.02496,  -0.66901,   0.79658,  -0.21982,  -0.93750,   0.29131,  -0.93750
   0.45754,   0.48026,   0.59571,   0.76442,   0.16896,  -0.07146,  -0.15958,   0.38049,  -0.32122,   0.03897
  -0.69963,  -0.58397,   0.93750,  -0.33820,   0.93750,  -0.93750,  -0.49424,   0.93750,  -0.93750,   0.93750
  -0.36186,   0.87117,   0.74421,   0.28018,  -0.51981,  -0.74263,  -0.33703,  -0.75327,  -0.79609,  -0.79843
  -0.70599,   0.93750,  -0.93750,  -0.06736,  -0.06387,   0.09085,  -0.29632,  -0.19113,  -0.92150,  -0.58365
   0.90270,  -0.93750,   0.93750,   0.93750,  -0.93750,   0.93750,   0.93750,  -0.93750,   0.42800,  -0.70360
  -0.93750,  -0.91933,   0.93750,   0.78694,   0.29410,  -0.35455,   0.00207,   0.40364,   0.02195,  -0.12223
   0.04936,   0.88685,   0.45454,   0.93750,   0.16158,  -0.70466,   0.80634,  -0.81781,  -0.60029,  -0.20937
  -0.30776,   0.22126,  -0.93750,   0.93750,  -0.03310,  -0.74343,   0.73408,  -0.25187,  -0.36146,   0.39682
  -0.34674,   0.24327,  -0.93750,  -0.76007,  -0.44465,   0.77828,  -0.91978,  -0.35142,  -0.93750,  -0.93750
  -0.29529,   0.06997,   0.04013,  -0.14095,  -0.42103,  -0.75746,   0.51283,  -0.33812,   0.68229,   0.49046
   0.53303,   0.93750,  -0.70985,  -0.68017,  -0.65770,   0.15385,  -0.86072,   0.16282,  -0.55352,   0.87192
   0.57184,  -0.93209,   0.49703,  -0.68335,  -0.78133,   0.27859,   0.30683,   0.23435,   0.05278,   0.00478
   0.10726,  -0.80962,   0.19282,   0.04381,  -0.02798,  -0.69229,   0.56203,   0.01119,   0.60170,  -0.93750
  -0.61728,   0.79544,  -0.04288,   0.50822,  -0.09639,  -0.86284,  -0.77449,   0.93750,  -0.37356,   0.32989
  -0.93750,  -0.93750,   0.75147,  -0.93750,  -0.93750,  -0.93361,  -0.93750,  -0.93750,  -0.01252,  -0.93750
  -0.38663,  -0.16313,  -0.93750,   0.93750,   0.68713,  -0.12759,  -0.85966,  -0.38682,  -0.06399,   0.26600
   0.85000,   0.05740,   0.59532,   0.19257,   0.72895,   0.28640,   0.29705,  -0.06550,   0.39684,  -0.16606
   0.27490,   0.60953,   0.93750,  -0.93750,   0.93750,  -0.93750,  -0.93750,  -0.54443,   0.35583,   0.93750
  -0.84852,   0.63569,  -0.87005,   0.88879,   0.87852,   0.93750,  -0.73961,   0.60064,  -0.39161,  -0.47760
   0.43715,  -0.38033,  -0.93750,  -0.08286,   0.65074,  -0.80145,   0.82401,  -0.93750,   0.47445,   0.47543
  -0.93750,  -0.87302,  -0.68296,   0.14668,  -0.10096,   0.29842,   0.06251,  -0.02562,   0.67546,   0.07838
  -0.48877,   0.20788,   0.59826,   0.20727,  -0.93193,  -0.21170,   0.90137,  -0.29678,  -0.66995,   0.80834
   0.13724,   0.24209,   0.76127,   0.34622,   0.38295,   0.80457,   0.06521,  -0.00721,  -0.74084,   0.61809
   0.93750,  -0.75488,  -0.19359,   0.93750,   0.93750,  -0.93750,   0.93750,   0.93750,  -0.09908,   0.93750
  -0.33180,  -0.23082,  -0.57066,   0.06443,  -0.30829,  -0.14892,   0.69793,  -0.06109,  -0.29794,  -0.13681
  -0.93750,  -0.90182,  -0.64755,  -0.90757,  -0.90395,   0.21082,  -0.69752,   0.34853,  -0.46910,  -0.93750
   0.87332,   0.61928,  -0.93750,  -0.47170,  -0.50944,   0.25952,  -0.03110,   0.00480,  -0.79241,  -0.93750
  -0.82030,   0.57854,  -0.19664,  -0.40948,   0.31680,   0.87998,  -0.71027,  -0.86915,  -0.82353,   0.49297
  -0.51034,  -0.80368,  -0.93750,   0.46783,   0.61912,   0.10225,  -0.93750,   0.93750,   0.03119,  -0.16424
  -0.93750,   0.53558,   0.77193,   0.87328,  -0.87893,  -0.93750,  -0.65412,   0.93750,   0.05623,   0.23168
   0.93750,  -0.93750,  -0.83466,  -0.10008,   0.30064,  -0.10412,  -0.93750,   0.93750,   0.65816,   0.19784
  -0.93750,   0.19706,   0.38308,   0.71263,  -0.52400,  -0.15145,  -0.89076,  -0.08040,   0.73949,  -0.54258
   0.93750,  -0.55660,  -0.93750,   0.60791,  -0.93750,   0.93750,  -0.93750,  -0.33107,   0.61963,  -0.15850
   0.93750,   0.71220,   0.65317,  -0.93750,  -0.93750,   0.83926,  -0.70672,  -0.00207,  -0.93750,  -0.87358
   0.93750,   0.88294,   0.93750,   0.18397,  -0.14326,  -0.15063,   0.25375,   0.40889,  -0.93750,  -0.87636
   0.07190,   0.87609,  -0.93750,   0.08738,  -0.93750,  -0.93750,  -0.93750,  -0.68655,  -0.93750,  -0.76208
  -0.93750,  -0.93750,  -0.02981,  -0.93750,   0.28914,   0.07974,  -0.93750,   0.84740,  -0.93750,   0.12017
  -0.41186,   0.52102,  -0.40401,   0.27561,  -0.03917,  -0.39759,  -0.63189,  -0.11602,   0.62805,   0.45771
  -0.93750,   0.93750,   0.85464,  -0.93750,   0.32645,  -0.70905,   0.75843,  -0.87522,   0.93750,  -0.51221
   0.17519,  -0.73960,  -0.84272,  -0.65704,  -0.93750,  -0.87369,   0.45687,  -0.81635,   0.08194,   0.32149
   0.10440,  -0.70886,  -0.81503,   0.11808,   0.04430,   0.81169,   0.65820,  -0.50178,   0.10129,  -0.68000
   0.49317,  -0.03975,  -0.93750,  -0.57221,  -0.93750,  -0.93750,  -0.80402,  -0.30531,   0.93750,  -0.16896
   0.56421,   0.08104,  -0.93750,   0.68517,  -0.93750,  -0.93750,   0.93750,   0.87834,   0.14984,   0.14775
  -0.54431,   0.87127,   0.34694,  -0.55240,   0.87177,  -0.51009,   0.86898,  -0.14125,  -0.61142,  -0.49929
  -0.62956,  -0.13429,   0.93750,  -0.81933,   0.87060,   0.83255,  -0.04124,   0.14185,  -0.93750,  -0.87334
   0.93750,  -0.93750,   0.08876,  -0.59917,  -0.84251,  -0.64238,  -0.93750,   0.81980,   0.73851,  -0.31227
  -0.75919,   0.34649,  -0.86163,  -0.00686,  -0.87774,   0.80810,  -0.74273,  -0.80846,  -0.67308,   0.32392
   0.93750,  -0.11871,  -0.50977,  -0.90298,   0.13551,  -0.41530,  -0.00843,  -0.39685,   0.39124,  -0.83808
  -0.75154,   0.78027,  -0.93750,   0.47799,   0.59568,  -0.53151,  -0.93750,  -0.65173,  -0.93750,   0.23568
  -0.87064,  -0.93750,   0.93750,  -0.59169,  -0.87407,   0.85309,  -0.66678,  -0.24682,  -0.88456,   0.16017
   0.93750,  -0.93750,   0.44118,  -0.93750,   0.89520,   0.08576,   0.51009,  -0.93750,  -0.63015,  -0.21704
   0.51499,  -0.13525,  -0.82802,  -0.78483,  -0.15857,  -0.70284,   0.55451,  -0.08327,  -0.85039,  -0.68827
  -0.66839,   0.93750,  -0.15392,   0.50738,  -0.81235,  -0.87896,   0.76089,  -0.77099,   0.27821,   0.26548
  -0.45806,  -0.32804,   0.64635,   0.59689,   0.16327,   0.70849,  -0.65907,   0.27536,  -0.31462,   0.08535
   0.02804,   0.93750,  -0.15959,  -0.59623,   0.93750,   0.93750,  -0.65549,  -0.78145,  -0.86016,  -0.60602
  -0.93750,  -0.80483,   0.47480,   0.61656,  -0.62551,  -0.53028,  -0.65003,   0.93750,  -0.93750,  -0.81037
   0.76553,   0.29739,  -0.80828,  -0.56681,  -0.87445,   0.74741,  -0.18597,  -0.21751,  -0.09040,  -0.06512
  -0.68694,   0.88337,  -0.26153,   0.67564,   0.26066,   0.88568,  -0.93750,  -0.85198,   0.64818,  -0.88055
  -0.13286,  -0.40576,  -0.74791,  -0.43972,   0.93750,  -0.57264,  -0.06971,  -0.93750,  -0.12383,  -0.44685
   0.37420,   0.48726,  -0.93750,   0.93750,   0.77672,  -0.93750,  -0.93750,  -0.88154,   0.93750,   0.93750
   0.81520,  -0.53811,  -0.93698,   0.30383,   0.93750,  -0.81191,   0.93750,  -0.65428,  -0.85354,  -0.75196
   0.93750,   0.93750,  -0.01399,   0.86660,   0.53148,  -0.77459,   0.54391,   0.93750,  -0.77030,  -0.93750
   0.58742,  -0.63534,   0.76217,  -0.64295,   0.93750,  -0.93750,  -0.42333,   0.93750,   0.45662,   0.09286
   0.93750,   0.26891,   0.18139,  -0.36785,   0.93750,  -0.93750,   0.93750,  -0.83622,  -0.93750,  -0.67331
  -0.57755,   0.03100,  -0.06721,   0.37109,   0.72167,  -0.29505,   0.48308,   0.13192,   0.01124,   0.49928
  -0.86818,  -0.90586,   0.93750,  -0.93750,  -0.16447,   0.93750,  -0.72927,   0.93750,  -0.73076,  -0.03018
   0.87368,  -0.30639,  -0.20931,   0.46768,  -0.46633,  -0.65452,   0.93750,  -0.51700,  -0.31104,   0.87049
  -0.67899,   0.88299,   0.56199,  -0.81260,  -0.90737,   0.07367,  -0.19634,  -0.26976,   0.92824,   0.08541
  -0.41378,   0.93750,  -0.38153,  -0.35309,   0.19300,  -0.03677,   0.18271,   0.93750,  -0.06339,  -0.71151
   0.07914,   0.36834,  -0.67150,  -0.00487,   0.15880,   0.84765,   0.85280,   0.07988,  -0.81646,  -0.56971
  -0.40050,   0.85486,  -0.68666,   0.26221,  -0.15066,  -0.49123,  -0.08305,   0.14172,   0.39670,   0.16250
  -0.93750,  -0.93750,   0.93750,  -0.93750,  -0.66323,  -0.00562,   0.93750,   0.86422,   0.77942,  -0.55148
   0.85599,   0.09004,  -0.86734,   0.10856,  -0.11640,   0.35499,   0.35065,   0.62787,  -0.41169,  -0.24855
   0.26893,   0.50584,   0.04266,   0.69182,  -0.69087,   0.81853,   0.88268,  -0.49419,  -0.12183,   0.12075
  -0.32514,  -0.48694,   0.00192,  -0.08531,   0.80998,   0.22631,   0.71683,   0.29392,   0.02800,  -0.02208
  -0.05301,   0.91804,   0.29162,  -0.62322,  -0.68815,  -0.63192,   0.01959,   0.41518,  -0.52507,   0.03283
   0.54445,   0.75886,   0.56234,  -0.56154,   0.27003,   0.22522,   0.81179,  -0.29858,  -0.10050,  -0.45950
   0.44716,   0.43679,   0.13413,   0.73746,   0.93750,  -0.59930,  -0.14109,  -0.87877,   0.21296,  -0.64988
  -0.10603,  -0.24810,   0.46950,   0.29301,  -0.24306,  -0.04697,   0.85298,   0.82286,  -0.49327,  -0.25033
   0.46542,   0.30620,  -0.36587,   0.45048,   0.21126,   0.68846,   0.73816,  -0.21176,  -0.06376,  -0.72397
  -0.45065,  -0.14215,   0.00123,   0.93750,  -0.81163,   0.25881,   0.25628,  -0.93750,   0.81754,  -0.80393
  -0.64806,  -0.68039,  -0.35273,   0.79419,  -0.36254,  -0.03511,  -0.73879,   0.61398,   0.75098,   0.74836
  -0.51381,   0.60606,  -0.70784,   0.93750,  -0.93750,  -0.93750,  -0.93750,  -0.93750,   0.92135,   0.93750
   0.93750,   0.93750,  -0.10884,   0.29700,  -0.03810,   0.16718,  -0.37449,  -0.53582,  -0.52103,   0.93750
  -0.53428,  -0.14020,  -0.66154,  -0.93750,   0.93750,   0.10882,   0.66676,  -0.39007,   0.93750,  -0.43757
   0.14403,   0.00457,  -0.46727,   0.80604,   0.00970,   0.83181,   0.04110,  -0.69806,  -0.33604,   0.34005
  -0.71300,  -0.48685,   0.55410,  -0.42314,   0.43695,   0.88782,  -0.37565,  -0.27434,   0.48176,  -0.62782
   0.16258,  -0.62654,   0.69406,  -0.93750,  -0.22187,  -0.93750,  -0.73885,   0.18945,  -0.00742,   0.68121
   0.09495,   0.17077,   0.10655,   0.54681,   0.72321,   0.08541,   0.34437,   0.46654,   0.60808,  -0.25917
  -0.51455,   0.21528,   0.73972,  -0.93310,   0.64775,  -0.58284,  -0.78968,   0.81763,  -0.62955,   0.75031
  -0.64773,   0.29838,  -0.10971,  -0.51971,   0.63474,  -0.54708,   0.70034,   0.41369,  -0.45992,   0.04352
  -0.54799,  -0.56301,  -0.70394,   0.79966,  -0.93750,  -0.10311,  -0.22341,  -0.87397,  -0.03821,  -0.51475
   0.24107,   0.93750,  -0.83245,  -0.69617,   0.93750,   0.93750,  -0.49444,   0.92461,   0.93750,  -0.07946
   0.58359,   0.45808,   0.48894,  -0.60384,  -0.51116,  -0.28396,  -0.93750,   0.49993,   0.74630,   0.05651
   0.93750,   0.93750,  -0.72989,   0.93750,  -0.93750,   0.93750,  -0.77965,   0.32081,  -0.93750,   0.87987
   0.48257,  -0.62744,  -0.78697,   0.93750,   0.31220,  -0.69389,  -0.79695,  -0.38127,   0.41590,  -0.22519
  -0.93750,   0.84443,   0.87322,   0.93750,  -0.37592,   0.93750,   0.87412,  -0.93750,   0.91502,  -0.18580
   0.93750,  -0.46483,   0.93750,   0.38706,   0.49827,  -0.93750,   0.27826,  -0.93750,  -0.77223,  -0.93750
  -0.89603,   0.04653,   0.74728,   0.54893,  -0.83654,  -0.24418,   0.92824,  -0.38297,   0.83836,   0.02764
  -0.34690,  -0.93750,  -0.93750,  -0.68997,   0.93750,   0.33321,   0.90992,   0.93750,  -0.08185,   0.93750
   0.14722,  -0.89178,   0.09335,   0.56941,   0.63218,  -0.93750,  -0.90098,   0.93750,   0.60149,  -0.80110
  -0.80451,  -0.64436,   0.63157,  -0.81204,   0.39054,  -0.24006,  -0.41677,   0.88840,   0.68725,  -0.54124
  -0.78888,   0.41948,  -0.33864,   0.10154,   0.93750,  -0.72312,   0.93750,   0.93750,  -0.51508,   0.23233
   0.93750,   0.93750,  -0.27058,   0.93750,   0.53587,  -0.93750,   0.42580,   0.61812,  -0.83624,  -0.70066
   0.26588,   0.42834,  -0.01787,  -0.21524,  -0.19092,   0.51607,  -0.32878,   0.50438,   0.24013,   0.44566
  -0.23931,  -0.05461,   0.81904,   0.33270,   0.62537,   0.20974,   0.58626,   0.52676,  -0.55920,   0.11938
   0.48875,  -0.46069,   0.93750,   0.45406,  -0.53390,  -0.81421,   0.93750,  -0.75953,  -0.37230,  -0.12417
  -0.72458,   0.46453,  -0.23359,   0.93750,  -0.79329,   0.93750,  -0.85360,  -0.65273,  -0.93750,  -0.70268
  -0.87768,   0.93750,   0.52787,   0.70505,  -0.65562,   0.51423,   0.93750,  -0.68442,  -0.16637,  -0.93750
   0.50767,  -0.05220,   0.44111,  -0.44487,  -0.41543,   0.74534,  -0.20863,   0.16809,  -0.39537,  -0.50280
   0.40694,  -0.86923,   0.10748,   0.14899,  -0.55295,  -0.81316,  -0.70900,  -0.56074,  -0.76405,  -0.63494
  -0.54771,   0.51112,  -0.73746,  -0.69830,   0.67736,  -0.15643,   0.93750,   0.50278,  -0.84764,  -0.67304
   0.40574,  -0.48716,  -0.17859,  -0.58989,   0.27640,  -0.05489,  -0.55838,   0.35372,   0.74215,   0.65947
   0.08343,   0.79779,   0.11426,   0.15098,  -0.88157,   0.57341,  -0.17391,  -0.24543,  -0.17300,  -0.68227
   0.02336,   0.49445,  -0.67942,   0.38974,   0.50613,   0.93750,  -0.93750,  -0.93750,  -0.93750,   0.88533
  -0.42034,  -0.25495,  -0.14653,  -0.18000,   0.74250,  -0.74158,  -0.57131,  -0.87806,   0.65023,  -0.76510
   0.82174,  -0.49579,   0.46534,  -0.50268,  -0.87997,   0.93750,  -0.53758,  -0.50164,   0.29121,  -0.86880
  -0.58550,  -0.48917,  -0.81000,   0.66673,   0.23425,   0.70412,  -0.86528,   0.01101,  -0.16550,  -0.51871
   0.49741,  -0.34573,  -0.27638,  -0.80203,   0.58351,  -0.90127,   0.67529,  -0.48233,  -0.31159,  -0.82123
  -0.38096,   0.83760,   0.83228,   0.88199,   0.34679,  -0.93750,   0.61138,  -0.83245,   0.93750,   0.93750
   0.83288,   0.87233,   0.93750,   0.93750,  -0.65555,  -0.77069,   0.32395,   0.93750,  -0.82942,   0.03859
  -0.73867,  -0.26976,   0.86996,   0.63374,  -0.45050,   0.58416,  -0.64944,  -0.93750,  -0.24771,   0.93750
   0.71620,  -0.05559,   0.11447,  -0.84285,  -0.64998,  -0.65902,   0.30546,  -0.39659,   0.47905,  -0.31020
   0.53943,  -0.05892,  -0.60300,   0.62740,  -0.50045,   0.32418,   0.87102,  -0.40461,  -0.52336,   0.71668
   0.08687,  -0.93750,   0.20151,   0.01001,  -0.59444,   0.93750,  -0.93121,   0.31044,   0.93750,  -0.49875
  -0.45680,  -0.49790,   0.58532,  -0.72777,   0.09569,   0.73404,   0.29165,   0.93750,   0.09119,   0.66227
   0.17791,   0.71850,  -0.93750,  -0.87580,   0.90941,  -0.74303,  -0.18184,   0.93750,   0.93750,   0.29106
  -0.67655,   0.81820,  -0.57015,   0.36283,   0.33256,  -0.52966,   0.09293,   0.81605,  -0.25172,  -0.42168
   0.29834,   0.09246,   0.06012,   0.15677,   0.93750,   0.35780,  -0.15635,  -0.54401,  -0.93750,  -0.93750
   0.23663,  -0.42385,  -0.93750,  -0.66577,   0.93750,  -0.81693,  -0.81329,  -0.93750,   0.02839,   0.48881
  -0.47287,   0.83841,   0.19845,  -0.08255,  -0.45122,   0.31520,  -0.41654,   0.21074,  -0.62929,  -0.05059
  -0.93750,   0.93750,   0.55034,  -0.58206,   0.93750,   0.93750,  -0.93750,  -0.74678,  -0.78246,   0.56348
   0.51546,  -0.83885,   0.90533,   0.03280,   0.87880,  -0.04579,  -0.43720,  -0.61548,   0.34601,   0.66886
  -0.93750,   0.93750,   0.93750,  -0.37863,   0.20375,  -0.42854,   0.01149,  -0.15887,  -0.93750,  -0.30768
  -0.39933,   0.27265,   0.16293,  -0.24889,   0.29131,   0.32783,  -0.13661,   0.93750,   0.93750,   0.93750
  -0.58684,  -0.31202,  -0.56942,  -0.58318,  -0.35921,   0.88168,   0.80955,  -0.43713,   0.47191,   0.07043
  -0.93750,   0.86164,   0.93750,  -0.93750,  -0.93750,   0.90177,  -0.93750,  -0.93750,   0.93750,  -0.93750
  -0.50466,  -0.77836,  -0.93750,   0.93750,   0.93750,  -0.93750,  -0.88503,  -0.93750,   0.93750,   0.46655
   0.27163,  -0.73634,  -0.27765,   0.54173,  -0.18635,   0.80664,  -0.93750,  -0.16701,   0.74744,  -0.62249
   0.01776,   0.03760,   0.14148,   0.04376,  -0.53990,  -0.75586,  -0.78249,   0.92953,  -0.57626,   0.26953
  -0.93750,   0.93750,  -0.13591,   0.93750,   0.54749,  -0.93750,  -0.93750,  -0.77866,   0.71396,  -0.93750
   0.86887,  -0.23594,   0.93750,   0.11880,   0.10854,  -0.38725,  -0.81850,  -0.30047,  -0.09261,  -0.62694
   0.52788,  -0.22307,   0.81966,   0.79852,   0.87079,   0.93750,   0.46545,   0.19166,   0.87167,  -0.93750
   0.67256,   0.65414,  -0.93750,  -0.93750,  -0.92030,   0.32880,   0.79950,   0.86476,   0.41404,   0.93750
  -0.93750,   0.93750,   0.29371,  -0.22544,   0.93750,   0.33608,   0.87321,  -0.56874,  -0.26950,  -0.93750
   0.24173,  -0.83836,   0.76154,   0.78946,   0.30252,  -0.80369,   0.74611,  -0.74884,   0.86510,   0.60686
  -0.32596,  -0.80812,   0.60518,  -0.93750,  -0.34590,  -0.91279,   0.47582,   0.62917,   0.33544,   0.34339
  -0.93750,   0.92642,   0.40806,   0.21358,  -0.85186,   0.93750,   0.12717,  -0.93750,  -0.93750,  -0.93750
   0.80043,  -0.73551,  -0.64306,  -0.86550,  -0.93750,   0.46577,  -0.28168,  -0.75776,   0.73743,  -0.88734
  -0.66199,  -0.88523,   0.40697,  -0.42582,  -0.93750,   0.10996,  -0.75885,   0.71913,   0.07287,  -0.93750
   0.93750,  -0.69132,   0.93750,   0.93750,   0.93750,  -0.04993,  -0.80890,  -0.87668,  -0.93750,  -0.93750
  -0.27048,  -0.34266,  -0.81837,  -0.16026,  -0.34395,   0.59226,  -0.68249,   0.57715,   0.10374,   0.13450
  -0.41275,   0.93750,  -0.27080,   0.93750,   0.93750,   0.88215,   0.00187,  -0.48036,  -0.68022,  -0.85937
  -0.22044,  -0.41222,  -0.85387,  -0.31124,  -0.48498,  -0.87951,  -0.87471,   0.38140,  -0.46973,   0.93750
   0.45217,  -0.75447,   0.87689,   0.12671,  -0.45145,  -0.49407,   0.00168,  -0.12147,   0.08570,   0.93750
  -0.41580,   0.93750,  -0.88285,  -0.61164,   0.15410,   0.93750,   0.69782,   0.20211,   0.47738,  -0.09946
   0.93750,   0.93750,  -0.93750,  -0.68918,  -0.93750,  -0.13838,  -0.43232,  -0.18255,   0.11278,   0.19321
   0.13362,   0.05807,   0.00812,   0.85978,  -0.35068,   0.65628,  -0.17939,   0.42019,   0.53452,   0.07675
   0.93750,  -0.87097,   0.12245,   0.72944,   0.71662,  -0.86793,  -0.57988,   0.03190,  -0.87250,   0.12869
  -0.75407,  -0.93750,   0.48102,   0.26641,   0.93750,  -0.86701,   0.93750,   0.47037,   0.69263,  -0.01942
  -0.93750,  -0.92684,   0.34114,   0.93750,   0.69420,   0.71669,  -0.45579,  -0.13310,   0.80465,  -0.93750
  -0.50807,  -0.73088,   0.42766,  -0.57500,   0.84963,  -0.14140,   0.51311,  -0.57774,   0.69220,  -0.47488
   0.93750,  -0.87632,  -0.16806,  -0.62299,   0.93750,  -0.90317,   0.51847,   0.55119,  -0.15087,  -0.22571
   0.70911,  -0.81967,   0.74399,  -0.02141,   0.22038,  -0.07517,  -0.50663,   0.93750,  -0.36276,   0.88254
   0.64390,   0.56667,  -0.83426,  -0.30832,   0.25253,  -0.56313,  -0.65093,   0.81980,  -0.72649,   0.40300
   0.71802,  -0.93750,  -0.11861,  -0.93750,   0.93750,  -0.53011,   0.75975,  -0.50902,  -0.69662,   0.40412
  -0.11245,   0.88086,   0.47698,   0.45381,  -0.48927,  -0.80263,   0.74146,   0.66046,   0.86923,  -0.90432
  -0.58826,   0.88350,  -0.93750,   0.90601,   0.39286,   0.88270,   0.34026,   0.93750,   0.40741,  -0.80295
  -0.38640,   0.46276,   0.81417,   0.09918,   0.38378,  -0.17527,  -0.63643,   0.62572,  -0.10998,   0.25049
  -0.40541,   0.27897,  -0.78726,   0.33553,  -0.04834,  -0.47006,   0.61797,   0.39495,   0.01443,   0.87828
   0.71867,   0.02170,   0.38757,  -0.68822,   0.32736,  -0.06167,  -0.45366,   0.22986,  -0.81561,  -0.13313
  -0.02706,   0.03875,  -0.61679,   0.43633,   0.04807,   0.29505,   0.07671,  -0.56082,   0.23559,   0.07431
  -0.89772,   0.08579,   0.75023,   0.25432,  -0.87737,  -0.68997,   0.10207,  -0.44865,  -0.21793,  -0.88751
   0.02769,  -0.68148,   0.09590,   0.93750,   0.93750,  -0.93750,   0.93750,   0.58192,   0.93750,   0.31962
   0.93750,   0.39073,   0.11864,   0.32276,   0.02145,  -0.93750,  -0.44697,   0.65452,  -0.89636,  -0.11884
   0.93750,   0.93750,  -0.35978,  -0.93750,  -0.93750,   0.31560,   0.74666,   0.78885,  -0.09291,   0.93750
  -0.24819,   0.20803,   0.80049,  -0.27207,   0.34470,   0.30729,  -0.60816,  -0.00760,   0.19697,  -0.35368
   0.93750,  -0.93750,  -0.37275,  -0.93750,   0.04935,  -0.92047,  -0.93750,  -0.70783,   0.55823,   0.93750
   0.00093,  -0.93750,   0.24512,   0.93750,   0.93750,   0.93750,  -0.86806,  -0.93750,   0.60898,  -0.77172
  -0.12012,   0.68460,  -0.93750,   0.24396,   0.37453,   0.54977,   0.49366,  -0.93750,  -0.67158,   0.35157
   0.44015,  -0.33857,  -0.59470,  -0.70629,   0.82538,   0.88596,  -0.32601,   0.02170,  -0.33980,  -0.43405
   0.93750,  -0.38176,   0.29184,  -0.88004,   0.87205,   0.61146,   0.93750,   0.76316,  -0.43891,   0.93750
   0.87877,  -0.75198,  -0.41215,   0.32581,   0.17542,   0.87792,  -0.87002,   0.23226,  -0.56941,   0.06585
   0.93750,   0.39229,  -0.93750,  -0.83756,   0.37362,   0.42590,   0.71497,  -0.07490,  -0.35576,  -0.23469
   0.80226,  -0.11439,   0.93750,  -0.93750,   0.62074,  -0.87486,   0.16124,   0.45139,  -0.07506,  -0.93750
   0.87320,   0.93750,  -0.86751,  -0.35568,   0.57568,   0.93750,  -0.56938,  -0.28331,  -0.88778,  -0.59464
   0.41113,   0.52886,  -0.32915,  -0.38857,   0.86942,  -0.62287,   0.60177,  -0.93750,   0.61003,  -0.82806
  -0.40129,   0.40811,   0.55577,  -0.54709,  -0.48515,  -0.49219,   0.27937,  -0.65346,   0.23539,   0.93168
  -0.60134,   0.10026,   0.67057,  -0.36549,   0.81326,   0.17379,  -0.68515,   0.14717,  -0.73968,   0.31664
   0.93750,  -0.28166,   0.89181,  -0.09543,   0.93750,   0.93750,  -0.58065,  -0.93750,   0.93564,  -0.93750
  -0.42650,  -0.93750,   0.93750,   0.93750,   0.06381,  -0.93750,   0.29256,   0.93750,   0.31097,  -0.93750
  -0.69596,  -0.68635,  -0.33979,   0.80854,  -0.71915,  -0.24952,   0.11724,  -0.64143,   0.27246,  -0.52160
  -0.30430,  -0.15484,  -0.93750,  -0.27050,   0.93750,  -0.93750,   0.73362,  -0.87772,   0.71088,   0.06202
  -0.93750,  -0.46507,   0.84414,  -0.87973,   0.93750,   0.28989,  -0.89362,  -0.19603,  -0.80638,  -0.93750
   0.69666,  -0.34856,   0.89596,  -0.06903,   0.88355,   0.93750,   0.93750,   0.56326,  -0.87732,  -0.26540
   0.56299,  -0.17524,  -0.92149,   0.12249,   0.59526,  -0.46090,   0.17589,   0.65059,   0.18950,   0.16969
   0.34725,  -0.86728,  -0.93750,  -0.42134,   0.14422,  -0.93750,  -0.70437,  -0.85283,  -0.93750,  -0.88070
   0.93750,  -0.68129,  -0.93750,  -0.57717,  -0.56318,  -0.88093,  -0.80682,  -0.40247,  -0.38406,   0.17683
  -0.53326,   0.04663,   0.93750,   0.93750,   0.77344,   0.89280,  -0.88033,   0.38447,   0.07948,  -0.50542
  -0.23128,   0.58818,  -0.93750,  -0.93750,  -0.21573,   0.76352,  -0.93750,  -0.88434,   0.93750,   0.42953
   0.74188,  -0.43247,   0.07343,   0.16437,   0.53303,   0.53045,   0.58729,  -0.52760,   0.86490,  -0.55367
  -0.93750,  -0.93750,  -0.93750,   0.93750,  -0.69076,   0.01123,  -0.05450,   0.93750,   0.33668,  -0.08325
   0.38590,   0.30530,   0.24546,  -0.37989,  -0.34085,   0.34156,   0.08656,  -0.28753,  -0.02204,   0.33736
  -0.65029,   0.93750,   0.93750,  -0.20600,   0.66764,  -0.02954,   0.12235,  -0.87025,  -0.01965,  -0.85782
  -0.41684,  -0.93750,   0.93750,   0.18189,   0.48478,  -0.73122,  -0.78601,   0.15928,   0.45246,   0.93750
  -0.82588,  -0.08918,  -0.52514,   0.42646,  -0.27168,  -0.76499,   0.93500,   0.01739,   0.22132,   0.07181
   0.37634,  -0.93750,   0.56930,  -0.76155,   0.93750,   0.03457,   0.14060,   0.75124,  -0.93750,   0.93750
   0.36729,   0.93057,   0.32151,  -0.87560,   0.93750,  -0.93750,  -0.44817,   0.46791,   0.61558,  -0.87139
  -0.93750,   0.93750,   0.23968,  -0.75478,  -0.93750,  -0.58018,  -0.84332,  -0.81094,   0.93750,  -0.93750
   0.76026,   0.50972,  -0.93750,   0.93750,   0.27733,  -0.79207,  -0.47383,   0.63378,  -0.74198,  -0.75162
  -0.93750,   0.14321,  -0.11850,  -0.82355,   0.87361,  -0.93750,   0.93750,  -0.92544,  -0.77771,   0.82881
   0.88780,   0.93750,  -0.19778,  -0.11763,  -0.65065,  -0.81753,   0.24854,  -0.63742,   0.93750,   0.26991
  -0.32085,  -0.74153,   0.93750,  -0.81143,   0.93750,  -0.14035,  -0.17289,   0.93750,   0.93750,  -0.93750
   0.66258,  -0.34187,   0.00950,   0.46041,  -0.62513,   0.93750,   0.89058,   0.80019,  -0.87216,   0.69696
  -0.76821,   0.78758,  -0.73404,  -0.68224,   0.93750,   0.93750,   0.30595,   0.39167,  -0.06365,  -0.58041
   0.93750,  -0.26644,  -0.93750,   0.07098,   0.26515,   0.93750,  -0.93750,   0.37329,  -0.61585,  -0.93750
  -0.63536,   0.30624,   0.14811,  -0.13722,  -0.93750,   0.93750,   0.79300,   0.47988,   0.87869,   0.56245
   0.21270,  -0.65148,   0.93750,   0.42927,   0.86130,   0.51666,   0.33209,  -0.72540,  -0.12874,  -0.30246
  -0.80746,  -0.16439,  -0.74956,   0.93750,   0.09678,  -0.67438,  -0.64941,   0.02559,  -0.71910,  -0.74186
  -0.51937,  -0.86998,  -0.27135,  -0.81081,  -0.87044,  -0.43406,   0.30112,   0.93750,  -0.40569,   0.49331
  -0.76048,  -0.92338,  -0.93750,  -0.47608,   0.73486,  -0.69527,  -0.86855,  -0.91432,  -0.69439,  -0.47430
  -0.39288,   0.11506,   0.29286,   0.35038,  -0.21905,  -0.28709,  -0.53954,  -0.62891,   0.88535,   0.03763
   0.42811,  -0.14017,  -0.87346,  -0.16175,   0.15252,   0.87300,   0.70491,  -0.38170,  -0.20160,  -0.06118
   0.56693,  -0.87409,   0.93750,  -0.82748,  -0.93750,   0.93750,   0.43238,   0.64374,   0.23650,  -0.05095
  -0.57232,   0.32230,  -0.80181,   0.74334,  -0.62211,   0.33580,  -0.61046,   0.03128,  -0.07400,  -0.42409
  -0.93750,   0.32436,  -0.93750,   0.77770,  -0.33325,   0.35763,  -0.88481,  -0.62360,  -0.37805,  -0.85794
   0.87733,  -0.66183,  -0.93750,   0.70610,  -0.86961,  -0.60058,   0.77570,   0.90809,   0.21931,  -0.73448
   0.47095,  -0.81777,   0.57295,   0.81670,  -0.67211,  -0.93750,   0.93750,   0.39893,  -0.79662,   0.58899
   0.31351,  -0.93750,   0.68655,  -0.08529,  -0.93750,  -0.87661,  -0.70527,   0.29099,  -0.70350,  -0.93750
   0.18112,  -0.88311,   0.93750,  -0.76392,   0.47515,   0.93750,  -0.76357,   0.57941,  -0.48377,   0.93750
   0.87286,   0.93750,   0.93750,  -0.82463,   0.93750,  -0.56753,   0.51054,  -0.37397,  -0.39808,  -0.74488
   0.58015,  -0.50764,  -0.57743,   0.56350,   0.37825,   0.27784,   0.81880,  -0.12421,   0.08378,  -0.08506
   0.82839,   0.25345,   0.70624,  -0.52476,   0.04681,   0.29874,  -0.68097,  -0.29117,  -0.70500,   0.24295
   0.30430,  -0.93750,   0.23805,  -0.16583,  -0.24651,  -0.49103,   0.18719,   0.93750,  -0.73888,   0.47898
  -0.53859,   0.15086,  -0.21654,   0.93750,   0.93750,  -0.86923,  -0.81382,  -0.82616,   0.13370,  -0.82555
   0.87627,   0.62455,  -0.38620,   0.25561,   0.79799,   0.74805,   0.70655,  -0.27575,  -0.50242,  -0.45753
   0.93750,   0.02915,   0.56614,   0.90451,  -0.91111,   0.53252,  -0.88733,   0.57055,   0.49342,   0.76335
  -0.68435,  -0.87172,   0.53163,   0.55655,   0.08087,  -0.27323,   0.72402,  -0.40900,   0.58952,  -0.88078
   0.78852,   0.82189,   0.48598,  -0.89740,  -0.69250,   0.48863,   0.24221,  -0.82259,  -0.02445,  -0.74874
  -0.87246,   0.04100,   0.93750,  -0.49813,   0.26304,  -0.06887,   0.93750,   0.31774,  -0.93750,  -0.19977
   0.24967,   0.18653,  -0.93750,   0.93750,   0.50954,  -0.93750,   0.86923,   0.82438,   0.93750,   0.80882
   0.87699,  -0.69947,   0.93750,   0.93750,  -0.93750,   0.18527,  -0.19888,  -0.60499,   0.78771,   0.93750
  -0.68720,  -0.70140,   0.09084,   0.87344,  -0.30290,  -0.93750,  -0.89747,   0.84687,   0.37737,  -0.29391
   0.10411,   0.91107,  -0.27709,   0.93750,  -0.18889,  -0.41619,   0.23405,   0.76572,  -0.93750,   0.12703
  -0.83718,   0.87780,  -0.74351,   0.55954,   0.80696,  -0.59973,  -0.93750,   0.93750,   0.34541,   0.10181
  -0.71446,   0.56715,  -0.33373,  -0.51091,  -0.56064,   0.48382,   0.38822,   0.45983,   0.25431,   0.49942
  -0.93750,  -0.84409,   0.79610,  -0.93750,   0.62819,   0.64806,   0.93750,   0.93750,   0.93750,   0.93750
   0.72234,  -0.16575,  -0.00059,  -0.22327,  -0.16188,   0.75267,   0.37152,  -0.19725,  -0.08809,   0.15093
  -0.53647,   0.69459,  -0.93750,   0.87191,   0.39091,  -0.57727,  -0.12438,   0.17132,  -0.34187,   0.93750
  -0.71885,  -0.87780,   0.69884,  -0.81069,  -0.22405,   0.53253,  -0.93750,  -0.93750,   0.89692,  -0.58216
  -0.32084,  -0.07130,   0.92885,   0.34562,  -0.93750,  -0.31951,   0.24658,   0.46024,  -0.93750,   0.59376
  -0.93750,   0.21185,  -0.25948,  -0.46551,  -0.93750,   0.93750,  -0.23753,   0.30157,   0.51454,  -0.93750
   0.32628,   0.93750,   0.03747,  -0.93750,  -0.51910,  -0.43221,   0.34497,  -0.93750,   0.93750,   0.87667
   0.12953,   0.63840,  -0.22006,   0.05025,   0.32469,  -0.93750,  -0.61605,   0.93750,  -0.93357,  -0.80682
   0.18616,   0.87271,   0.31334,  -0.88535,   0.60263,   0.74466,   0.93750,  -0.68577,  -0.17442,  -0.54472
  -0.29157,   0.93750,   0.31902,  -0.24480,   0.14655,   0.93750,  -0.26563,  -0.86981,   0.45914,   0.88264
  -0.92840,   0.93750,   0.65265,  -0.34006,  -0.00055,   0.15221,  -0.78123,  -0.38781,  -0.09188,   0.22523
   0.08254,   0.12754,   0.72242,  -0.45570,   0.23443,   0.87451,   0.16228,   0.54329,  -0.57263,  -0.13211
   0.63927,   0.32085,  -0.32659,   0.93750,   0.93750,  -0.93750,  -0.93750,  -0.43202,   0.93750,  -0.67500
  -0.60581,  -0.41579,  -0.88002,  -0.62675,   0.12395,   0.93750,  -0.72023,  -0.93750,   0.93750,  -0.30795
  -0.93750,   0.88726,  -0.65578,   0.93750,  -0.88739,   0.12233,   0.88752,   0.64024,   0.46127,  -0.50380
   0.93750,   0.71403,  -0.46058,  -0.46248,  -0.63098,   0.47987,   0.93750,   0.93750,   0.93750,   0.05384
  -0.65422,  -0.35551,  -0.44666,  -0.84791,   0.50396,   0.55814,   0.66801,   0.93750,   0.07776,   0.17338
  -0.08378,   0.45343,   0.27073,   0.11062,   0.82076,  -0.40847,  -0.01576,  -0.84088,   0.55822,   0.56341
   0.28950,  -0.93750,  -0.93750,   0.59565,  -0.93750,  -0.93750,   0.10246,   0.62723,  -0.03284,  -0.73357
   0.93750,   0.93750,  -0.02791,  -0.18274,   0.73263,  -0.66213,  -0.80865,  -0.27067,   0.88202,  -0.17449
  -0.60306,  -0.59384,   0.46604,   0.23725,   0.30954,  -0.10055,   0.75311,   0.66000,  -0.36113,   0.53947
   0.93750,  -0.66273,  -0.93750,  -0.93750,   0.06545,  -0.93750,  -0.49357,  -0.48679,  -0.68700,  -0.50389
  -0.14780,   0.90096,  -0.81139,  -0.55608,  -0.66400,  -0.56701,  -0.35158,   0.18113,  -0.26801,   0.93750
  -0.21286,   0.62738,  -0.64547,  -0.38675,   0.20313,   0.42745,   0.45242,   0.43984,  -0.28255,   0.93750
  -0.69551,   0.04037,  -0.02425,   0.85315,  -0.80139,   0.55812,   0.43841,   0.05082,   0.93750,   0.93750
   0.07328,   0.66262,  -0.52655,   0.54084,   0.16107,   0.00317,  -0.50514,   0.39336,   0.27441,  -0.44143
   0.40058,  -0.93750,  -0.75187,   0.87447,   0.93750,  -0.93750,   0.77936,   0.02956,   0.53505,  -0.86902
   0.85974,   0.02826,   0.11346,  -0.45998,   0.93750,   0.93750,  -0.87731,   0.43907,   0.25864,   0.80581
  -0.84945,   0.08699,  -0.85281,   0.89373,  -0.15068,  -0.93750,   0.93750,  -0.93750,  -0.83750,  -0.93750
  -0.34151,  -0.16274,   0.21802,  -0.70031,   0.72974,  -0.58226,  -0.24735,   0.93750,   0.51605,   0.18011
  -0.93750,  -0.50578,  -0.78962,  -0.73754,   0.39261,   0.40225,  -0.68506,  -0.39696,   0.40569,   0.93750
  -0.04961,   0.12589,   0.30524,  -0.49723,   0.93750,  -0.77180,   0.86938,  -0.49551,   0.19603,   0.52384
  -0.79457,   0.88262,  -0.41085,   0.55543,   0.01384,   0.68380,  -0.36258,   0.05593,   0.74209,  -0.37595
  -0.20992,   0.06658,  -0.79631,  -0.58768,   0.93750,   0.12385,  -0.88152,  -0.22386,   0.17387,   0.02124
  -0.93750,  -0.55914,  -0.18329,   0.10881,  -0.88114,   0.58202,  -0.47540,   0.80960,  -0.61653,  -0.93750
   0.77892,  -0.67739,  -0.61414,   0.48864,  -0.38180,   0.93750,  -0.74383,  -0.32557,  -0.87191,  -0.02671
  -0.81674,   0.93750,   0.39127,  -0.73477,   0.44762,  -0.00485,   0.82015,  -0.93750,  -0.93750,   0.93750
   0.30475,   0.10951,  -0.53250,   0.39342,  -0.30239,  -0.70943,   0.05905,  -0.37409,   0.73470,   0.40386
  -0.93750,   0.02273,   0.74896,   0.48486,  -0.93750,   0.93750,  -0.12689,  -0.74729,   0.05642,  -0.14230
   0.35680,  -0.40923,   0.59009,  -0.03073,  -0.16125,  -0.02786,  -0.32954,  -0.00652,   0.36692,   0.32571
   0.81246,   0.93750,  -0.93750,  -0.92223,  -0.72180,   0.63037,  -0.88804,  -0.38482,  -0.93750,   0.04413
  -0.05949,  -0.66553,  -0.17835,  -0.36060,   0.87500,  -0.60332,  -0.65542,   0.86998,   0.86847,   0.87032
  -0.44400,  -0.08380,  -0.61514,  -0.56691,   0.88300,   0.23888,   0.23601,  -0.87482,   0.42880,  -0.42709
   0.64052,  -0.27035,   0.22000,  -0.01231,   0.05884,  -0.12528,  -0.10116,   0.40889,  -0.04066,   0.50710
  -0.79690,   0.62892,  -0.93750,  -0.69845,  -0.46675,  -0.14286,  -0.87816,   0.93750,  -0.93750,   0.93750
   0.93750,   0.84406,   0.93750,   0.93750,  -0.93750,   0.93750,   0.64417,  -0.71463,   0.32888,  -0.79971
  -0.93750,   0.93750,   0.77566,  -0.55207,  -0.60587,   0.74873,   0.35984,  -0.73047,  -0.49900,  -0.93750
  -0.93750,  -0.87511,   0.08201,  -0.20501,   0.46507,   0.93750,   0.55323,   0.37491,  -0.87139,  -0.22059
  -0.20444,   0.43686,  -0.71819,  -0.19538,   0.70179,  -0.60266,  -0.93750,   0.44615,  -0.82309,   0.08294
   0.21976,  -0.35864,   0.04700,   0.54257,  -0.80519,  -0.93750,  -0.61524,   0.35144,  -0.93750,  -0.48349
  -0.93750,   0.93750,  -0.61757,  -0.60663,  -0.93750,  -0.93750,  -0.93750,  -0.93750,  -0.93750,  -0.45796
   0.33741,   0.26949,   0.93750,  -0.09308,  -0.93750,   0.93750,  -0.16668,   0.93750,   0.27953,  -0.70396
  -0.43901,   0.81293,   0.73270,   0.79146,  -0.44883,   0.21975,   0.88190,  -0.56880,  -0.00050,   0.87071
   0.63934,   0.42149,   0.87272,   0.02154,  -0.34726,  -0.20126,   0.55360,  -0.60969,  -0.24170,  -0.28123
   0.58978,   0.90456,  -0.93750,  -0.93750,   0.10996,   0.93750,  -0.93750,   0.27293,   0.59649,  -0.93750
   0.47277,  -0.38198,   0.88804,  -0.62124,   0.88830,  -0.86892,  -0.64140,   0.39986,  -0.27577,   0.75247
   0.93750,  -0.41090,   0.03912,  -0.93750,  -0.08264,   0.24414,  -0.42021,  -0.24921,  -0.83862,  -0.54345
   0.14504,   0.93750,   0.93750,  -0.32652,   0.85248,  -0.75380,  -0.93750,  -0.34543,  -0.93750,   0.01427
  -0.68586,  -0.93750,   0.67765,  -0.80480,  -0.85880,   0.42045,  -0.93750,  -0.62168,  -0.92136,   0.34037
   0.93750,  -0.93750,  -0.04062,  -0.90602,  -0.93750,  -0.63048,  -0.14293,  -0.15662,  -0.93750,   0.61616
   0.75640,  -0.93750,   0.93356,   0.93750,   0.93750,  -0.93750,  -0.72816,   0.93750,   0.79747,   0.93750
  -0.47440,   0.59895,   0.93750,   0.01900,   0.36769,   0.93750,  -0.93750,  -0.87954,   0.21772,  -0.88159
   0.93750,   0.93750,  -0.24498,   0.15601,  -0.79749,  -0.44598,   0.93750,   0.93750,  -0.83060,  -0.50395
   0.13229,  -0.22304,   0.40509,   0.59372,   0.75793,   0.20092,   0.54670,  -0.22101,   0.38836,  -0.13566
   0.82893,   0.93750,  -0.60060,  -0.65297,  -0.18899,   0.06803,   0.62562,   0.39098,  -0.35552,   0.11598
   0.93750,  -0.93750,   0.84250,   0.27922,   0.75031,   0.78491,  -0.88176,  -0.66798,   0.20070,  -0.66292
   0.45229,  -0.93750,  -0.67765,   0.87301,   0.29100,   0.93750,   0.55984,  -0.34246,  -0.72412,  -0.05122
  -0.65962,   0.11234,   0.32895,  -0.66000,  -0.42086,   0.54742,   0.70855,   0.47957,   0.08482,  -0.50785
   0.70700,   0.69800,  -0.06811,  -0.38974,  -0.63233,   0.60691,   0.77841,   0.88207,  -0.68531,   0.00287
  -0.11042,   0.60320,  -0.12894,  -0.01606,   0.57243,  -0.11866,  -0.52317,  -0.35185,  -0.17864,   0.63429
   0.42203,  -0.93750,   0.05969,   0.01653,  -0.93750,   0.73450,   0.00935,   0.72744,   0.66637,  -0.05829
  -0.93750,  -0.51131,  -0.86278,   0.34561,   0.39934,   0.91566,   0.08676,  -0.17171,  -0.34671,   0.21331
   0.38003,   0.34469,   0.93750,  -0.35618,  -0.93750,  -0.04251,   0.02822,  -0.13387,  -0.13300,  -0.93750
   0.75872,  -0.93750,   0.26742,   0.14359,   0.90356,  -0.87715,  -0.93750,  -0.62615,  -0.21513,   0.19922
  -0.77158,  -0.00465,   0.21191,  -0.82958,  -0.93750,  -0.62596,   0.93750,  -0.62145,  -0.06108,  -0.92705
   0.93750,  -0.93750,  -0.15110,  -0.81696,   0.93750,  -0.93750,   0.93750,   0.93750,  -0.93750,  -0.72031
   0.92131,   0.93750,   0.93750,  -0.93750,  -0.93750,   0.70672,   0.93750,   0.05035,  -0.14247,   0.62048
  -0.32451,   0.93750,  -0.27738,   0.58240,  -0.62516,  -0.87474,   0.93750,  -0.77468,  -0.91789,  -0.43706
   0.79116,   0.14368,  -0.57736,  -0.86639,  -0.36607,  -0.02347,   0.48118,   0.20503,  -0.36453,   0.20361
  -0.93750,  -0.93750,   0.16831,   0.58546,  -0.93750,   0.66662,  -0.93750,   0.93750,  -0.25764,  -0.93750
   0.87657,  -0.84631,  -0.86641,   0.47413,   0.62653,  -0.93750,  -0.80600,   0.65029,   0.25531,   0.61583
  -0.06115,   0.80716,  -0.57299,  -0.19092,   0.23866,   0.77463,   0.86996,   0.26865,  -0.12583,  -0.63555
   0.38412,   0.93750,  -0.01334,  -0.86918,   0.93750,  -0.04943,  -0.93750,   0.93750,   0.36166,   0.63517
  -0.76045,   0.73110,  -0.85044,   0.28628,   0.77086,   0.85670,   0.15497,   0.14959,  -0.11955,  -0.23762
   0.77114,  -0.35737,   0.80055,  -0.19954,   0.36481,   0.40634,  -0.67455,  -0.93750,   0.36102,  -0.87079
   0.42266,   0.01667,   0.27546,   0.36466,  -0.04615,   0.26504,   0.12118,   0.08015,   0.72896,   0.40227
  -0.93750,  -0.87244,   0.21237,  -0.05319,   0.93750,   0.87683,   0.87757,   0.93750,   0.35911,   0.88257
   0.93750,  -0.03048,   0.31498,  -0.93750,  -0.93750,   0.44516,  -0.93750,   0.11368,   0.59096,  -0.93750
   0.50178,   0.73284,   0.70810,  -0.31805,   0.51929,   0.57453,   0.49841,  -0.93750,   0.88160,  -0.55743
   0.93750,   0.93750,   0.27211,  -0.57976,   0.15424,  -0.93750,  -0.12552,  -0.01245,  -0.93750,  -0.31101
  -0.93750,   0.29730,   0.80374,   0.11462,   0.00850,   0.12129,  -0.93750,  -0.57460,  -0.76423,  -0.11845
   0.44427,   0.52414,  -0.52640,  -0.20440,  -0.65825,   0.60588,   0.24373,  -0.30826,   0.64024,  -0.19790
  -0.63357,   0.81359,   0.38127,  -0.67078,  -0.05555,  -0.86039,   0.67128,  -0.54648,   0.15724,  -0.44715
   0.93750,  -0.35353,  -0.93750,   0.49975,   0.48528,  -0.93750,  -0.14535,  -0.93750,   0.07548,  -0.93750
   0.67906,  -0.02509,  -0.60243,   0.06573,  -0.65275,  -0.34016,   0.74621,   0.58925,   0.36246,  -0.16759
   0.60802,   0.30791,   0.06140,  -0.57921,  -0.11918,   0.25075,   0.01689,   0.86992,  -0.35560,  -0.63551
   0.61558,  -0.39055,  -0.69134,   0.14204,  -0.14494,  -0.19379,   0.58010,  -0.21920,   0.61408,  -0.12722
   0.81323,  -0.74932,   0.05387,  -0.93750,   0.39174,   0.89887,  -0.17286,  -0.79630,  -0.72782,  -0.44160
   0.31060,   0.09222,   0.58088,   0.53597,   0.42070,   0.43278,   0.73735,  -0.02318,   0.66843,  -0.05177
   0.28050,   0.93750,  -0.00347,  -0.93750,   0.35262,   0.17852,  -0.00289,   0.68071,  -0.25818,  -0.93750
  -0.29310,  -0.35775,  -0.07898,   0.67743,   0.20609,   0.38265,   0.75282,  -0.67573,  -0.04854,  -0.15050
   0.93750,  -0.44701,  -0.74308,  -0.08329,   0.78164,   0.19699,   0.09783,  -0.35866,  -0.71481,   0.26380
  -0.63055,  -0.49925,   0.73333,   0.23413,   0.62337,   0.83879,  -0.35719,  -0.68275,   0.58222,  -0.11107
  -0.10695,  -0.16616,   0.79485,  -0.02635,   0.00798,   0.54065,   0.45170,  -0.75884,   0.58100,  -0.75719
   0.00183,  -0.89899,  -0.59152,  -0.61653,  -0.65227,   0.93750,   0.93750,  -0.93750,  -0.03247,  -0.46523
  -0.28451,   0.93750,  -0.87177,   0.01278,  -0.63613,  -0.67976,  -0.29577,   0.27888,  -0.37765,  -0.69550
  -0.73367,   0.83096,  -0.93750,  -0.75549,  -0.93750,  -0.49406,   0.42816,   0.25565,   0.19052,  -0.61164
   0.50860,   0.40744,  -0.66679,   0.80148,   0.68839,  -0.69938,   0.21557,   0.23673,   0.86689,  -0.62343
  -0.67231,  -0.29169,  -0.74793,  -0.40742,   0.93750,  -0.41589,   0.73936,   0.54151,  -0.93750,   0.80744
   0.09786,  -0.87208,   0.10117,   0.54217,  -0.93750,   0.93750,  -0.93750,  -0.93750,  -0.93750,  -0.93750
  -0.12736,   0.19775,   0.84131,   0.01590,   0.80531,   0.18839,  -0.04783,   0.00522,   0.20155,  -0.17665
  -0.87857,  -0.14058,  -0.93750,   0.06472,  -0.33747,   0.87398,   0.63986,  -0.55958,   0.49729,   0.17480
   0.79426,  -0.15126,   0.06786,   0.93750,   0.93750,  -0.68157,  -0.54876,   0.93750,  -0.87321,   0.09211
  -0.85191,   0.45436,   0.92903,   0.01394,   0.93611,   0.41275,   0.23059,  -0.01227,  -0.91491,  -0.92625
   0.48699,  -0.06111,  -0.67830,   0.93750,  -0.93750,   0.34135,   0.93750,  -0.93750,   0.59619,   0.47436
  -0.03121,   0.52131,  -0.23642,   0.82569,   0.24585,  -0.87886,  -0.68392,  -0.80544,  -0.66084,  -0.06197
  -0.87632,   0.82126,  -0.66741,   0.87746,   0.87653,  -0.55840,   0.50086,  -0.18097,  -0.48486,  -0.41813
  -0.59140,   0.37995,   0.73636,  -0.10474,   0.69732,  -0.93750,  -0.93750,  -0.75954,   0.49653,   0.42020
  -0.93750,  -0.78377,   0.15070,   0.55634,   0.01968,   0.77156,   0.93750,   0.93750,  -0.79852,  -0.79436
  -0.39172,  -0.50898,   0.75489,  -0.93750,   0.13535,  -0.57722,  -0.54710,   0.93750,  -0.93750,   0.63898
   0.93750,   0.56908,  -0.93750,   0.93750,   0.93750,   0.12545,  -0.93750,  -0.92660,  -0.88035,   0.93750
  -0.63455,  -0.74934,   0.75411,   0.93750,  -0.93750,  -0.58492,  -0.86284,   0.61004,   0.69279,  -0.09138
   0.38869,   0.29397,  -0.93750,  -0.85615,  -0.81192,   0.87622,  -0.61810,  -0.73016,  -0.04837,   0.11557
  -0.93750,  -0.93750,  -0.08558,  -0.01845,   0.93750,  -0.93750,  -0.74200,   0.08483,  -0.84119,  -0.93750
  -0.21375,   0.67766,   0.61314,   0.36898,   0.04098,   0.48094,   0.85742,  -0.22387,  -0.08897,  -0.11486
   0.43077,  -0.22075,   0.39249,   0.93750,   0.04767,   0.09469,  -0.72857,   0.33447,  -0.20877,  -0.17211
   0.31476,   0.13762,   0.29886,  -0.61429,   0.20403,   0.69665,   0.34137,   0.34815,   0.49301,   0.34405
  -0.12538,   0.83042,   0.93750,  -0.93750,   0.49954,  -0.39603,  -0.93750,  -0.18229,  -0.93750,   0.93750
  -0.93750,  -0.93750,  -0.93750,   0.93750,   0.93750,  -0.10702,  -0.61777,  -0.93750,   0.29898,   0.91269
  -0.93750,  -0.80703,  -0.48101,  -0.38613,   0.93750,   0.65664,  -0.93750,  -0.64650,  -0.87018,  -0.93750
   0.68938,   0.77295,   0.93750,  -0.83350,   0.86082,   0.43409,   0.68619,  -0.15578,  -0.93750,  -0.75294
   0.68045,   0.10579,   0.61577,  -0.70272,   0.37418,   0.24176,   0.22341,  -0.12062,   0.55158,   0.58177
  -0.55646,  -0.54471,   0.49472,  -0.57531,  -0.32324,   0.00394,  -0.59068,   0.93750,   0.87493,  -0.50070
  -0.93750,   0.14730,  -0.93750,  -0.93750,   0.93750,  -0.93750,  -0.26122,   0.86560,   0.24711,   0.53743
  -0.07212,   0.73228,   0.50187,   0.25382,  -0.33546,   0.87991,  -0.20699,   0.59288,  -0.88048,  -0.25795
  -0.17990,  -0.06482,   0.93750,  -0.87641,  -0.74736,   0.38339,  -0.87214,  -0.80602,   0.93750,   0.79668
  -0.17394,  -0.41106,   0.40233,   0.28034,   0.41703,  -0.15539,   0.48294,  -0.00850,  -0.51165,   0.47271
  -0.20357,   0.93750,  -0.56829,  -0.20744,   0.93750,  -0.93750,  -0.81205,  -0.93750,  -0.90152,   0.93750
  -0.25846,  -0.31510,  -0.65797,   0.39846,   0.26146,   0.56740,  -0.58035,   0.87138,   0.82146,  -0.39584
  -0.61572,   0.88978,  -0.64052,   0.73025,  -0.76788,   0.36951,  -0.65385,  -0.80993,   0.30965,  -0.73610
   0.80791,  -0.19791,   0.68816,   0.26931,  -0.50022,  -0.39019,  -0.81109,  -0.24649,  -0.81872,  -0.39120
  -0.88160,  -0.70217,  -0.44771,   0.40538,  -0.84698,  -0.39604,  -0.13631,   0.93750,   0.83694,  -0.10658
  -0.93750,   0.74392,   0.13706,  -0.87134,   0.08305,   0.56934,   0.93750,  -0.47853,   0.93750,  -0.90504
  -0.75487,  -0.24840,  -0.23504,   0.81421,  -0.67938,  -0.76278,  -0.30178,   0.18560,   0.22459,  -0.47890
   0.03724,  -0.81904,   0.93750,  -0.93057,  -0.93750,  -0.47893,   0.93750,  -0.81122,  -0.71528,   0.64039
  -0.93750,  -0.51242,   0.93750,  -0.87753,  -0.93750,   0.39517,  -0.39115,   0.93750,  -0.51432,   0.93750
  -0.80518,   0.35157,   0.93750,   0.54362,  -0.15641,  -0.13660,   0.93750,   0.75914,  -0.68711,   0.93750
  -0.41188,   0.01778,   0.93750,  -0.31563,   0.09505,   0.93750,  -0.24144,   0.62265,   0.16745,   0.93750
   0.42587,   0.72454,   0.19521,   0.93750,   0.05312,  -0.02052,   0.93750,  -0.19127,   0.93750,  -0.46561
  -0.09845,   0.01945,  -0.93750,  -0.59220,  -0.93750,   0.16270,   0.76326,  -0.52494,  -0.16836,  -0.60105
  -0.25844,  -0.87296,  -0.93750,  -0.23294,   0.93750,   0.63210,  -0.86936,  -0.44118,   0.31197,  -0.56309
   0.31828,  -0.93750,   0.14058,   0.81824,  -0.31561,   0.43124,   0.93750,   0.35003,  -0.78937,   0.43720
  -0.93750,  -0.25770,   0.10012,  -0.76149,   0.93750,  -0.93750,   0.09824,  -0.93750,  -0.05820,   0.79610
   0.80589,  -0.51486,  -0.57787,  -0.81041,  -0.39980,   0.93750,  -0.69271,   0.28429,  -0.07749,   0.31833
  -0.10500,  -0.54802,  -0.93750,  -0.04113,   0.87783,   0.68044,   0.27600,   0.47796,  -0.79793,  -0.32262
  -0.40301,  -0.93750,  -0.93750,  -0.93750,  -0.93750,   0.93750,   0.74323,  -0.93750,   0.24702,  -0.93750
  -0.93750,  -0.87357,   0.30693,   0.70037,  -0.80412,   0.93750,  -0.80454,  -0.67609,  -0.72294,   0.36729
   0.64994,  -0.12945,   0.57616,  -0.32133,   0.31164,   0.26460,  -0.34748,   0.64936,   0.37073,   0.68373
  -0.69585,  -0.06858,  -0.72167,  -0.52016,  -0.03477,   0.66364,  -0.66801,   0.81996,  -0.11214,   0.81221
   0.46331,  -0.70320,   0.93750,  -0.93750,  -0.24368,  -0.74631,  -0.25690,   0.86827,  -0.10013,   0.35887
   0.04869,  -0.81521,  -0.75926,  -0.68142,   0.93750,   0.07079,  -0.20185,  -0.57784,  -0.24471,   0.86649
  -0.51483,   0.24171,   0.46868,   0.81186,   0.37761,   0.75848,  -0.81558,  -0.48668,  -0.22509,  -0.40260
   0.93390,  -0.31545,  -0.47653,   0.27167,  -0.75000,   0.35830,  -0.57910,   0.20740,  -0.65190,   0.07093
  -0.41707,   0.85748,  -0.82531,   0.24540,  -0.63303,   0.60899,  -0.00443,  -0.83768,   0.34155,   0.78414
   0.11646,   0.59413,  -0.69566,   0.47839,  -0.57052,  -0.20157,  -0.64497,   0.53677,  -0.69621,   0.77643
  -0.47343,   0.15097,  -0.53566,   0.93750,   0.02080,  -0.93750,   0.93750,   0.93750,   0.42630,  -0.93750
  -0.76545,  -0.67498,  -0.14113,  -0.04483,  -0.72809,   0.93750,   0.93750,   0.93750,  -0.84785,  -0.86914
  -0.45897,   0.02131,  -0.93750,   0.93750,  -0.14207,  -0.81081,  -0.80753,   0.23898,   0.93750,   0.00774
   0.23490,  -0.93100,   0.93750,  -0.21261,   0.93750,  -0.93750,   0.93750,  -0.93750,  -0.43011,   0.93750
   0.14086,  -0.00769,  -0.75418,  -0.87715,   0.03890,   0.32317,  -0.93750,   0.39900,  -0.38930,   0.31063
  -0.31299,   0.93750,  -0.24664,  -0.54381,   0.93750,   0.42275,  -0.87758,  -0.63604,  -0.93750,  -0.77079
   0.93750,   0.34462,  -0.93750,  -0.82123,   0.93750,  -0.93750,   0.86783,   0.18215,  -0.68525,  -0.93750
   0.55965,  -0.33058,  -0.93750,   0.93750,   0.48461,   0.49428,  -0.64233,  -0.53621,  -0.81471,  -0.83005
   0.93750,  -0.13097,  -0.32919,   0.87545,  -0.80699,  -0.86167,   0.76562,  -0.87442,  -0.33357,   0.03416
   0.21103,  -0.87511,  -0.67689,  -0.58062,  -0.05011,   0.48381,  -0.57343,  -0.93750,  -0.47563,   0.60566
  -0.87145,  -0.89463,   0.64275,   0.87491,   0.02212,   0.00745,   0.69833,   0.04871,   0.10709,   0.90919
  -0.59991,   0.35612,  -0.63622,   0.18576,   0.09097,  -0.21492,  -0.04357,   0.67723,   0.87903,   0.48208
   0.25494,  -0.93750,  -0.93750,   0.93750,   0.24533,   0.86581,  -0.93750,  -0.44406,  -0.68158,   0.55812
   0.56357,  -0.93750,   0.93750,  -0.93750,   0.04784,  -0.93750,   0.74958,   0.82829,   0.85802,  -0.93750
   0.64640,  -0.93750,   0.93750,  -0.93750,   0.13502,  -0.49460,   0.82341,  -0.23855,   0.14545,  -0.93750
   0.06470,  -0.72602,  -0.82562,   0.86965,  -0.93750,   0.11438,  -0.03984,  -0.54125,  -0.38947,   0.93750
  -0.20407,  -0.87764,   0.58847,   0.87882,  -0.93750,  -0.46540,  -0.44328,   0.93750,   0.12560,  -0.93750
  -0.35756,   0.14733,  -0.52780,  -0.73910,   0.29717,  -0.71362,   0.72610,   0.31457,   0.62235,   0.87765
  -0.36265,   0.93496,   0.16369,   0.19119,   0.21755,  -0.77962,  -0.24352,  -0.44527,  -0.07348,   0.87500
   0.53245,   0.74475,   0.93750,   0.36287,   0.86039,  -0.04374,   0.86026,   0.93750,   0.69659,   0.93750
  -0.87604,   0.64858,   0.59935,  -0.93750,  -0.87899,  -0.49683,  -0.16786,  -0.57074,   0.35560,  -0.43018
   0.16415,  -0.12883,   0.21317,   0.81928,   0.36718,  -0.56097,   0.43757,   0.24855,  -0.12845,   0.30514
   0.65897,  -0.20753,   0.33742,  -0.77482,  -0.74749,   0.93750,  -0.50438,  -0.72755,   0.80627,   0.19033
   0.44937,  -0.47830,  -0.93750,  -0.79526,  -0.02103,   0.84237,   0.93750,  -0.68472,  -0.93750,  -0.76079
   0.03905,   0.43261,   0.25494,   0.80604,  -0.55498,  -0.49423,  -0.62490,  -0.25906,  -0.61278,   0.87074
  -0.07063,   0.90936,  -0.87216,  -0.86359,   0.52872,   0.42509,   0.93750,  -0.93750,  -0.68698,   0.66659
   0.28132,  -0.93750,  -0.29510,  -0.53831,   0.93750,   0.93750,  -0.01686,  -0.64592,   0.70543,   0.62191
   0.65032,  -0.20124,  -0.02710,   0.29576,  -0.38000,   0.07085,  -0.35598,   0.51458,   0.85907,  -0.60534
   0.23694,   0.79109,   0.11176,  -0.81657,  -0.81398,   0.79411,  -0.80452,  -0.14837,   0.43861,   0.29922
   0.45869,  -0.93700,  -0.93750,  -0.88172,   0.81432,   0.80615,  -0.93750,  -0.49126,  -0.28350,   0.67774
   0.93750,   0.83448,  -0.55772,   0.93750,  -0.93750,   0.43460,  -0.86824,  -0.22445,  -0.82167,  -0.12395
   0.93750,   0.93750,   0.02018,   0.93594,  -0.87599,  -0.01851,   0.02132,   0.68125,  -0.93750,   0.93750
   0.79991,  -0.93750,   0.89404,  -0.40795,  -0.08446,   0.17775,  -0.88404,   0.54944,   0.93750,  -0.93750
  -0.93750,   0.80724,   0.87033,   0.93750,   0.63275,   0.29626,  -0.50661,  -0.89002,   0.73945,  -0.29239
   0.28508,  -0.81222,   0.87796,  -0.75565,   0.93750,   0.09398,   0.38701,   0.89605,   0.19160,   0.54195
  -0.36346,  -0.24811,   0.87366,  -0.73799,   0.62086,  -0.63252,  -0.64300,   0.58956,  -0.30736,   0.27948
  -0.78868,   0.85231,  -0.87885,   0.73879,   0.93750,  -0.93750,  -0.79087,   0.48179,  -0.91562,   0.87199
   0.17956,   0.40917,  -0.05594,   0.39092,  -0.01559,   0.58978,  -0.93750,   0.13903,   0.08147,   0.63556
   0.93750,   0.23219,   0.71616,  -0.06879,   0.93750,   0.66204,  -0.72950,   0.93750,  -0.06571,  -0.74985
  -0.81078,   0.48300,  -0.82058,  -0.04768,   0.93750,   0.77800,  -0.93750,  -0.93750,  -0.88326,   0.93750
  -0.93750,   0.00165,  -0.06536,  -0.58709,  -0.93750,  -0.10558,  -0.93750,   0.22214,  -0.93750,  -0.69327
   0.87268,  -0.87707,   0.93750,  -0.45617,   0.60091,  -0.17738,   0.06287,   0.32403,  -0.55643,   0.87172
  -0.25506,  -0.43105,   0.75314,   0.88369,  -0.17974,   0.84742,   0.23935,  -0.13659,  -0.48265,   0.47747
  -0.55935,  -0.45025,   0.07969,   0.40625,   0.56635,  -0.06177,   0.42595,  -0.29570,   0.62083,  -0.64577
  -0.93750,  -0.69129,  -0.93750,  -0.61899,  -0.51585,   0.93750,   0.14863,   0.08539,   0.37752,   0.90798
  -0.36551,  -0.86975,  -0.17813,   0.58601,  -0.91928,  -0.85317,  -0.93750,   0.93750,  -0.43978,   0.72596
   0.93750,   0.18865,  -0.93750,   0.14745,  -0.70241,   0.64278,   0.38246,   0.87464,  -0.85782,   0.87752
  -0.87048,  -0.93750,   0.06984,  -0.04817,   0.76779,  -0.85083,  -0.72613,   0.67326,   0.04962,   0.50154
  -0.81402,  -0.00718,   0.12170,  -0.62133,   0.59951,  -0.76766,  -0.44950,  -0.59726,   0.03882,   0.69857
   0.32570,  -0.75518,   0.45353,   0.93750,   0.80909,   0.87764,  -0.56611,  -0.90244,  -0.36503,  -0.82886
  -0.93750,   0.93750,   0.33281,  -0.24969,   0.59145,  -0.93750,  -0.83865,  -0.93750,  -0.93750,  -0.72645
   0.21514,   0.08313,   0.93750,   0.76234,  -0.47590,  -0.40158,  -0.54224,  -0.07806,  -0.38381,  -0.19955
  -0.36086,  -0.93750,  -0.10659,  -0.06298,  -0.58837,   0.57088,  -0.93750,   0.85294,   0.56515,  -0.13031
  -0.42395,  -0.10364,  -0.86734,  -0.47112,  -0.62938,  -0.81681,  -0.29885,  -0.39539,   0.01203,   0.93750
  -0.93750,   0.40553,  -0.93590,  -0.57605,  -0.93750,   0.93750,   0.29066,  -0.09880,   0.88489,  -0.49906
  -0.93750,  -0.93750,  -0.56918,   0.01722,   0.81549,   0.93750,   0.46277,  -0.43921,  -0.74282,  -0.11404
   0.89351,  -0.00092,  -0.38103,   0.75793,   0.89469,  -0.93750,  -0.93750,   0.23540,   0.93750,   0.05974
   0.12696,   0.80370,   0.87182,   0.19858,  -0.59611,   0.87918,  -0.04492,  -0.02587,  -0.87842,  -0.93739
   0.87663,   0.76065,   0.24735,  -0.76394,   0.53729,   0.46888,   0.53326,  -0.25546,  -0.15661,  -0.68739
