  -0.24733,  -0.39122,   0.74614,  -0.60077,   0.47960,   0.32904,  -0.20201,   0.48667,  -0.70576,  -0.51986,   0.33577,   0.40544,  -0.55166,   0.04642,  -0.15091,  -0.40371,   0.58525,   0.61782,  -0.19425,  -0.48344,   0.24473,   0.69383,  -0.25659,  -0.12062,  -0.11065,  -0.90913,  -0.39661,  -0.10116,  -0.19659,  -0.61729,   0.58121,  -0.19788,  -0.65423,   0.22859,  -0.46138,   0.89685,  -0.00437,   0.28871,   0.21887,  -0.26741,   0.84350,   0.33299,  -0.82563,  -0.66248,  -0.56139,   0.62414,   0.87641,  -0.06113,  -0.17619,  -0.47152,   0.60051,  -0.22416,   0.76301,   0.01473,  -0.25484,   0.57554,  -0.46704,   0.37097,   0.57882,  -0.52432,   0.73071,   0.49993,  -0.43851,   0.53863,  -0.51626,   0.43258,   0.83775,   0.21535,  -0.35321,   0.48695,   0.81377,   0.17253,  -0.35062,   0.19373,   0.16462,  -0.30448,   0.36887,  -0.73936,   0.52199,   0.42418,   0.49589,   0.66189,   0.15571,  -0.81010,  -0.47360,  -0.58668,   0.36149,  -0.43787,   0.87756,  -0.68117,  -0.37364,  -0.65775,  -0.43405,   0.54384,  -0.58606,   0.85579,   0.00097,   0.47777,   0.21200,   0.21525,   0.74711,   0.47066,  -0.60052,  -0.18696,   0.49926,  -0.73835,  -0.27401,  -0.38734,  -0.27605,  -0.50613,  -0.32750,  -0.86631,  -0.65331,  -0.46075,  -0.59667,  -0.78423,   0.88104,  -0.22742,  -0.28399,  -0.16567,   0.32473,   0.56922,  -0.37141,  -0.12606,  -0.89029,  -0.05748,   0.76641,   0.08374
  -0.34173,  -0.46183,  -0.16136,  -0.75364,  -0.33018,   0.52373,   0.23490,  -0.41796,   0.77841,  -0.36406,   0.04213,   0.04769,   0.75047,  -0.35839,  -0.33644,  -0.23347,   0.31804,  -0.42739,  -0.48109,   0.88381,  -0.46873,   0.73077,  -0.61337,  -0.51724,  -0.86637,  -0.37750,   0.41195,  -0.32723,  -0.45077,   0.16768,  -0.00660,   0.58487,   0.63309,   0.04850,  -0.35099,   0.28518,   0.25147,  -0.61533,  -0.28774,  -0.35850,   0.80953,   0.58555,   0.03518,  -0.00341,   0.07689,   0.12907,   0.80328,  -0.25481,  -0.22252,   0.37505,   0.38857,  -0.29453,   0.00803,  -0.09443,  -0.06210,   0.91457,   0.79030,  -0.54661,   0.35543,   0.09153,   0.78548,  -0.31444,  -0.28569,  -0.27912,  -0.36918,   0.84671,   0.67433,  -0.34300,  -0.11725,  -0.39419,  -0.80043,  -0.58075,   0.60350,  -0.09629,  -0.61050,   0.09190,   0.10783,  -0.62047,   0.11970,  -0.67592,  -0.25511,  -0.03961,  -0.42778,  -0.12341,   0.82950,   0.03945,  -0.50275,   0.35625,  -0.55894,  -0.01285,   0.72837,   0.41975,  -0.43615,   0.68212,  -0.70888,  -0.06388,  -0.52772,   0.55085,  -0.89883,  -0.93750,   0.02362,  -0.36503,  -0.48997,  -0.46854,  -0.08820,   0.12774,   0.09058,  -0.24959,   0.34094,  -0.41527,   0.31970,  -0.57258,  -0.13217,   0.34966,  -0.47217,  -0.51935,  -0.10918,   0.09708,  -0.68002,   0.93750,   0.58960,  -0.47512,  -0.53807,   0.14652,   0.67108,   0.58451,   0.74566,   0.40499
   0.12324,  -0.53687,   0.75611,   0.61806,  -0.27079,  -0.30806,  -0.36085,  -0.12083,  -0.46469,  -0.48461,  -0.48121,   0.82936,   0.50222,  -0.25292,  -0.07725,   0.03340,   0.37192,  -0.29899,   0.90634,  -0.55682,  -0.73015,   0.18853,  -0.57008,  -0.24734,   0.39916,   0.86342,  -0.16260,   0.46264,  -0.18801,   0.37474,   0.50441,  -0.24105,   0.44099,  -0.47777,   0.80372,   0.43792,  -0.46908,   0.58663,  -0.21182,  -0.48847,  -0.63821,  -0.48234,  -0.67357,   0.61506,   0.52758,   0.44721,  -0.13702,  -0.36840,  -0.06048,   0.82625,   0.08320,   0.33805,   0.24116,   0.73196,  -0.53678,   0.82439,   0.53525,  -0.19278,   0.28196,  -0.65033,  -0.14586,   0.10332,   0.31925,  -0.29280,  -0.50643,  -0.40658,  -0.37553,  -0.60233,  -0.43423,   0.86217,   0.75617,  -0.31463,   0.12711,  -0.32084,   0.46429,  -0.63319,  -0.56814,  -0.51173,   0.74972,  -0.34723,  -0.34896,  -0.21486,   0.50212,  -0.65751,   0.17959,  -0.38647,  -0.38703,   0.92917,  -0.61148,   0.34781,   0.31136,  -0.79086,  -0.67392,   0.71967,  -0.49478,   0.68544,   0.19797,   0.49290,  -0.80956,   0.81641,  -0.46745,   0.36932,   0.17430,  -0.37889,  -0.32075,  -0.68536,  -0.53206,   0.63683,  -0.17899,  -0.02555,  -0.82872,  -0.55981,  -0.48159,  -0.70733,  -0.39952,  -0.32043,   0.93218,   0.63514,   0.80651,   0.73782,  -0.24014,  -0.43428,  -0.39863,   0.79511,  -0.78245,   0.74533,  -0.24372,  -0.70511
  -0.48502,  -0.20005,   0.02558,   0.60930,  -0.41505,  -0.69461,   0.55804,  -0.31569,  -0.46892,   0.80765,  -0.14725,   0.65953,   0.52805,  -0.04215,  -0.25905,  -0.23095,  -0.12213,  -0.53624,  -0.55406,  -0.20061,   0.16057,  -0.73750,  -0.58701,  -0.30298,  -0.51845,  -0.50397,  -0.28543,   0.59146,  -0.10028,  -0.48820,   0.55522,  -0.76785,   0.61541,   0.07354,  -0.55045,   0.26824,   0.64965,  -0.60213,  -0.05623,   0.53526,  -0.25810,  -0.29246,  -0.58994,  -0.48752,  -0.37264,   0.62935,   0.58641,   0.51583,  -0.09225,  -0.26301,  -0.58578,  -0.58634,   0.65679,   0.51723,  -0.44630,  -0.75865,  -0.22619,   0.01355,  -0.63664,   0.00573,   0.19918,   0.70787,  -0.68631,   0.81872,  -0.28166,   0.42994,   0.28151,  -0.62129,  -0.23298,   0.68564,  -0.00116,   0.27647,   0.74905,  -0.38332,  -0.11348,   0.33808,   0.81791,   0.36219,   0.18266,   0.52036,   0.63288,  -0.63582,  -0.49042,  -0.46312,   0.68373,  -0.44659,   0.56232,  -0.23009,  -0.62683,   0.41194,  -0.39864,  -0.55940,  -0.23670,  -0.06342,   0.42045,  -0.79497,  -0.56158,   0.49036,  -0.79095,  -0.52414,   0.35470,   0.02383,  -0.35265,  -0.54226,  -0.64205,   0.12175,  -0.59116,  -0.13215,  -0.40238,  -0.40878,   0.61041,   0.38184,  -0.40421,  -0.12874,   0.37762,   0.57199,  -0.37194,   0.12413,  -0.34815,  -0.06003,   0.75169,   0.73773,   0.72067,   0.46066,   0.57911,  -0.02419,   0.10403,   0.25121
  -0.29799,  -0.40921,   0.78282,  -0.20603,   0.63954,  -0.30625,   0.07679,   0.47631,  -0.55583,   0.14215,   0.13650,   0.57138,  -0.44962,  -0.24619,  -0.09491,  -0.76719,   0.05691,  -0.51011,   0.68365,  -0.60749,  -0.64082,  -0.03139,  -0.39990,  -0.24539,   0.42361,   0.34657,  -0.69823,  -0.67593,  -0.38067,   0.25108,   0.60037,   0.10924,   0.74630,  -0.07855,   0.19268,  -0.32590,  -0.38749,  -0.43464,   0.20506,   0.44026,   0.13356,  -0.33591,  -0.34690,  -0.76412,  -0.72458,   0.43486,   0.81844,  -0.48517,  -0.85287,   0.37436,  -0.40911,   0.38605,  -0.74334,   0.88727,  -0.43190,  -0.22963,  -0.03552,  -0.11734,  -0.55669,  -0.41457,  -0.52449,   0.51946,  -0.57918,   0.40486,  -0.64201,  -0.22732,   0.76154,  -0.31491,   0.23393,  -0.54635,  -0.18389,   0.86114,   0.44724,  -0.19078,   0.41136,   0.09143,   0.74373,  -0.75564,   0.42935,  -0.67368,   0.33095,  -0.32312,  -0.34083,   0.87539,  -0.70963,   0.48658,   0.33403,  -0.50507,  -0.63550,   0.31631,  -0.35515,   0.82111,   0.81835,  -0.19614,  -0.69389,  -0.50405,   0.33061,   0.68026,   0.17620,  -0.61572,   0.85371,   0.54687,   0.30091,  -0.33985,  -0.41258,  -0.18929,   0.79576,  -0.09401,   0.05794,   0.27870,  -0.81773,  -0.13088,  -0.11251,  -0.28847,  -0.25716,   0.39345,  -0.66794,  -0.11707,   0.81028,   0.45163,  -0.06279,  -0.49664,   0.02442,  -0.40385,  -0.30950,  -0.43625,  -0.44897,  -0.24581
   0.08706,  -0.20899,  -0.60338,  -0.07021,  -0.03966,  -0.31380,   0.43141,  -0.59086,   0.13054,   0.09104,  -0.24584,   0.65058,  -0.45210,  -0.61401,  -0.07864,  -0.52315,   0.46365,   0.56453,  -0.64985,   0.55213,   0.47843,  -0.67457,  -0.48466,  -0.77245,   0.55551,   0.50764,   0.52203,   0.03564,  -0.64378,  -0.74020,   0.45178,  -0.63997,  -0.67204,   0.38605,  -0.42351,  -0.53875,   0.39176,   0.87191,  -0.83068,  -0.70676,   0.79030,   0.31932,   0.49069,   0.55409,  -0.02854,   0.75757,  -0.38990,  -0.17955,   0.11911,  -0.39175,  -0.48656,   0.79006,  -0.59096,   0.70716,  -0.42135,  -0.53020,  -0.30099,   0.06045,   0.19841,  -0.56916,  -0.71278,   0.92235,   0.60897,   0.36124,  -0.62103,  -0.18802,   0.50596,   0.69068,  -0.54056,   0.42736,   0.26650,  -0.47061,   0.67940,   0.29852,  -0.28841,  -0.31691,  -0.44769,  -0.40599,   0.75915,  -0.46069,  -0.13024,   0.10579,   0.78963,  -0.49670,  -0.12463,   0.18211,  -0.14562,   0.60815,  -0.60419,  -0.06816,   0.40947,   0.64880,   0.71717,   0.04247,  -0.20275,  -0.48738,  -0.06831,  -0.21313,   0.32319,   0.65828,  -0.28702,  -0.80969,  -0.42311,  -0.03858,   0.06558,  -0.40262,  -0.45764,  -0.45570,   0.12509,   0.91525,  -0.69845,   0.35205,   0.67889,  -0.19143,  -0.30747,  -0.60285,  -0.47582,  -0.10077,   0.07015,   0.72854,  -0.00428,  -0.75006,   0.06968,   0.14041,  -0.91497,   0.80601,  -0.24412,  -0.20539
  -0.69071,  -0.37679,  -0.82948,   0.55265,  -0.61259,   0.08453,   0.72355,  -0.57076,  -0.69526,   0.34050,  -0.48749,  -0.31505,   0.52761,   0.09313,  -0.37842,  -0.05839,   0.68328,  -0.52393,  -0.15129,   0.71016,  -0.37955,  -0.79411,   0.29251,   0.79343,  -0.67534,  -0.04188,   0.72197,   0.31587,   0.00041,   0.49783,   0.52478,  -0.69102,  -0.74362,   0.39265,  -0.06333,   0.42706,   0.71794,  -0.29781,   0.53174,   0.75270,  -0.55656,   0.74491,  -0.17856,   0.87777,  -0.30151,   0.20075,  -0.57169,   0.72717,   0.45543,  -0.56146,  -0.54827,  -0.78640,   0.82353,   0.64000,  -0.24619,  -0.12725,  -0.05883,   0.25746,   0.50234,  -0.58208,  -0.81719,   0.44688,  -0.23628,  -0.03111,  -0.20816,   0.63198,   0.02352,   0.41725,   0.93336,  -0.75136,  -0.61600,  -0.10419,  -0.35033,  -0.28594,  -0.41319,  -0.51168,  -0.77249,   0.59006,  -0.37645,  -0.46922,   0.80003,  -0.21788,   0.11135,  -0.19831,  -0.45701,  -0.38607,  -0.18806,   0.58382,  -0.19731,   0.14268,  -0.67608,  -0.82927,   0.67397,   0.71656,  -0.71076,  -0.40394,  -0.41333,   0.66314,   0.42982,   0.82777,   0.88206,  -0.76531,  -0.51507,  -0.01941,   0.63644,  -0.67070,  -0.08396,  -0.32443,   0.23981,   0.50102,  -0.41993,   0.93750,   0.76977,  -0.21544,   0.00976,  -0.51574,  -0.39314,   0.34959,   0.35790,   0.39337,  -0.33750,  -0.59720,  -0.50866,   0.33959,  -0.55902,   0.28856,  -0.65111,   0.14577
  -0.51286,  -0.64423,  -0.82012,   0.36294,  -0.48792,  -0.64340,   0.71263,   0.17513,   0.08162,   0.33739,  -0.35973,  -0.63700,   0.48778,  -0.00020,   0.36449,  -0.44814,   0.82249,  -0.35847,   0.41693,   0.93750,   0.48675,  -0.82639,  -0.60488,  -0.04992,   0.58066,  -0.36057,  -0.47974,   0.55357,  -0.54649,  -0.52892,  -0.50837,   0.25858,  -0.32116,  -0.13651,  -0.07538,   0.66076,  -0.29173,   0.10441,  -0.52610,  -0.90788,   0.80504,  -0.22317,  -0.07957,   0.50720,  -0.28145,   0.25739,  -0.26928,  -0.60739,   0.79211,   0.72819,  -0.62912,  -0.92761,  -0.37612,  -0.66741,  -0.09964,   0.58977,  -0.78281,  -0.13037,   0.27701,  -0.51571,  -0.36703,  -0.33062,   0.44149,  -0.34410,  -0.55311,   0.50918,   0.71924,   0.57345,   0.86401,  -0.43081,  -0.68523,   0.92972,   0.78030,  -0.42021,  -0.74037,  -0.27016,   0.58428,  -0.51081,  -0.47724,  -0.12699,   0.58259,  -0.66556,  -0.43227,  -0.30827,  -0.63804,  -0.39459,   0.16858,   0.74991,   0.20535,  -0.10198,  -0.58560,  -0.61784,   0.86229,   0.34910,   0.76999,  -0.31065,  -0.15181,  -0.43267,  -0.30626,   0.24875,  -0.29373,  -0.44587,   0.05038,  -0.30261,  -0.07386,  -0.30713,  -0.20876,   0.74641,  -0.73794,   0.91591,   0.47696,   0.81736,   0.57319,  -0.22206,   0.12163,  -0.02772,  -0.74763,   0.10163,  -0.18500,   0.43098,  -0.32981,   0.73869,  -0.26314,   0.61510,   0.41104,  -0.42839,   0.37164,  -0.29468
  -0.60001,  -0.14642,  -0.59976,   0.52664,  -0.62046,  -0.57559,   0.78822,   0.58332,  -0.58103,   0.10582,  -0.49590,  -0.02328,  -0.62270,   0.46923,  -0.11915,   0.70312,   0.83251,  -0.18389,   0.82082,  -0.28737,  -0.05167,  -0.81893,  -0.40030,   0.25003,  -0.53639,  -0.11555,  -0.50749,   0.51884,  -0.34063,  -0.61439,   0.16637,  -0.69204,  -0.30357,  -0.53235,  -0.38758,   0.49535,  -0.49786,  -0.21897,   0.09363,  -0.60552,  -0.67118,  -0.36074,  -0.50816,   0.45109,  -0.79637,   0.06519,  -0.23775,   0.20425,   0.21035,  -0.54130,   0.42017,  -0.79010,  -0.63079,   0.54576,   0.06355,  -0.48650,   0.75341,  -0.13720,   0.07822,   0.08576,  -0.27764,   0.55268,   0.80225,   0.79922,   0.66357,   0.62795,  -0.62036,   0.48271,   0.78688,  -0.59050,  -0.55082,   0.16988,   0.70278,   0.22223,  -0.80321,  -0.17681,  -0.03891,   0.54299,  -0.21796,  -0.16534,   0.91966,  -0.57531,   0.52245,   0.05129,   0.86651,  -0.05381,   0.15524,   0.59560,   0.11681,   0.31077,   0.12218,  -0.07940,   0.77903,  -0.47178,   0.04640,  -0.74233,  -0.22022,  -0.47724,   0.12076,   0.73198,  -0.47307,  -0.45196,   0.86722,  -0.64723,   0.16641,  -0.32032,  -0.14855,  -0.22104,   0.51420,  -0.40273,  -0.78924,  -0.33348,  -0.36269,  -0.37825,  -0.66770,  -0.62719,  -0.28283,  -0.27062,   0.13445,  -0.32563,  -0.32382,  -0.34877,   0.86544,   0.41996,   0.31094,  -0.42800,   0.40596,  -0.27347
   0.68218,   0.43538,  -0.62794,  -0.77120,  -0.04165,   0.66045,  -0.74504,   0.11536,   0.76998,   0.54587,  -0.39130,  -0.48271,  -0.54085,  -0.28132,  -0.09360,   0.61369,   0.28091,  -0.65958,  -0.64405,   0.36241,  -0.03937,   0.28893,  -0.07366,  -0.41946,  -0.04410,  -0.63906,   0.03909,  -0.49396,  -0.25009,  -0.52733,  -0.77673,   0.81918,  -0.76018,   0.82875,   0.15525,   0.37502,   0.74341,  -0.76928,   0.20207,  -0.12094,   0.74797,   0.78192,   0.51704,  -0.18254,  -0.48363,   0.02422,  -0.47635,   0.73361,   0.10829,   0.51068,   0.70149,   0.35061,  -0.26882,  -0.58971,   0.72946,   0.52344,  -0.48737,   0.65555,  -0.51587,  -0.32504,  -0.26117,  -0.07803,   0.34139,  -0.18291,   0.36262,  -0.53287,   0.41440,  -0.39462,  -0.21249,   0.64405,  -0.45314,   0.72858,  -0.41391,  -0.79376,   0.43234,   0.08619,   0.54449,   0.07747,  -0.61583,  -0.64059,  -0.28012,   0.39274,   0.38125,   0.84084,  -0.86137,  -0.36974,   0.06578,   0.92884,   0.93570,  -0.38635,   0.37350,   0.06607,  -0.13477,   0.10904,   0.12132,   0.41255,  -0.48892,  -0.40592,  -0.42334,  -0.62058,  -0.24903,  -0.28098,  -0.03571,   0.20837,  -0.65943,  -0.14458,   0.47486,   0.58456,  -0.12759,  -0.62789,   0.10196,  -0.65848,   0.93750,  -0.61735,  -0.29497,   0.25347,   0.93750,  -0.37912,  -0.66723,  -0.05154,  -0.38428,   0.84747,  -0.32106,   0.02168,  -0.58151,   0.59139,  -0.32842,   0.09672
   0.62893,  -0.32010,   0.14436,   0.51998,   0.65841,   0.04661,   0.56015,  -0.10070,   0.14579,  -0.25801,  -0.37081,   0.86812,  -0.55053,  -0.14282,  -0.51437,   0.74669,  -0.02845,  -0.07965,  -0.37223,   0.70372,  -0.10895,   0.75992,  -0.27955,  -0.41213,   0.38423,   0.07225,   0.59747,  -0.85063,  -0.20299,   0.58156,  -0.22569,   0.54643,  -0.48485,   0.24460,   0.55732,  -0.43080,   0.47818,   0.42044,  -0.38665,  -0.56129,   0.64442,   0.55411,   0.03705,   0.31841,  -0.59492,  -0.26661,   0.33451,  -0.49054,   0.22178,  -0.77198,  -0.43412,   0.45639,   0.65731,  -0.65185,   0.87709,   0.57656,   0.29141,   0.39513,  -0.29012,  -0.52535,  -0.37142,  -0.54445,   0.58619,  -0.20183,  -0.89186,  -0.36450,  -0.53791,   0.87139,  -0.60289,   0.08029,  -0.30891,  -0.66701,  -0.41254,   0.74496,  -0.46235,   0.05564,  -0.40297,  -0.51831,   0.14580,  -0.42313,  -0.48948,   0.27984,  -0.56023,  -0.48892,   0.08996,   0.20871,  -0.32886,   0.77778,  -0.38467,   0.78804,   0.20139,   0.87987,  -0.45395,   0.73111,   0.91910,   0.40656,  -0.39882,  -0.14656,  -0.81786,   0.68698,  -0.54675,  -0.12886,  -0.03698,  -0.24278,   0.71313,  -0.19081,  -0.72623,   0.85336,  -0.62822,   0.28020,   0.86638,  -0.79782,   0.92676,   0.61893,   0.18238,  -0.26455,   0.89450,   0.75939,  -0.16816,   0.64576,  -0.61788,   0.23203,   0.03994,  -0.13106,  -0.52518,  -0.59325,   0.60950,   0.25306
   0.56128,  -0.09022,   0.88334,  -0.18018,  -0.33097,   0.11540,  -0.70349,  -0.46700,  -0.30337,  -0.18469,  -0.12761,  -0.37623,   0.50586,  -0.18708,   0.51217,  -0.24418,  -0.22003,  -0.64375,  -0.46405,   0.34138,  -0.63522,   0.75277,   0.66566,  -0.37127,   0.11642,   0.78407,  -0.52567,  -0.53068,  -0.37297,  -0.28339,   0.86347,   0.37417,   0.09064,   0.53785,  -0.42258,  -0.09085,   0.71604,   0.68341,   0.49447,   0.88599,   0.48091,  -0.14745,   0.07149,  -0.51844,  -0.67068,  -0.18666,   0.20353,  -0.50950,   0.93750,  -0.55591,   0.02549,   0.93750,  -0.65645,  -0.17637,   0.74482,  -0.64486,   0.28944,   0.75854,   0.40326,  -0.69668,  -0.25809,  -0.09312,  -0.13914,  -0.16613,   0.48341,   0.22750,  -0.40724,   0.02936,  -0.63486,   0.74526,  -0.59156,   0.38048,   0.22465,   0.51953,   0.58612,   0.05475,   0.78809,  -0.51841,   0.39794,  -0.31600,   0.25337,   0.07598,   0.16115,  -0.49474,  -0.56050,   0.38671,   0.01503,   0.74748,   0.65448,   0.54217,   0.85791,   0.04315,   0.06968,   0.49865,   0.11231,   0.27853,  -0.20684,  -0.62309,  -0.57297,   0.39153,  -0.49359,  -0.40185,   0.79920,   0.60849,   0.01246,  -0.50123,  -0.37983,  -0.32689,  -0.62022,  -0.79517,   0.89880,   0.65351,   0.80721,  -0.71512,   0.57444,   0.58599,  -0.24580,   0.11469,   0.13531,  -0.47818,  -0.11809,   0.67602,   0.61924,  -0.07668,   0.37896,  -0.38225,  -0.06048,  -0.12960
   0.86773,   0.37331,  -0.46220,  -0.28757,  -0.45629,  -0.34831,  -0.00581,   0.70661,  -0.17418,  -0.48762,  -0.49624,  -0.04730,  -0.28577,  -0.65567,   0.08599,  -0.50305,  -0.03557,   0.44658,  -0.07976,  -0.80496,  -0.61086,   0.64450,  -0.25487,  -0.85812,   0.26519,  -0.58497,   0.37864,   0.81848,  -0.46861,  -0.03708,   0.11355,   0.25762,   0.82116,   0.67892,   0.05338,  -0.54734,   0.16115,  -0.71736,   0.72315,  -0.52749,  -0.66958,   0.45819,  -0.08059,  -0.15317,  -0.72891,  -0.63873,  -0.41105,   0.47775,  -0.02584,   0.62227,  -0.52400,   0.61336,   0.88725,  -0.47530,   0.06368,  -0.34485,   0.49923,   0.38422,  -0.43758,  -0.01779,  -0.02317,  -0.37697,   0.01415,  -0.29808,   0.62156,  -0.60603,  -0.49023,  -0.58000,  -0.50863,   0.07929,  -0.03423,  -0.13445,   0.24163,   0.38432,  -0.40726,   0.75646,  -0.75755,  -0.59203,  -0.59592,  -0.71970,   0.25160,   0.00545,   0.74910,   0.64356,   0.93527,   0.74591,  -0.79217,   0.75355,   0.56771,  -0.75780,   0.45637,  -0.47303,  -0.86236,  -0.75325,   0.62459,  -0.54466,   0.21533,  -0.03218,  -0.33830,   0.49451,   0.67538,  -0.14597,   0.40381,   0.54156,  -0.59708,  -0.56806,  -0.14794,  -0.09438,   0.86100,  -0.76282,  -0.33725,  -0.34170,   0.36085,   0.09463,   0.26782,  -0.26369,   0.33221,   0.77073,  -0.63654,   0.05142,  -0.13010,   0.86503,  -0.54956,   0.59675,   0.46913,  -0.39313,   0.04769,   0.60001
  -0.53171,   0.35808,   0.68371,  -0.36404,  -0.46527,  -0.54339,  -0.65865,   0.39623,   0.86450,  -0.19763,  -0.17403,   0.16088,   0.62224,  -0.58428,   0.22424,   0.71072,  -0.70344,  -0.57106,  -0.47342,  -0.25621,  -0.68710,   0.35730,   0.64301,  -0.62032,   0.78241,   0.66220,   0.73877,  -0.89087,  -0.17560,   0.22516,  -0.30484,  -0.60138,  -0.34531,   0.73431,  -0.38497,  -0.69922,   0.24631,  -0.41543,   0.67321,  -0.24782,  -0.67528,   0.60994,  -0.01740,   0.66546,  -0.55114,  -0.55246,  -0.44524,  -0.23837,   0.67103,  -0.22659,  -0.51557,   0.87966,  -0.71803,  -0.52534,   0.27383,  -0.33606,   0.72711,   0.51681,  -0.01123,   0.05582,   0.39628,  -0.37621,   0.42195,  -0.44384,   0.18296,  -0.72988,  -0.40832,   0.72244,  -0.75847,   0.46669,  -0.80350,  -0.11363,  -0.61573,  -0.40548,   0.83672,  -0.24192,   0.62090,  -0.12223,   0.79687,  -0.69706,  -0.68263,   0.76558,   0.65374,   0.68342,  -0.72199,   0.86805,  -0.72961,   0.93750,   0.73042,  -0.19188,   0.27922,   0.14179,  -0.47315,  -0.58813,   0.86330,   0.00101,   0.45404,  -0.47034,  -0.13482,   0.78018,  -0.45699,   0.81440,   0.45702,  -0.02237,   0.88678,   0.28999,  -0.69666,  -0.42303,   0.13159,  -0.58433,   0.60772,  -0.09070,   0.01744,  -0.11072,  -0.27632,  -0.15873,  -0.59393,  -0.56179,  -0.65575,  -0.12109,  -0.43931,   0.25830,   0.00199,   0.10450,  -0.18927,  -0.23746,  -0.27555,   0.18525
  -0.24570,  -0.06832,   0.11554,  -0.70435,  -0.14039,   0.33040,  -0.29846,  -0.28879,   0.58377,  -0.53705,  -0.23540,  -0.55805,  -0.29785,  -0.12002,  -0.04297,   0.73395,  -0.52293,   0.58170,  -0.41832,   0.82280,  -0.38375,  -0.72656,   0.57094,  -0.61146,  -0.81042,  -0.61051,  -0.66529,   0.07264,  -0.27178,   0.28643,  -0.61375,  -0.49360,   0.57480,  -0.38846,   0.04810,  -0.53365,   0.38966,   0.39695,   0.93082,  -0.63398,  -0.42793,  -0.10340,  -0.50172,  -0.51908,  -0.07259,   0.09467,   0.39107,  -0.37272,  -0.38720,   0.55165,  -0.40174,  -0.19045,  -0.06848,  -0.28490,  -0.29813,   0.32218,   0.32394,   0.42228,   0.65917,  -0.52770,  -0.54618,  -0.41063,   0.74368,  -0.47071,   0.62009,  -0.61597,  -0.35548,  -0.32931,  -0.52912,   0.47955,   0.48486,  -0.46495,  -0.03601,  -0.56228,  -0.81450,   0.19673,   0.23499,   0.02204,  -0.60457,  -0.01241,  -0.70057,  -0.18742,   0.60698,   0.11227,   0.68072,  -0.53666,  -0.63645,  -0.85192,  -0.41114,   0.35526,  -0.39223,   0.93701,   0.90359,  -0.88882,  -0.23807,  -0.38754,  -0.20081,   0.60661,   0.28729,  -0.13002,  -0.69680,   0.27116,   0.93750,  -0.27357,   0.70731,  -0.16190,   0.47500,  -0.66504,   0.64464,  -0.75846,   0.21193,  -0.30584,  -0.35039,   0.77170,   0.59293,  -0.24200,  -0.43952,   0.00765,  -0.27194,  -0.15004,   0.60548,  -0.29797,   0.21380,  -0.16701,   0.64126,   0.69497,   0.65125,   0.26267
  -0.52418,  -0.37963,   0.20330,   0.65630,  -0.54208,  -0.51931,  -0.03626,   0.41466,   0.67289,  -0.03611,  -0.21914,  -0.57546,  -0.12182,  -0.02191,  -0.13312,   0.65905,  -0.64199,   0.81403,   0.67131,   0.60776,  -0.62538,  -0.56965,  -0.32893,   0.82743,   0.83369,   0.46695,   0.31699,  -0.30897,  -0.01094,   0.51276,  -0.76847,  -0.55917,   0.73714,   0.21192,  -0.48862,  -0.81773,   0.55824,   0.34951,  -0.63012,   0.18570,   0.33909,   0.58457,   0.48312,  -0.51045,  -0.28813,  -0.44715,   0.02267,   0.79457,  -0.69185,  -0.53295,  -0.65720,  -0.61720,   0.64042,  -0.36277,   0.74636,   0.54898,  -0.33015,  -0.04687,   0.43259,   0.64003,  -0.46099,  -0.29873,   0.32465,  -0.59527,  -0.50681,  -0.75604,  -0.63044,   0.83501,   0.85702,  -0.35651,  -0.40451,   0.10391,   0.55987,  -0.01757,  -0.02276,   0.87208,  -0.10339,   0.14023,  -0.71726,   0.71964,   0.16721,  -0.48813,  -0.26878,  -0.59069,  -0.43516,   0.04571,  -0.44586,   0.37461,   0.79310,   0.58611,   0.30437,  -0.28258,  -0.40259,  -0.59289,   0.02006,  -0.32374,  -0.40668,  -0.61861,   0.20201,   0.80326,   0.49042,   0.14525,   0.75102,  -0.18981,  -0.59822,   0.87724,   0.56235,  -0.07060,   0.80713,   0.74672,  -0.52449,   0.83139,   0.20678,  -0.20116,  -0.41161,   0.49254,   0.55501,   0.41320,  -0.60310,  -0.41615,   0.51684,  -0.00284,  -0.38822,   0.80261,   0.53687,  -0.73276,   0.02836,   0.60656
   0.61521,  -0.03880,   0.50729,  -0.25271,  -0.25524,  -0.42618,  -0.71006,  -0.31376,  -0.58398,  -0.16272,   0.28536,   0.38681,   0.61445,  -0.39818,  -0.59175,  -0.67663,  -0.42107,  -0.25673,  -0.52200,   0.23557,  -0.16966,   0.43738,  -0.52384,   0.01610,  -0.88791,   0.25214,   0.49344,  -0.48590,  -0.37584,   0.93750,  -0.83217,  -0.61829,   0.68020,   0.20050,  -0.13225,   0.27510,  -0.09060,  -0.04472,  -0.72648,  -0.50247,   0.54699,   0.08721,   0.03177,  -0.56277,  -0.34775,  -0.41913,  -0.26688,   0.48808,  -0.74403,  -0.64106,   0.29711,  -0.18333,   0.87108,   0.69019,   0.93070,  -0.43918,  -0.31010,   0.17660,  -0.59558,   0.23648,  -0.12401,  -0.23874,   0.58255,   0.80873,   0.02131,   0.14246,  -0.51744,  -0.03938,  -0.28388,   0.04131,  -0.78268,   0.25334,  -0.73166,  -0.31581,  -0.87102,   0.27815,  -0.55109,   0.84055,  -0.13112,  -0.42212,  -0.73980,  -0.62716,  -0.53902,  -0.49581,   0.76308,   0.16237,  -0.51114,   0.47788,  -0.57368,   0.04531,  -0.66380,  -0.32113,  -0.86113,  -0.55217,   0.74188,  -0.28207,   0.75444,  -0.52733,   0.72621,  -0.58234,  -0.53340,   0.05533,   0.85369,  -0.05317,  -0.66699,  -0.36975,  -0.10882,  -0.33664,  -0.74040,  -0.60299,   0.41212,   0.03703,   0.86021,   0.27678,   0.27020,  -0.40826,  -0.70764,  -0.58796,  -0.21791,   0.54318,   0.69871,   0.75409,  -0.12253,   0.48527,   0.04996,  -0.42166,   0.71963,   0.01770
  -0.49680,  -0.01274,   0.81220,  -0.65563,   0.73727,  -0.48312,  -0.44748,   0.92516,   0.27168,   0.70850,   0.13996,  -0.84092,  -0.39379,   0.26389,  -0.48721,  -0.20312,   0.47995,  -0.37058,  -0.47177,  -0.23884,   0.82482,  -0.10324,   0.17790,   0.86963,  -0.68949,   0.01903,   0.70327,  -0.45941,  -0.24496,   0.16491,  -0.49323,  -0.43265,   0.89588,   0.81150,   0.63769,  -0.61454,   0.55271,   0.65385,  -0.20260,   0.47037,  -0.02345,   0.09171,   0.93739,   0.72514,  -0.37900,  -0.01361,   0.00341,  -0.32999,  -0.72766,   0.78558,  -0.44907,  -0.35658,  -0.55213,  -0.54867,   0.49295,  -0.57765,  -0.36321,   0.14646,   0.74155,   0.21435,   0.39163,  -0.17570,   0.71445,  -0.93521,   0.06628,   0.25093,   0.61148,  -0.49256,  -0.37039,   0.53222,  -0.47980,   0.27151,  -0.19644,   0.73692,  -0.65617,  -0.42113,   0.91131,   0.86199,  -0.52932,  -0.68644,  -0.59231,  -0.15404,   0.59082,  -0.66367,   0.23122,  -0.56786,  -0.70936,  -0.77149,  -0.47408,   0.78679,  -0.63021,  -0.69021,  -0.70923,  -0.51671,   0.00567,  -0.68712,  -0.21546,  -0.48447,  -0.58153,  -0.25454,  -0.53368,  -0.63572,  -0.20009,   0.11917,   0.60169,  -0.03182,   0.00915,  -0.32399,  -0.71618,   0.76584,  -0.53686,   0.09343,   0.10968,   0.44029,  -0.41548,   0.37145,  -0.27693,  -0.49721,  -0.35548,  -0.00929,  -0.54794,  -0.25420,   0.76123,  -0.06779,  -0.45747,  -0.06367,  -0.12739,  -0.11480
   0.07501,   0.70200,   0.26962,   0.08816,  -0.04034,   0.61232,  -0.27133,   0.93750,  -0.75884,   0.42354,   0.37259,  -0.12078,  -0.38625,  -0.37312,   0.12178,  -0.15879,  -0.08523,   0.39507,  -0.22198,  -0.19100,   0.00480,   0.81654,   0.74801,  -0.11129,  -0.43622,   0.31768,  -0.51723,   0.72591,   0.71229,  -0.44703,  -0.46831,   0.60743,  -0.52314,  -0.48504,   0.49228,   0.65343,  -0.43003,  -0.67020,   0.77810,   0.61675,   0.38776,  -0.23598,  -0.06505,   0.50637,   0.69333,   0.20955,  -0.55732,   0.50757,  -0.26065,  -0.40970,  -0.18875,  -0.71156,   0.51631,   0.32920,  -0.27272,  -0.33710,  -0.56759,  -0.23783,   0.55235,   0.78736,   0.04859,   0.67671,   0.14222,   0.58207,  -0.16083,   0.38560,  -0.50024,  -0.63939,  -0.01203,  -0.51671,  -0.10707,  -0.16614,  -0.07271,  -0.50960,   0.68004,  -0.35499,  -0.55278,   0.19341,  -0.56927,   0.61274,  -0.17363,   0.57615,  -0.47268,   0.14396,   0.49992,   0.41965,  -0.44671,   0.82251,   0.57343,  -0.05266,   0.67674,   0.67606,  -0.50705,   0.22641,  -0.34358,   0.77701,   0.08236,   0.02145,  -0.22413,   0.26571,  -0.43915,   0.06132,  -0.40620,   0.45645,   0.47914,  -0.02378,  -0.60639,  -0.53495,  -0.62978,  -0.38508,   0.76504,  -0.34397,  -0.42303,  -0.47052,   0.47139,  -0.22265,   0.87500,   0.70524,   0.32184,  -0.41628,  -0.46287,  -0.61640,   0.80277,  -0.45496,  -0.83134,   0.05773,  -0.33435,   0.07281
  -0.61341,  -0.37630,  -0.14151,  -0.51147,   0.78297,   0.41383,   0.59272,  -0.49751,   0.69753,   0.49250,   0.15764,   0.26204,   0.44037,   0.25069,  -0.08287,   0.60902,  -0.18479,   0.43734,  -0.28069,  -0.30353,   0.81854,   0.71185,   0.45842,  -0.18767,   0.48667,   0.84101,  -0.62492,   0.92332,   0.87500,  -0.01194,   0.19820,   0.22982,   0.60202,  -0.35927,   0.36488,   0.87365,  -0.53938,  -0.39720,   0.70178,   0.18492,  -0.58669,  -0.32381,  -0.19042,  -0.25713,   0.24507,   0.22156,  -0.42595,  -0.35366,  -0.20831,  -0.44664,   0.31813,  -0.52184,   0.11091,  -0.47098,  -0.41074,  -0.37866,  -0.60267,  -0.28100,  -0.30141,  -0.09754,   0.23749,   0.18670,  -0.29435,   0.25362,  -0.17125,  -0.67226,  -0.04934,   0.48186,   0.48795,   0.82245,   0.16332,  -0.54032,  -0.54746,  -0.08671,  -0.14211,   0.05756,  -0.54189,  -0.00304,   0.29757,   0.11731,  -0.29790,   0.92211,  -0.11896,   0.93479,  -0.55068,  -0.24079,  -0.02651,  -0.55683,  -0.79539,  -0.38782,   0.35857,  -0.46852,   0.07762,   0.28081,  -0.39544,   0.68604,   0.76964,   0.82350,   0.93485,  -0.34904,   0.36165,   0.69898,  -0.34633,   0.68750,   0.71498,  -0.29060,  -0.17416,  -0.63716,  -0.77457,  -0.54180,   0.14801,  -0.57856,   0.31462,  -0.48084,   0.55407,   0.93639,  -0.27487,   0.88544,   0.53202,  -0.21374,  -0.51967,  -0.76058,   0.65238,  -0.37314,   0.78181,  -0.18736,  -0.43813,  -0.05344
   0.74499,   0.10659,   0.85964,   0.59097,   0.77964,   0.68706,  -0.55118,  -0.38413,  -0.33584,   0.49027,  -0.08797,  -0.30616,   0.38076,  -0.32512,  -0.35451,   0.11519,   0.22042,   0.84919,   0.37157,  -0.40195,  -0.38688,   0.29402,   0.55670,   0.85968,  -0.45883,  -0.58074,   0.34587,   0.20086,   0.76595,  -0.00234,  -0.32420,   0.67608,  -0.48281,  -0.43374,   0.45602,   0.24237,   0.01760,   0.88256,   0.13044,   0.93045,   0.02579,  -0.69251,  -0.76033,   0.11752,   0.93750,   0.15539,   0.12188,  -0.29415,   0.85091,   0.81544,   0.58565,   0.32459,  -0.79631,  -0.29266,  -0.38522,  -0.39238,   0.53407,  -0.49135,  -0.48359,   0.62920,   0.50376,   0.40817,  -0.25687,  -0.47110,  -0.11706,   0.47587,  -0.42846,   0.69376,  -0.19336,  -0.73205,   0.37021,  -0.18429,   0.51914,   0.91081,  -0.46247,  -0.36081,  -0.45738,   0.62468,  -0.66927,   0.55018,   0.45273,  -0.12855,  -0.31427,   0.17998,  -0.66564,   0.13165,   0.23696,   0.72919,   0.09779,  -0.37300,   0.86383,   0.23755,   0.67682,   0.18060,  -0.13039,   0.59016,   0.20677,   0.16639,   0.61312,  -0.73941,  -0.29749,   0.21407,  -0.16819,   0.45076,   0.02734,   0.44260,   0.80234,   0.86858,  -0.40534,  -0.30952,   0.54237,   0.27632,  -0.25508,  -0.23880,   0.79520,  -0.12518,  -0.19412,   0.89257,   0.10343,  -0.53262,   0.14440,   0.42902,   0.50079,  -0.13364,   0.72081,  -0.65799,  -0.14958,  -0.29199
   0.48817,  -0.02462,   0.55370,  -0.55731,   0.74697,   0.18879,   0.06198,   0.39817,  -0.27492,   0.68123,  -0.20531,  -0.24242,   0.22202,   0.02751,  -0.04008,  -0.15222,  -0.37683,  -0.38193,  -0.38518,   0.48885,  -0.55667,  -0.55104,   0.59632,  -0.77579,   0.58422,   0.05313,  -0.26435,  -0.54733,   0.38044,  -0.30202,  -0.30283,  -0.52578,  -0.77599,  -0.36040,   0.42115,  -0.69238,  -0.58554,  -0.34815,  -0.37070,  -0.04949,  -0.31877,  -0.55119,   0.40378,  -0.31891,   0.56787,   0.19070,  -0.44317,   0.67281,  -0.17314,  -0.53843,  -0.13924,   0.02291,   0.67475,  -0.43413,  -0.33317,   0.32402,   0.19241,  -0.34465,   0.78875,   0.91342,  -0.15162,  -0.60284,  -0.45152,   0.67890,   0.16312,   0.05663,  -0.29168,  -0.81903,   0.73102,  -0.76847,   0.09698,   0.09678,   0.34251,  -0.70847,   0.87762,  -0.02073,  -0.72322,   0.67070,  -0.64230,   0.60293,   0.57412,   0.48349,  -0.29615,   0.58981,   0.73783,   0.93750,  -0.48895,   0.66457,  -0.73208,  -0.77122,  -0.56274,  -0.75861,   0.45805,   0.20226,  -0.02589,   0.05729,   0.13976,  -0.34837,   0.31839,   0.77862,   0.81879,   0.47558,  -0.33710,   0.79201,   0.88011,   0.63882,   0.69561,   0.69514,   0.82213,  -0.26644,   0.76952,   0.63912,  -0.47961,   0.82836,   0.33539,   0.74558,   0.45470,  -0.65325,  -0.24266,  -0.44290,  -0.59522,   0.85999,   0.12123,  -0.48063,   0.64506,   0.40135,  -0.28911,  -0.24565
   0.67322,   0.49678,  -0.06392,   0.27501,  -0.16797,   0.16406,  -0.06516,  -0.53832,   0.32017,   0.11791,   0.54739,  -0.38679,   0.01645,   0.02527,   0.21046,  -0.47742,  -0.65373,   0.93355,  -0.47046,  -0.84752,  -0.26318,  -0.34408,   0.49830,   0.77349,  -0.04482,  -0.75945,   0.76364,   0.85164,   0.31475,  -0.23787,   0.71810,  -0.79441,  -0.68198,  -0.49193,   0.71204,  -0.36940,  -0.02883,  -0.42667,   0.41107,   0.56667,  -0.39225,  -0.25654,   0.40219,   0.71990,   0.13072,  -0.10690,   0.41317,  -0.53255,   0.32472,   0.90860,  -0.37748,   0.55588,  -0.63742,   0.51123,  -0.26560,  -0.39730,  -0.15132,  -0.20967,   0.74464,   0.86362,   0.52553,  -0.20923,  -0.42481,  -0.71996,   0.91655,   0.73681,  -0.00080,   0.50071,  -0.30969,   0.59910,   0.41052,  -0.01048,   0.28293,   0.12160,  -0.46308,  -0.01488,   0.73201,  -0.43433,   0.02020,  -0.43721,  -0.15490,   0.15636,  -0.53009,   0.19290,  -0.79771,   0.22300,  -0.34804,   0.85759,   0.35934,   0.48491,  -0.44575,  -0.01374,   0.56342,  -0.37147,  -0.41199,   0.49534,   0.03242,   0.27014,   0.07031,  -0.50684,   0.75927,   0.55813,  -0.52014,  -0.05242,  -0.24228,   0.70942,   0.48475,   0.34726,   0.89284,  -0.11501,  -0.46960,  -0.56608,  -0.47213,   0.64416,  -0.42484,   0.31196,  -0.90073,   0.45139,  -0.36117,   0.26539,  -0.30124,  -0.54492,   0.59084,  -0.46468,   0.76711,  -0.41881,  -0.18905,  -0.26317
   0.27931,   0.56460,  -0.74759,   0.85648,  -0.00592,   0.54212,  -0.00289,  -0.08914,  -0.37486,  -0.02037,   0.06447,   0.35065,   0.76377,  -0.14021,  -0.49273,  -0.41445,  -0.11417,  -0.28272,  -0.53770,   0.65589,  -0.38867,  -0.41259,  -0.19626,  -0.24364,   0.08768,  -0.65472,  -0.55737,  -0.00268,   0.68398,  -0.26231,  -0.02459,  -0.22155,  -0.37576,  -0.23079,   0.75856,   0.21180,  -0.29216,   0.13246,   0.04170,  -0.51963,  -0.84008,  -0.52428,  -0.21308,  -0.22572,  -0.21105,  -0.06504,  -0.19436,  -0.20371,  -0.52037,   0.72077,  -0.57557,   0.03545,  -0.54471,   0.11506,  -0.57447,  -0.00219,  -0.58971,  -0.42207,  -0.20367,   0.36582,   0.38351,  -0.29599,  -0.45989,   0.43780,   0.25307,   0.54310,  -0.18593,  -0.52729,  -0.75158,  -0.50740,   0.63046,  -0.68190,   0.18985,   0.80844,  -0.02739,   0.07929,   0.30666,   0.28620,   0.01372,  -0.54009,  -0.37354,   0.73270,   0.56355,   0.11870,   0.31544,   0.04628,   0.83617,  -0.23073,  -0.50680,  -0.35610,  -0.62657,  -0.53424,  -0.02050,  -0.01956,   0.13769,   0.21165,   0.67616,   0.19664,  -0.27071,   0.89875,  -0.26923,   0.56268,  -0.35376,  -0.25157,   0.22870,   0.69031,   0.89423,   0.53649,  -0.02552,   0.03173,  -0.72758,  -0.30564,  -0.51620,   0.54782,  -0.04413,   0.12562,   0.63490,   0.62188,   0.39384,  -0.45173,  -0.36393,  -0.12399,  -0.46936,  -0.25344,  -0.79330,  -0.21756,  -0.04201,  -0.31089
  -0.11220,   0.57456,  -0.78799,   0.25728,   0.75374,   0.51227,   0.70869,  -0.25651,   0.08325,   0.68001,   0.71279,   0.72233,   0.80583,   0.43223,   0.83265,   0.74390,  -0.21396,   0.72874,   0.87628,  -0.67430,   0.75255,  -0.53214,   0.24409,   0.92134,   0.69811,   0.32640,  -0.50564,  -0.34923,   0.41323,  -0.38152,  -0.18857,   0.25499,  -0.06878,  -0.20518,  -0.28185,  -0.49037,  -0.55020,  -0.41978,  -0.76948,   0.24945,  -0.86721,  -0.20625,   0.21376,  -0.78236,   0.61371,   0.14180,  -0.58748,   0.00861,   0.51758,   0.39503,   0.50519,  -0.69498,  -0.22356,  -0.38797,  -0.37431,  -0.75345,  -0.40392,  -0.19969,  -0.57572,  -0.07232,   0.39265,   0.44146,  -0.16268,  -0.23895,   0.76031,  -0.58785,  -0.16768,  -0.46775,   0.81302,   0.76927,   0.77811,  -0.01602,   0.09020,   0.23114,  -0.51767,   0.45354,  -0.79087,   0.00487,   0.51164,   0.59201,  -0.07029,  -0.65186,  -0.47469,  -0.51874,   0.27365,  -0.24471,   0.83400,   0.81352,   0.63086,  -0.54058,  -0.68182,  -0.45300,  -0.49788,  -0.46176,  -0.33870,  -0.55773,   0.86359,  -0.14403,   0.70409,   0.70773,   0.14207,  -0.35232,  -0.45498,  -0.36191,  -0.18756,   0.64160,  -0.13708,   0.54497,   0.62448,   0.46547,  -0.52288,   0.80130,  -0.39881,   0.06738,   0.71400,  -0.12449,  -0.66475,  -0.37583,   0.06397,  -0.10293,   0.60115,  -0.41292,  -0.37328,  -0.55898,  -0.27889,   0.55034,   0.06901,  -0.20505
  -0.58858,   0.90523,  -0.77186,   0.28665,  -0.08140,  -0.30017,  -0.41081,  -0.45502,   0.29524,   0.92542,   0.17786,   0.00716,   0.88674,   0.01134,  -0.13712,   0.32650,  -0.62972,   0.50273,   0.12861,   0.58264,   0.77490,   0.55794,   0.75505,   0.20135,   0.38154,  -0.09757,  -0.57276,  -0.57769,   0.38181,  -0.61243,  -0.05684,   0.31453,  -0.57791,  -0.34336,   0.37040,   0.16692,  -0.45253,   0.69481,   0.32914,  -0.30926,   0.74113,  -0.09975,   0.29183,   0.39305,   0.00875,  -0.04448,   0.25361,   0.27675,   0.42272,   0.92924,   0.35545,   0.13779,  -0.60459,  -0.54299,  -0.20408,  -0.03305,  -0.36126,  -0.13945,  -0.40722,   0.09246,   0.63850,  -0.41032,  -0.55079,  -0.18553,  -0.09152,  -0.61296,   0.20765,   0.82227,   0.64185,  -0.57487,   0.48331,   0.19496,  -0.37481,   0.51031,  -0.36902,   0.16815,  -0.61157,  -0.12112,   0.33282,  -0.41760,  -0.46614,  -0.71701,  -0.56182,   0.07704,   0.67434,  -0.10899,   0.08271,  -0.79318,  -0.55433,  -0.17971,  -0.18266,   0.31358,   0.55060,  -0.14152,  -0.10507,  -0.72537,  -0.30589,  -0.53187,   0.60439,  -0.45721,  -0.10270,   0.80559,  -0.55760,  -0.44204,  -0.52850,  -0.25269,  -0.09037,   0.48782,   0.74764,   0.06190,  -0.17961,   0.23123,  -0.39729,   0.70883,  -0.11674,   0.69571,  -0.50658,  -0.50088,  -0.43840,  -0.28657,  -0.24288,  -0.30997,   0.49718,  -0.18067,  -0.63788,  -0.42971,  -0.36537,  -0.46839
   0.69961,   0.55093,   0.51982,   0.65557,   0.52258,   0.18550,  -0.01196,  -0.58320,   0.79442,   0.61024,  -0.13117,   0.13504,   0.26617,   0.54921,  -0.63006,   0.61576,   0.56269,   0.13022,   0.33584,  -0.33802,  -0.62347,  -0.35850,   0.00371,   0.36456,   0.73084,  -0.13891,  -0.08137,  -0.68157,   0.51928,   0.30075,   0.11176,   0.81577,   0.72066,  -0.21553,   0.65096,  -0.32844,  -0.57148,   0.51469,  -0.54931,  -0.44406,  -0.56743,  -0.43611,   0.72117,  -0.64196,   0.71946,  -0.47010,  -0.44696,  -0.42628,  -0.00654,  -0.47708,   0.74753,  -0.32221,   0.32203,  -0.35810,  -0.31711,  -0.86741,   0.00261,  -0.31305,  -0.40251,   0.77259,   0.71166,  -0.12110,  -0.28586,  -0.28563,   0.70805,   0.09166,  -0.14743,  -0.52557,  -0.73018,  -0.30272,  -0.19887,  -0.36073,  -0.42132,  -0.44693,   0.27559,  -0.24036,   0.31186,   0.73556,  -0.04795,   0.76123,  -0.24840,  -0.56436,  -0.55471,  -0.03346,  -0.51326,   0.72305,   0.25902,   0.62033,  -0.42410,  -0.17195,  -0.59796,   0.55279,  -0.26231,  -0.41822,  -0.39194,   0.18390,   0.67115,  -0.47560,   0.20792,   0.33883,  -0.06432,   0.26066,  -0.57453,  -0.16624,   0.91159,   0.39784,   0.45333,   0.66603,  -0.51063,   0.90233,   0.70238,  -0.28026,  -0.53816,   0.22031,  -0.06946,   0.53584,   0.62214,   0.43769,   0.78692,  -0.46717,   0.31250,  -0.45626,  -0.18944,  -0.25365,  -0.29422,   0.27733,  -0.40010,  -0.18853
